6913 50
Harry -2498.712299 2182.084665 -1585.696899 -997.564309 -798.354760 -815.753825 91.963503 -1722.346413 -1169.047749 138.294653 -1333.266636 -2759.458488 -1273.386949 -472.610383 12.240284 -2036.622811 -1229.123812 94.611931 -1059.146501 -467.740572 1874.114149 -1587.813160 2651.712207 -1574.454208 -1732.690670 -1733.056188 5858.549845 -261.213426 415.023355 -1450.658946 -1492.127851 -924.561143 1858.122009 2405.567561 1859.428432 1212.622046 -220.875272 372.046655 805.814190 1532.089321 902.744462 -1469.267338 1260.181056 -1389.737083 1711.411810 -676.516486 989.140796 2385.098906 2530.292349 532.231914
Potter -439.951380 609.781109 -396.198786 -29.588015 -252.981263 -563.867742 28.018072 -396.384326 -287.749784 53.283457 21.200293 -1104.739135 -184.308032 -107.905158 -119.523012 -646.561126 -440.545340 281.967072 -166.574446 156.197605 560.405890 -524.588884 907.257127 -1022.179153 -694.922781 -763.134180 1950.922535 180.744842 227.179331 -449.593306 -729.225387 -423.765354 224.849576 468.316820 921.443774 521.349244 256.790189 85.985117 456.316727 495.101379 449.968176 -167.513942 406.996407 -653.437057 375.843224 -247.548481 -38.401029 696.286072 1104.778971 17.579084
and 1628.232595 -1057.381259 858.312473 1125.223875 255.028474 -871.763706 -85.877912 1120.241049 284.952911 -226.953816 2011.857461 848.122650 1392.802857 554.556691 -331.892071 -133.447453 392.258717 822.077289 417.790698 1329.073294 -910.322143 911.909095 -734.905456 -1233.589437 -76.624886 -251.938475 -2080.131746 877.528699 -335.080183 -249.546823 77.953693 -242.474502 -1835.479898 -1567.455084 262.548455 -58.355877 715.841906 94.945479 253.510509 -675.546848 804.751838 1727.607710 120.086630 85.862946 -751.033352 326.222994 -1623.739217 -716.126321 -57.315272 -499.533180
the -1883.929641 1176.979070 883.729026 -1789.235802 99.018152 -1797.694266 -477.037042 -1763.082900 -3102.731590 -912.559290 -304.432671 -1675.925067 710.140002 -1418.438763 -318.300995 -2998.699203 -1069.656729 899.359612 -1652.504847 87.597584 2672.458612 914.304013 729.200155 -3042.461594 -1233.433943 -3037.497128 2662.286384 1646.471810 -405.959635 185.579141 499.818734 -519.086546 561.965878 733.226109 1844.119765 1820.901217 -2027.995862 1066.144420 1166.558705 1830.687175 278.190914 -663.835590 611.139867 -1550.243348 82.003242 -1428.278975 -1167.168219 2663.052882 43.993706 111.819639
Sorcerers 1324.371750 -537.634055 -901.921087 2018.653578 -241.418293 -67.894210 258.573403 1385.045777 1835.392899 738.760041 1377.618475 141.006203 -209.055062 1105.964638 121.537882 940.542964 809.618805 177.893443 1276.750787 538.879239 -1690.813760 -607.417046 398.182981 20.806493 -163.837868 906.650976 -490.379380 -481.029817 352.159710 -1147.411360 -1193.187677 -104.116884 -879.210919 -224.497553 -172.675983 -667.372147 2056.058068 -117.583790 -71.655015 -1174.326627 1262.947941 1330.231074 219.294373 373.800859 -16.616752 796.638883 -37.294501 -1150.361815 1180.552950 212.386067
Stone 3495.293054 -1257.803622 -2442.096487 5467.459535 -623.540215 -424.841395 661.833054 3610.333244 4864.061555 1973.457712 3852.243731 -21.419739 -476.529785 2853.352751 319.207171 2278.208010 2013.278350 710.642516 3459.670063 1619.769497 -4290.639246 -1746.818871 1279.989727 -424.452971 -667.738877 2125.023543 -834.497497 -1145.885343 1011.696948 -3144.107819 -3417.095379 -409.663608 -2443.368413 -544.456317 -141.277640 -1553.924530 5644.639161 -284.771541 22.564650 -2990.394542 3569.440150 3559.655683 715.752660 691.269535 55.856387 2016.121857 -296.323319 -2900.428623 3519.800460 495.733386
CHAPTER 265.160127 -82.785476 -184.797062 440.987993 -32.988078 -61.203605 42.314917 273.387822 356.278134 153.464537 318.787609 -55.610005 -29.883395 208.143374 23.419445 139.481901 147.125272 85.513348 263.214763 148.705408 -300.723633 -141.279679 125.121923 -101.724365 -77.292687 124.408802 -4.737260 -54.345579 89.608918 -241.770032 -288.969852 -43.596216 -201.812677 -38.792177 37.770091 -85.135505 447.911292 -17.272880 25.368159 -215.064590 296.500708 280.020465 65.707853 22.297573 2.439264 146.668728 -44.739455 -190.544235 312.357579 39.679943
ONE 63.896875 -21.203389 -45.241205 99.848684 -15.509872 -8.130558 9.638062 63.656230 91.531477 37.879177 69.630201 2.407954 -13.314988 50.668126 6.198649 44.883408 35.397483 13.968095 62.428198 28.428018 -80.354302 -33.578002 26.065998 -4.137801 -8.401885 40.622117 -14.590566 -24.935646 20.233960 -57.827124 -63.528960 -8.104761 -41.404269 -8.608799 -5.175598 -28.846814 101.834936 -7.727866 2.705561 -54.658948 64.206987 64.327588 10.998992 9.985474 3.038162 38.262303 -8.797766 -54.077960 64.849710 10.779404
THE 674.591019 -235.577164 -466.660672 1081.756661 -107.997487 -115.321624 116.187332 702.627205 929.046276 391.038182 774.762781 -64.306752 -86.500452 536.572601 59.051690 410.291184 381.953668 167.242909 674.704393 331.944030 -801.689865 -342.903586 272.641026 -149.818129 -146.667310 375.158070 -106.914822 -193.280609 220.555947 -610.106544 -684.234645 -89.885495 -492.159414 -102.742781 13.151672 -263.839271 1106.449206 -47.951037 29.860815 -566.176811 711.988376 700.169835 145.142169 96.399806 1.950797 378.755592 -87.822170 -525.055359 720.262914 101.240815
BOY 103.278038 -35.479342 -73.995187 163.533611 -19.893929 -10.448976 18.664022 100.089781 152.457992 61.696539 114.300917 -3.520052 -13.920843 83.303242 8.439107 73.169080 60.649510 24.753400 109.019757 48.547704 -127.275612 -51.269776 44.880596 -14.283378 -17.326990 61.541511 -23.626063 -35.182337 32.425076 -87.115163 -101.644931 -13.000271 -67.411599 -15.747447 -4.469046 -45.046650 169.481117 -11.428730 7.670941 -86.195438 106.685558 104.711351 19.046244 14.085881 5.842136 57.835489 -14.888771 -90.343322 104.207963 10.495535
WHO 96.319507 -34.041419 -54.425400 144.206244 -8.159783 -15.255579 14.997516 94.326309 122.074223 47.471459 106.951341 -5.356027 -1.278748 70.029962 4.970317 52.679206 49.765320 26.531360 87.295092 53.704506 -102.211197 -40.932432 28.891009 -24.860054 -20.031647 45.619524 -20.902553 -17.716966 27.335989 -72.788866 -89.929816 -12.055761 -73.159996 -26.155196 5.457573 -31.978673 146.459142 -11.769538 3.491462 -74.865437 89.323207 96.290660 17.946258 13.227503 -5.200694 48.537640 -18.739310 -69.106999 93.760947 6.852325
LIVED 47.646097 -14.408886 -32.135131 77.370121 -4.494736 -5.781823 8.366369 48.928428 64.871524 27.431312 56.140104 -5.879207 -7.927392 38.431004 5.137587 28.716732 26.233629 12.411310 49.397030 25.737629 -55.483246 -25.902883 19.262916 -9.503875 -12.745722 27.253376 -5.148971 -12.974914 15.279531 -41.244216 -50.690212 -7.817902 -37.152115 -6.033335 4.329860 -17.038792 78.766869 -5.238096 -0.459212 -41.191632 47.155977 48.733468 7.864156 4.600671 0.293429 27.967019 -5.482055 -37.978274 53.561938 8.375832
Mr 4046.578602 -1208.930048 -2811.430233 6622.871063 -658.308989 -907.247440 704.298348 4107.256522 5529.271007 2305.337669 4808.857833 -659.751247 -404.573389 3173.818007 296.836278 2240.827330 2163.165898 1252.905282 4161.936739 2179.017636 -4630.371506 -2152.922414 1884.901593 -1326.216618 -1107.213427 1957.773011 -198.762700 -1066.184569 1377.295637 -3725.349898 -4418.830771 -716.738930 -3053.943590 -572.745333 405.476256 -1402.673217 6793.786564 -231.382389 397.138699 -3250.079960 4505.663043 4256.194896 1012.066457 243.596020 98.134607 2125.475799 -698.924054 -3010.499475 4654.981853 565.487760
Mrs 2379.219040 -702.705810 -1746.959388 3896.779006 -460.956949 -422.863793 449.823865 2428.176803 3377.212179 1378.527188 2725.077352 -279.885714 -321.132468 1910.578664 202.522408 1453.424384 1321.119438 682.734501 2530.292055 1183.573438 -2823.051839 -1317.566828 1158.222016 -568.054660 -576.235321 1289.043424 -192.872251 -775.758863 788.439992 -2256.151661 -2590.984328 -402.110908 -1702.232178 -248.882899 101.513586 -947.619649 4003.895234 -141.306323 204.605082 -1959.328851 2670.407114 2470.957970 575.147844 188.981780 121.517117 1279.702931 -311.681919 -1884.003803 2657.155593 385.871339
Dursley 2554.528059 -687.719452 -1919.693768 4292.607603 -495.081350 -526.501500 491.570774 2658.730572 3657.345255 1505.518270 3058.788217 -411.225864 -345.128087 2094.114801 199.781937 1496.603397 1394.893091 827.272997 2786.869478 1359.948336 -3022.248996 -1511.414101 1339.154804 -757.929874 -722.339787 1341.915607 -38.518147 -818.772522 905.932992 -2507.085443 -2945.860252 -499.515593 -1913.235445 -254.304934 243.221851 -950.132155 4438.591576 -126.628361 280.727006 -2133.661140 2973.556145 2715.880566 666.888327 100.012326 131.802068 1370.546780 -369.147784 -1961.891676 3034.504903 433.270288
of 16889.646040 -7627.943669 -10095.001756 26361.400043 -747.752272 458.179760 2580.051046 19676.420470 22218.480679 9078.262787 18531.760698 2967.046013 -2069.665081 15419.307007 1873.854149 10819.435149 10364.570369 2127.203416 14763.842714 8178.929549 -21235.887526 -7151.215109 3488.979505 631.192063 -2511.044164 12573.809856 -9148.130068 -5125.055006 3764.176869 -13722.570760 -14696.959314 -1845.879504 -13307.511811 -4469.815837 -1519.196088 -8071.057358 25566.388879 -1157.877478 -2556.640012 -16239.882291 15476.843238 16868.151826 3235.359641 5671.250520 -704.335121 11305.170523 -585.090207 -15002.435878 14425.495515 2860.258166
number 370.304165 -22.605422 -187.582184 714.805497 34.269859 -206.444869 35.971553 381.844865 426.466562 209.313539 577.265833 -296.589547 24.330340 219.458280 10.602553 49.699815 146.631194 283.600341 427.460961 323.912729 -252.968273 -223.305222 266.912356 -426.988839 -211.185385 6.433638 190.042503 34.685995 216.980430 -294.889307 -541.817616 -122.559221 -405.309119 -76.074468 249.029982 37.812099 697.754367 16.424736 150.620689 -252.822706 483.968868 422.788040 103.689992 -170.736550 -50.317659 113.457139 -201.219220 -128.063158 574.290597 42.319029
four 337.289880 33.231425 -98.906985 588.705112 26.257609 -247.701414 22.828379 268.415503 332.787117 146.605418 549.187694 -312.637752 97.448875 114.283231 -11.577828 5.469087 65.716942 324.965502 399.542665 314.859655 -152.096646 -179.673624 242.004234 -501.775821 -193.446697 -88.913618 222.373902 87.022786 198.634245 -218.223652 -487.211619 -146.216771 -391.503154 -84.563314 269.726318 114.611552 607.704704 6.208049 205.286849 -146.764533 418.616245 377.854773 81.172079 -283.990634 -45.725863 18.827915 -280.946203 -66.713405 517.340262 -4.760445
Privet 407.296104 -7.913046 -188.940784 821.662937 63.910742 -271.894731 28.854577 434.779261 432.379401 225.558253 688.397794 -401.807965 47.861956 237.746453 7.036030 3.973944 145.919430 350.713241 455.649071 398.128147 -233.620050 -255.012894 318.289896 -577.605967 -284.699020 -48.384800 282.966273 92.086220 251.753521 -321.473108 -643.016471 -163.183614 -491.913360 -90.327247 349.508966 103.177074 794.263262 34.959657 185.734391 -262.381722 558.232916 480.670892 135.774657 -233.641292 -64.141298 106.773026 -265.608242 -104.297627 699.761329 36.612760
Drive 376.818747 -27.249161 -144.921631 811.405845 114.460296 -245.848842 3.157603 455.262260 373.909659 229.143671 683.775077 -398.429296 55.447196 259.267245 7.972461 -42.769978 140.889577 330.381996 393.124743 415.081486 -210.602921 -240.710094 270.826700 -566.862842 -280.352189 -36.784701 231.612081 124.760491 238.147290 -286.139291 -610.627691 -173.381641 -510.408928 -119.275702 383.354555 124.859672 753.049274 37.318468 140.924346 -275.250735 520.912452 450.699470 139.670468 -202.684825 -78.424611 139.152565 -246.977259 -77.006259 681.426567 53.371038
were 121.841370 52.915773 1648.748659 387.012054 1511.456441 -910.799965 -453.644149 361.149182 -1620.155346 -477.170232 1417.407306 -1069.449013 1447.843758 -349.693225 -352.002916 -1841.487562 -795.468447 1119.717061 -784.872628 1650.286647 1721.715233 585.178353 -623.589725 -2609.284022 -772.229354 -1578.797958 268.698202 1939.119754 99.374335 1320.744919 -217.376797 -657.837602 -1837.102267 -1530.738848 1995.108405 1716.751802 -189.110751 133.594180 273.844567 279.293081 -401.331951 313.643903 217.741308 -1047.776132 -740.541091 -456.649949 -1675.881074 1080.678717 605.869162 -735.500344
proud -30.664255 5.990251 77.039809 -47.164137 48.769825 -25.135156 -16.638599 -21.892834 -99.523337 -44.471049 5.954393 -16.952001 57.609696 -40.455606 -12.154150 -79.251246 -38.340445 27.682740 -66.776009 30.964725 95.469753 47.831055 -42.043973 -70.579963 -17.169343 -72.573567 -1.570257 74.509846 -14.316857 69.529896 40.707836 -12.549941 -31.244418 -43.558804 50.142878 60.742903 -70.023126 18.411593 2.736482 36.612745 -42.608910 -23.899241 2.554048 -30.205545 -26.640881 -38.839729 -52.059857 60.674833 -29.988436 -31.142570
to -228.838342 3070.024718 -1007.600538 -333.356467 -1117.932591 -733.030158 774.122816 -2358.738005 1053.432246 -301.705054 -331.210100 -2748.091297 -691.739133 -2065.837191 -277.339296 642.095283 -1374.913245 1719.881721 2165.301447 -548.235977 2212.373787 -1991.565848 3069.830410 -2160.501161 -941.082530 -1758.728519 5293.734122 -341.429191 1245.895644 260.103204 -2578.513224 -488.599146 1285.052648 1585.266208 1071.175629 1329.123894 1249.588538 -396.428277 2733.580609 2059.320405 356.018276 -1224.856153 -577.770960 -3903.943441 828.975878 -2504.096614 -714.470482 669.449534 1714.777381 -546.228173
say 242.878142 68.510379 -35.403181 454.088256 7.922731 -375.560140 70.624805 163.659770 121.448748 -15.166420 515.766277 -384.667882 181.784257 -11.490115 -58.370705 -105.665195 54.081222 328.221340 236.028534 269.102920 124.327993 -106.249090 210.128586 -666.992233 -309.617842 -357.733828 414.720458 223.568830 199.880228 -143.690849 -437.519449 -86.329098 -338.337249 -79.659496 315.071881 223.775685 437.201218 196.698087 243.609999 -33.599772 369.656974 240.019567 55.073384 -311.542973 -206.382554 -237.298871 -344.399077 75.901835 477.083228 -64.025269
that 560.075300 -967.589674 86.278524 1055.515923 -4.223134 -1409.796391 -284.619423 1107.525960 -228.940380 155.942128 1841.207261 668.913659 1020.813132 953.538593 48.178514 -1171.855759 653.963319 465.515923 -196.114472 907.390099 -1096.537768 1112.689061 -342.675063 -1607.877841 -540.043200 -698.085080 -1269.650102 766.773415 -810.488459 -1439.193033 234.490541 -404.722317 -1222.616633 -566.956552 260.744925 -86.335450 449.863100 910.946948 58.862477 -832.583233 1773.140366 1962.876508 997.018159 512.255918 -36.483791 631.433391 -1328.235203 -199.454498 306.776374 291.093629
they 7561.215245 -4375.690041 -164.359706 12115.419163 3053.560873 -2799.079500 -179.629393 9608.807411 4738.127828 2243.094871 11501.825182 -908.921705 3222.454380 5773.722044 -111.890101 -529.812916 3159.743362 3339.382927 3269.615187 7322.156188 -5131.558420 -352.046755 -1012.694120 -6227.888609 -3055.399808 797.695778 -3981.800548 3082.335038 1593.470647 -3275.696922 -5759.634695 -1971.022607 -10211.175290 -5733.465742 3949.282011 276.920172 9836.876232 724.200082 -916.007486 -6394.043750 6327.537267 8457.353641 2476.895306 1230.796507 -2839.823447 3526.157969 -4429.806628 -3352.138314 7048.072064 -367.108937
perfectly -33.798791 -2.719776 35.799018 93.087335 69.639282 -157.427756 -45.497459 66.833966 -125.912455 21.649347 161.660842 -135.876339 84.008872 41.856923 -15.392912 -220.876505 -11.685378 85.527169 -60.070639 137.674580 55.678410 28.878481 27.357169 -268.182762 -127.566197 -142.606411 91.776298 139.048884 -0.551557 -65.033664 -62.024069 -75.574559 -133.449289 -27.556199 196.831670 116.657612 31.677140 71.468667 25.992797 -12.361841 129.068320 101.168471 95.734545 -53.874206 -8.462429 33.907340 -111.297105 131.946533 158.250879 23.269617
normal 17.313395 -31.327820 25.874634 183.354766 74.667544 -209.021612 -43.638434 136.458263 -92.619313 40.770473 258.772938 -142.871344 110.029376 82.430306 -20.365286 -231.998183 23.558738 117.741751 -27.767955 190.941445 9.212168 35.737458 28.819299 -331.915079 -159.330493 -150.516674 70.693667 156.937528 11.333642 -109.991768 -105.679627 -90.243016 -202.262982 -55.303982 216.761581 109.009787 106.399404 90.934502 31.928064 -57.580989 205.929796 183.535800 124.652830 -53.568616 -19.614685 51.237519 -156.196157 116.425701 213.729837 25.117864
thank -8.550439 -8.411175 -24.121413 34.507463 -12.360074 -55.153778 -8.795759 30.966758 -8.782248 18.974219 51.166991 -6.734227 13.433269 33.338200 5.741049 -50.919393 25.217276 14.885470 1.052903 24.334989 -36.038767 9.849774 18.336335 -58.521879 -37.844763 -24.456586 9.607465 11.998223 -13.058802 -72.921474 -16.487566 -17.490791 -22.687601 21.105893 16.890998 0.762314 20.248018 36.559448 9.392349 -21.134519 78.369478 60.309569 39.539740 3.960109 12.555047 24.401874 -25.558472 16.964446 45.858185 28.657870
you 6566.339928 -4790.945170 3721.117315 10790.475814 6526.541459 -2704.069090 -1287.521156 9886.488389 215.837205 929.959377 11858.835345 -1736.562526 5310.157885 5032.858034 -748.856371 -3817.572871 1475.879326 3724.688785 -110.250965 9417.039317 -1442.252953 1230.275576 -3759.182204 -8214.395928 -3509.055608 -866.430965 -5127.788281 6411.581785 1431.011260 626.494481 -4173.077215 -2521.190982 -12663.754247 -8666.099407 6811.077033 3087.306363 7085.779835 551.443791 -2068.309150 -5696.301040 3193.042676 7230.099958 2251.214193 959.340461 -4594.380420 3236.635679 -5728.949290 -884.983495 6167.030714 -1609.852121
very -250.772029 -451.437224 3097.056014 912.260691 3267.918584 -2009.882999 -1192.691112 1412.694304 -4120.460961 -697.009710 2836.891663 -2354.351345 2587.009873 -8.988318 -606.468463 -4673.800035 -1263.441911 1673.462642 -2694.304021 3507.739156 3086.304406 1424.066176 -1409.674578 -5120.477307 -1889.566949 -2933.822898 349.144487 4142.817186 12.313415 1806.651645 -127.801186 -1327.546702 -3853.047586 -2731.239056 4462.458623 3372.187990 -624.429543 700.063228 -296.862855 109.686479 -284.366188 727.196602 994.557509 -968.477638 -1503.605243 -25.379387 -2700.572360 2925.486187 1666.072247 -830.450306
much 239.375436 162.110372 462.200115 1460.979742 1052.595152 -1145.428446 -360.454042 998.333057 -858.513314 111.820876 1845.022842 -1715.373690 617.897349 270.444734 -112.868301 -1748.521253 -238.105898 1083.556060 -283.936923 1554.177595 864.841665 -98.846473 447.915134 -2735.410678 -1307.119424 -1183.130483 1222.503791 1483.853287 382.555706 -165.684273 -1268.382773 -725.391288 -1737.188222 -580.156892 2174.784790 1362.757923 985.810332 491.861262 311.905716 -217.269232 983.111746 716.488532 637.860201 -843.805470 -414.855623 64.811549 -1099.111696 1042.313794 1811.990440 52.801708
They 672.305700 -255.927261 585.401313 1756.391245 1114.562938 -1119.245546 -398.394964 1351.916973 -619.418765 59.290101 2225.096247 -1205.636757 918.654063 544.798324 -140.425983 -1574.753376 -34.022745 1037.451496 -225.110217 1687.263986 464.807531 147.281406 98.570130 -2668.015865 -1196.830880 -1030.791518 464.197738 1549.333528 249.342321 -270.999032 -1107.673586 -723.295746 -2107.185280 -964.067287 1974.027193 1149.939310 1091.065109 533.466673 159.446624 -523.782899 1106.870973 1168.843255 705.255379 -541.077213 -599.720692 257.367799 -1302.870289 622.813801 1595.705848 -27.994216
last -118.413677 828.994385 -143.765253 1528.230903 728.462333 -1389.379676 -238.206836 767.447165 -700.335590 397.761148 1850.855603 -2395.401520 145.072931 245.663985 -61.294710 -1862.328033 -323.405595 1234.218417 50.126589 1421.333150 926.804992 -667.705943 1388.028540 -3151.097012 -1733.009854 -1301.746266 2450.888584 1278.903870 593.236871 -731.096357 -1931.326300 -890.663410 -1407.889258 210.961390 2477.567240 1524.752667 1383.565045 610.112570 677.135521 -45.279412 1488.249385 614.826005 736.258604 -1417.696204 5.166386 28.630266 -914.992427 1393.423785 2532.300765 379.123573
people -101.147350 115.443067 422.666406 774.497342 901.750944 -554.092244 -342.764491 651.861772 -887.822365 53.445867 1014.174962 -1155.981550 383.046009 208.344442 -49.584644 -1345.129303 -261.563564 567.391718 -507.766271 989.822675 749.391440 -51.065070 146.111650 -1684.752569 -892.227296 -721.367331 778.654748 1074.273643 259.738500 85.596444 -704.149391 -505.825121 -1151.176515 -391.667872 1540.338318 984.292426 336.897436 276.213321 -0.643770 -107.663693 367.428197 280.397128 421.161863 -437.169971 -289.919384 166.429940 -551.232675 871.810153 1079.343256 100.768141
youd 15.533134 110.824802 -60.895195 340.164976 102.809826 -274.848086 -36.121066 179.037653 -79.674418 78.885620 383.133717 -398.485195 39.537946 82.432220 -5.268087 -328.407996 -16.529079 234.034257 38.114645 252.061268 101.603104 -106.662371 251.594449 -583.587761 -329.049708 -237.738975 419.508615 212.203210 97.404559 -204.409345 -359.037441 -167.701427 -265.913912 35.805581 425.512114 233.961529 290.650596 140.492366 130.056942 -41.393521 352.442322 182.262717 170.877007 -225.494921 -6.665515 6.452746 -186.627873 202.728331 473.799172 86.376062
expect 38.700919 91.189224 -11.405496 293.795988 113.347503 -232.593384 -39.867930 140.050500 -76.468570 42.866694 336.073153 -346.568943 71.705870 51.669629 -15.819577 -284.168916 -34.141149 213.408770 26.599135 243.032743 128.550164 -81.836854 194.145045 -524.249576 -276.164109 -230.756921 344.651166 213.667785 82.703046 -127.154923 -305.364464 -149.468094 -258.032844 -16.391170 381.870729 228.462095 237.218800 101.344225 116.192733 -24.762190 265.289926 141.880737 128.668517 -208.741143 -21.526239 -13.943690 -194.395312 164.547808 399.860357 36.405482
be -49.835031 -1072.767381 4400.108414 1498.135391 4360.649359 -3024.363711 -1792.629283 1947.108652 -5523.425885 -1074.431165 4023.413260 -3246.788934 3897.828619 -172.519705 -916.579927 -6328.890601 -1588.460286 2383.519109 -3659.260259 4767.893763 4208.469039 2306.318558 -2219.482299 -7227.208476 -2417.301896 -4430.130771 499.944232 5837.848185 176.281455 2507.118243 10.140131 -1711.633937 -5322.726350 -4006.269058 6039.143175 4486.801614 -859.554212 1064.283644 -291.457381 268.610554 -200.627373 1294.116076 1533.612300 -1150.873373 -2392.954392 -260.810932 -3948.531172 3873.829260 2114.454561 -1251.482130
involved -24.914264 63.293406 -32.481577 119.168612 38.198054 -137.529180 -19.514506 56.913622 -60.197376 43.135207 157.920230 -182.767822 12.979162 33.395172 -4.062040 -173.259084 -21.640759 105.179166 -0.621112 112.860071 52.698021 -40.103111 119.714637 -272.565693 -149.493188 -119.017145 196.820569 101.043160 24.702029 -99.757576 -144.296158 -81.120095 -99.812078 31.783787 199.196622 116.895583 110.063963 62.123130 61.888089 -3.761119 150.325615 73.242852 78.908632 -107.754134 25.900174 8.198424 -86.810177 109.555925 211.672222 42.389997
in 3139.874305 -1821.158761 388.264891 4502.618367 1365.362829 -1616.982178 42.239587 3968.183997 1290.046029 402.032248 5025.818144 111.846753 2037.018113 2264.395664 -154.060272 -788.010491 1163.495194 1572.636118 869.334617 3318.956271 -1793.130433 320.075381 -870.151820 -3037.428980 -1571.650731 -116.991952 -2195.758729 1735.651828 237.510341 -1307.375981 -2059.648359 -869.088554 -4694.307966 -2718.672245 1688.726238 328.590754 3618.682583 653.689447 -379.022225 -2586.595249 2582.947937 3674.267602 1120.231466 361.544276 -1345.555448 1244.221563 -2396.825753 -1052.336127 2582.941076 -479.937593
anything -132.600104 -609.504358 3569.511204 243.128883 3474.225874 -817.938106 -1132.033641 966.214691 -3840.538362 -1009.059991 1607.798026 -1970.901261 2417.597218 -628.299938 -672.827168 -3481.814277 -1494.211005 1141.824794 -2668.561288 2813.422081 3581.928402 1289.692783 -2176.561529 -3550.006272 -1010.206028 -2312.565683 -83.814377 3749.876668 453.802513 3290.574333 420.584581 -789.121120 -3276.454827 -3113.499400 3698.440499 3053.840305 -1288.079259 44.521144 -674.165969 454.518184 -1899.076063 -381.178576 181.087644 -729.459604 -2040.837554 -342.444158 -2007.844503 2488.515738 579.768917 -1319.763140
strange -44.200248 -343.701019 1291.712120 30.971682 1178.250136 -401.733179 -439.898840 361.471470 -1431.777949 -368.619665 569.940266 -575.727267 943.052029 -207.118422 -228.533488 -1301.977989 -474.985135 377.435945 -1023.894557 983.115108 1195.448300 625.952397 -864.118638 -1280.740890 -310.281013 -871.463415 -189.467836 1355.900344 63.692386 1082.377257 322.444741 -259.409961 -1148.354562 -1124.862067 1222.281179 1018.315591 -563.629264 99.974996 -249.254783 143.944889 -601.195396 -24.425379 121.973493 -142.444496 -727.527213 -81.276799 -780.751305 880.897941 77.954729 -464.781397
or 2234.467396 -791.958613 -340.270718 4117.702822 709.291698 -1491.710537 37.824819 2638.006385 1433.480314 613.640259 3863.176416 -1462.229872 838.468918 1348.191256 -114.699135 -505.327734 1007.949669 1585.819786 1404.647526 2190.528689 -956.681472 -337.932036 530.602799 -3130.233829 -1577.790500 -569.125892 363.134798 1187.640533 1020.528536 -1222.815833 -2565.922538 -638.635427 -2972.437601 -1214.658878 1789.213324 551.520446 3444.715597 601.633122 432.757716 -1514.039508 2540.383660 2586.613013 830.084968 -397.014042 -1183.644948 411.058546 -1598.883704 -368.734473 2827.667538 52.159883
mysterious -27.681357 -82.266750 286.909773 26.864734 280.844667 -107.287278 -111.003758 94.041688 -356.797618 -72.846791 144.291794 -160.914260 209.600808 -34.739716 -44.438910 -347.036784 -98.215400 89.229555 -256.850102 231.251353 280.667870 153.937463 -183.889153 -330.663436 -98.603058 -222.350610 -20.861498 331.570278 14.504570 221.078529 68.398208 -63.140619 -268.232928 -240.352285 308.347761 244.266837 -129.784608 42.051700 -61.194618 26.820454 -107.176856 7.216287 49.346281 -23.607358 -166.556641 -8.575903 -179.000377 232.170684 38.699822 -81.747552
because -74.054945 -1185.665663 4421.503643 394.078187 4109.934716 -1421.873468 -1543.088511 1357.692798 -4842.800892 -1263.004207 2180.770636 -2160.076142 3209.351659 -623.317957 -744.339816 -4525.917313 -1532.674523 1426.596545 -3457.746346 3448.189909 4059.468781 2119.631706 -2849.353477 -4580.627692 -1182.918337 -3052.892179 -545.834469 4715.408420 297.466565 3612.639730 890.957906 -923.655664 -4092.815964 -3875.380075 4373.069103 3539.694583 -1722.002564 392.415884 -804.289891 430.524570 -1854.735863 41.975212 530.288459 -488.370240 -2528.216598 -306.551907 -2724.144499 3028.075392 433.737771 -1472.440578
just 2392.600742 -1353.518022 565.470235 4152.919090 1723.649830 -990.331662 -301.900352 3388.132872 812.674724 518.825237 4199.696452 -849.024706 1376.191447 1839.090563 -205.154364 -896.453808 728.723301 1383.770144 633.560140 2999.922150 -914.685775 -57.549133 -599.499635 -2809.878510 -1384.388904 -125.597771 -1126.012594 1754.233214 715.883639 -421.720527 -2025.903929 -837.233295 -4000.828537 -2362.415094 2166.590883 798.524136 3066.754356 276.989915 -395.990765 -2019.778514 1725.441516 2617.656402 876.792605 141.402817 -1333.936819 1032.098656 -1742.859830 -587.456703 2549.295377 -260.747887
didnt 950.650506 246.533001 -176.997194 3520.986846 1187.903578 -2547.490358 -315.734204 2048.930673 -416.119300 524.585615 4440.760239 -2551.896517 1259.798480 1372.653563 -300.009803 -2982.904674 -33.544253 2211.416717 292.922168 3128.110094 186.360725 -424.683782 1275.044505 -5339.816019 -2923.199965 -2089.537096 2025.888214 2314.926241 383.065901 -1839.677900 -2983.497325 -1639.315093 -3400.881653 -826.483451 3821.238509 2040.102965 2873.716204 926.585938 912.686925 -880.316729 3151.458081 2584.784665 1747.851364 -1549.503360 -181.025734 433.809658 -2410.820026 1116.383312 4096.633119 337.998744
hold -91.589930 -0.266561 456.190498 18.485620 448.742765 -208.633098 -171.077649 74.745058 -598.482319 -136.371728 223.952382 -390.378337 312.487076 -123.338753 -87.141687 -593.716409 -228.757695 208.583810 -384.439025 382.702085 572.230057 177.200556 -172.136004 -643.141976 -203.109874 -429.335511 185.014996 546.136026 57.997215 376.601986 7.292661 -147.275812 -412.086352 -334.565260 595.275715 477.192125 -181.914733 62.850662 -13.231817 120.048259 -160.874129 -54.136151 73.974487 -186.301380 -227.622616 -87.873258 -311.228140 447.121634 148.687301 -137.544103
with -410.817543 -2543.240254 10949.971004 553.275165 9951.303617 -3671.586741 -3784.060549 2842.090579 -12179.940318 -3410.599617 5538.565423 -5099.715329 8046.344764 -1736.829451 -1982.381689 -11242.961068 -3866.129234 3574.687833 -8483.422258 8401.014445 10154.590331 5442.849727 -7000.184853 -11522.924333 -2954.386459 -7911.959253 -1421.000038 11735.964639 399.973366 8981.476463 2321.558310 -2321.925222 -9940.263673 -9363.420796 10662.998572 8911.277876 -4543.422328 1190.701888 -1699.725013 1264.642707 -4553.972778 56.175687 1266.619250 -1547.157524 -6129.959770 -1236.053412 -7003.153554 7453.628165 728.017464 -3602.391268
such -136.372577 -96.376334 694.178364 163.305938 720.097900 -497.744552 -327.571479 188.313846 -966.734802 -146.375595 488.049934 -737.154264 569.029848 -158.435028 -143.170719 -1033.236565 -316.313377 366.173438 -587.768135 658.732676 865.009546 316.501178 -298.330325 -1189.483500 -358.253728 -795.050321 337.829841 933.977952 109.547133 503.356617 -5.861565 -238.768064 -718.165451 -538.401898 1030.579705 776.932396 -244.397170 183.794803 5.741314 154.841223 -102.874387 41.956103 201.355272 -259.942551 -392.990879 -91.116113 -566.649911 748.697646 348.932630 -185.053415
nonsense -22.475330 -23.143040 110.132018 39.667477 120.206968 -75.820988 -55.539359 47.127883 -159.636043 -17.579098 84.142838 -109.947320 84.631396 -9.362396 -20.504513 -173.606770 -43.463575 54.323320 -102.465678 112.235128 125.865816 53.288292 -50.981357 -186.351870 -59.154962 -116.676078 37.084667 149.371465 12.231325 67.621706 1.066606 -42.388628 -121.056697 -89.147206 167.737800 116.853096 -34.400460 29.659428 -8.339316 9.068129 -5.301418 14.878399 36.245189 -25.971984 -60.935872 -2.921235 -85.503840 119.433002 59.085568 -18.387895
was 14729.810180 -6725.458974 -1357.855742 25526.759301 5948.260791 -7761.253384 -164.184597 19016.463573 9119.612742 4468.364584 25214.143487 -4644.963521 6549.825827 11414.129294 -411.178777 -3017.658371 5869.658693 8476.399796 7361.758981 15795.341026 -9067.067964 -1877.637528 501.207504 -16461.541827 -8709.616980 -489.190215 -4156.724709 7264.561077 3577.456635 -8282.422726 -14384.810741 -4998.166137 -21304.978336 -10124.829477 10547.182329 2404.905485 21369.434974 2565.424974 -98.426781 -12234.068165 15120.300798 17541.784567 5974.484166 -258.352403 -4989.403321 6232.822316 -10114.192136 -5150.860085 17202.487804 -130.825402
director -13.333474 -13.214092 100.014315 29.809701 107.172915 -65.401541 -41.647161 31.796346 -136.306835 -29.515577 74.686523 -92.620468 88.445361 -13.689473 -21.514425 -149.773490 -41.458568 54.361280 -87.053071 98.260733 121.294524 46.988955 -47.760824 -171.111679 -58.927372 -111.854655 36.040868 134.225363 10.137397 69.212162 -5.039802 -33.654570 -110.527240 -85.875269 147.917314 111.260249 -30.161576 28.346021 -0.786797 14.985696 -14.446976 13.626868 33.163453 -35.968865 -61.850166 -14.831245 -83.599017 103.832652 44.516556 -25.509972
a 9825.432766 -5415.682457 -663.996874 18859.803303 5173.508045 -3363.052776 -1590.813069 12715.562789 7457.414598 5077.325013 16311.060570 -3488.266433 3066.146170 7713.550052 273.679152 -423.237816 4977.409018 5357.911422 6219.989286 10300.407398 -6932.402687 -827.296452 755.461807 -10175.703920 -3389.921600 727.469112 -4123.743965 4580.079987 2435.739330 -3969.349686 -8787.266783 -2985.865758 -12826.650667 -7318.536104 6810.011710 925.433756 14564.889251 362.707251 80.271302 -8871.846952 9954.699719 11729.682531 3236.221304 483.425912 -2606.937480 5270.151743 -6532.861253 -5616.903725 10708.882434 1024.818674
firm 10.626577 -32.867596 55.173962 18.127544 47.796085 -56.679719 -16.469157 45.819828 -70.337810 -20.378352 62.931515 -24.065013 70.162935 12.609266 -11.503976 -85.479699 -16.101275 21.245301 -54.339536 65.459593 34.906757 39.396610 -56.065551 -84.878960 -33.889739 -51.069159 -21.918764 73.026683 -0.246443 14.193182 7.349984 -18.165054 -92.675310 -54.994169 62.916983 47.677598 -8.119760 27.607549 -19.401468 -9.725535 1.600288 33.421479 30.855260 5.924313 -38.508894 12.924594 -53.807832 53.492047 28.358161 -23.119247
called 123.857981 -77.696013 227.633991 309.834753 280.263082 -97.878853 -121.710148 145.328891 -128.646526 13.442393 270.827947 -271.978319 163.024529 -46.214038 -25.209773 -171.297324 6.296751 210.449054 -10.430329 251.225349 247.348357 82.505074 -35.994090 -447.795154 -56.837427 -241.341379 58.807511 313.854109 87.985211 239.091155 -106.597709 -46.119511 -245.650597 -273.221217 316.174600 207.409879 114.531346 25.376347 88.253652 -23.535909 45.781658 96.489706 5.821466 -105.083770 -198.089232 -59.281897 -271.622265 39.818728 140.205774 -54.916746
Grunnings -22.065099 17.712858 94.393477 -8.162875 94.315293 -71.587365 -22.174122 16.466990 -140.535999 -45.752942 65.937461 -106.893417 85.584708 -31.424727 -25.657674 -144.313933 -70.930649 49.570983 -83.165155 92.353185 138.814163 16.495252 -47.630025 -152.816128 -72.899107 -102.506679 61.974640 125.850871 21.551440 71.439916 -21.897178 -35.322012 -118.135242 -59.892025 145.418867 128.762927 -30.091350 25.676471 -6.846322 34.511426 -44.904687 -18.766695 23.193104 -55.357601 -51.301179 -23.303020 -66.856291 121.888243 63.536264 -45.957281
which -27.051974 -292.689733 175.224674 -24.526047 -105.263529 -503.723081 -192.844159 -137.661815 -237.432082 -10.009492 213.449104 125.839083 396.492680 -55.994833 -24.025821 -319.393860 114.652439 190.304366 -134.371543 71.836409 -71.675818 548.507039 -109.519948 -544.858644 62.718788 -554.376616 -254.788659 258.945999 -349.413154 -174.968937 428.615701 -17.090849 35.736940 -99.118731 7.487476 -49.884275 -282.496385 210.700132 240.161941 94.377706 415.189654 440.611338 246.237888 108.811417 58.161649 16.427236 -524.144896 -64.456653 -249.061759 23.345551
made 547.383473 -1745.474592 3366.918109 724.983237 2969.231230 -1385.354752 -1246.525698 1774.935995 -3344.381433 -1018.755052 2091.202119 -1277.218965 2790.542806 -197.330280 -497.483535 -2992.584648 -687.284949 691.453710 -2497.075409 2537.847426 2355.847285 1969.548226 -2993.598428 -2950.721930 -538.670547 -1950.782942 -1548.845238 3508.497680 262.134962 2439.575554 923.815638 -330.736245 -3679.891967 -3117.238363 2736.110173 2187.153411 -1058.626926 737.678244 -1071.560958 -211.864668 -1230.083119 527.514791 510.296643 482.545383 -2386.946740 103.670323 -1957.680175 1897.181352 44.938044 -1136.822201
drills 8.050159 -62.354695 219.603152 47.111417 194.806474 -211.695497 -74.894705 105.557322 -301.654702 -85.566082 196.406171 -194.107833 234.535946 -29.815169 -50.094375 -333.965429 -100.633068 106.219827 -196.391678 226.912238 243.336136 113.239834 -139.966803 -374.691778 -136.784244 -249.068677 56.354883 295.440131 25.796423 104.163630 -8.611652 -73.453621 -297.629634 -184.501276 301.772231 229.578997 -54.683402 97.724278 -19.555542 28.267540 -15.284282 56.986124 84.807867 -55.090290 -151.294908 -21.601908 -197.156361 247.337045 120.145237 -91.668750
He 2164.387545 -893.519289 742.939323 4659.816818 2027.206536 -1671.479495 -621.682444 2903.583818 374.747800 712.564434 4750.603275 -2049.596861 1481.082041 1338.703563 -225.117395 -1642.903243 710.072552 2267.017391 837.390077 3329.341452 -99.402303 187.649274 235.046737 -4701.078659 -1723.846359 -1448.987981 216.832018 2553.588373 827.972047 -290.213917 -2466.914518 -1178.104343 -3929.544427 -2287.786499 3235.114884 1603.026591 3260.909931 507.446709 532.291897 -1600.995805 2535.594800 2879.359005 1025.653175 -952.826947 -1297.070421 352.654594 -2682.814857 -71.821879 3114.656373 27.800693
big 260.378513 -673.802722 1552.867383 296.289078 1410.244391 -645.304138 -454.331268 827.793746 -1538.095497 -464.565487 1034.359431 -596.385395 1334.880012 -38.270347 -281.384188 -1459.038669 -452.882676 379.592054 -1145.795646 1343.704898 1152.980606 760.504742 -1318.334320 -1446.464304 -374.665214 -878.151719 -647.932808 1617.197140 116.960476 1148.633774 285.739880 -253.597114 -1830.583945 -1532.072128 1393.570423 1110.022532 -377.494892 233.842051 -489.977835 -113.912632 -648.694121 223.104552 200.359400 69.993492 -1022.872141 66.393801 -945.879638 934.896271 231.477811 -678.559410
beefy -23.903296 19.072599 55.047398 -5.922321 51.233109 -55.410155 -19.605128 -5.888365 -90.955767 -23.025741 38.624718 -78.289048 53.066289 -28.645807 -16.988710 -101.889657 -47.318783 39.960967 -49.412716 55.328170 98.454249 19.087994 -5.763091 -124.195237 -49.514813 -86.515787 63.016364 83.098770 7.209829 40.446079 -14.154172 -26.605623 -56.670800 -29.402661 102.267517 81.912493 -24.938142 15.595440 17.772399 34.655170 -12.464349 -7.962284 21.347384 -49.531646 -18.845339 -20.983698 -55.518602 82.998184 40.788989 -24.789722
man 76.711624 -449.769178 1231.128822 165.480112 1101.034274 -671.939341 -376.447308 550.439971 -1357.297693 -359.071771 908.878212 -550.602720 1124.606392 -13.994509 -243.923424 -1402.863591 -429.904883 395.412584 -990.101526 1163.385187 976.509280 660.455792 -946.874295 -1413.316748 -424.782964 -880.359761 -403.179319 1380.020246 -24.969352 800.106554 245.132526 -301.393008 -1437.427448 -1140.407198 1274.754700 985.516958 -352.858952 223.882654 -295.810147 3.544335 -394.050878 234.527861 270.424615 -39.636535 -658.285541 59.393043 -886.191409 837.591719 277.821288 -511.733440
hardly 232.508114 -478.573474 1169.882487 219.356616 1071.062994 -379.539853 -321.589737 577.542949 -1100.626816 -377.575170 703.952490 -437.934075 960.969443 -56.441569 -212.097982 -997.965371 -336.689964 278.957611 -827.303323 969.588297 901.052192 548.930043 -985.376006 -994.337411 -245.889266 -622.441227 -476.698910 1192.785345 118.495057 939.147665 200.979327 -170.243698 -1318.882813 -1151.761220 1004.234368 814.192072 -291.932690 145.420734 -363.108595 -68.466455 -550.616047 95.747923 91.960091 30.055528 -809.355313 -15.083156 -672.699712 662.548168 123.153185 -527.323841
any 187.992649 -358.048409 898.199582 106.910261 779.315690 -308.792646 -238.792852 385.299888 -870.549105 -360.859998 556.216398 -202.210903 809.306631 2.484634 -193.601718 -860.956064 -291.157732 250.120789 -689.658696 767.468314 681.759735 502.600461 -743.475415 -846.876621 -279.580439 -559.711812 -346.573184 931.141415 -4.903904 663.030977 211.077439 -199.128706 -977.668567 -912.618847 775.949651 613.493603 -292.988763 121.830594 -239.479323 -2.289937 -331.948113 139.132471 168.316893 6.010556 -587.826133 -41.300850 -599.981393 501.449953 43.459644 -413.549189
neck -46.777416 -7.092441 465.526772 1.541145 391.968208 -330.175957 -154.581418 40.793802 -598.535512 -203.555971 290.531480 -414.222674 416.592190 -158.196919 -109.990954 -603.568277 -254.571880 241.408783 -351.287933 393.750632 591.797827 200.970065 -214.443388 -717.415724 -236.520253 -522.342097 191.315796 583.586153 46.274518 333.787924 2.697544 -136.210480 -454.203274 -332.330628 600.237241 506.781942 -180.768934 131.643471 31.989542 162.943599 -126.651582 -20.176153 100.741767 -223.780387 -250.036473 -160.572394 -384.234959 453.400575 156.090308 -185.220748
although -139.302375 106.905343 164.391474 -83.581399 159.016310 -181.172597 -47.669764 -26.695429 -342.680188 -77.289546 112.772555 -261.657378 135.570944 -75.820775 -52.611638 -361.924625 -175.611601 107.283568 -201.548597 174.489494 322.113779 16.486502 -10.791361 -364.810282 -191.800648 -255.435092 224.798556 253.503143 6.905591 96.997265 -45.677814 -96.924012 -174.520671 -47.066706 342.666249 291.043389 -99.315698 68.683203 24.724056 118.704991 -66.859294 -73.220447 62.284851 -168.535715 -24.885721 -56.810678 -131.975503 299.790837 159.008080 -66.422107
he 1549.879444 -1081.144322 1093.261372 3538.624840 2121.211383 -1019.703884 -900.658745 2414.670524 -92.043815 684.694462 3528.097013 -1603.010364 1226.100809 997.121223 -177.993015 -1368.215630 412.029726 1436.563704 311.668633 2679.906083 83.231105 470.396794 -389.580313 -3380.461511 -839.266943 -953.553171 -448.992133 2253.677531 630.811464 426.834379 -1375.751888 -861.686761 -3233.850258 -2168.315113 2602.816912 1354.030008 2071.967875 177.494932 46.416985 -1277.394193 1345.607197 2033.075802 684.953114 -354.577632 -1106.650123 646.309047 -2023.149744 -71.179803 2054.267767 13.331364
did 440.440527 -892.852594 1951.754586 688.869657 1802.769019 -452.873047 -623.449537 1014.249785 -1526.556022 -496.799152 1196.707766 -760.289401 1553.050359 -15.340263 -184.271384 -1346.253575 -269.127474 572.997828 -1159.997838 1609.722271 1353.129974 806.779392 -1533.349085 -1529.058837 -268.268776 -864.530700 -1069.428590 1821.869006 82.001376 1649.080875 302.704118 -109.845831 -1953.571304 -2023.241698 1643.936913 1129.690448 -267.616792 206.575994 -583.170736 -284.024389 -862.479113 97.521237 81.964526 209.666587 -1251.604244 124.738134 -972.915396 590.176568 124.155155 -825.998396
have 573.070743 -125.780555 2148.202340 256.651985 2092.734881 173.093771 -80.869352 815.246458 -1497.678057 -933.997907 903.930954 -896.147239 1492.255826 -251.007544 -449.676810 -1061.825438 -969.610574 665.293903 -1143.540885 1789.331664 2137.515027 40.524575 -1527.116708 -1199.587551 -637.183232 -571.988353 -454.154126 1761.475930 559.269006 2472.214857 -315.952854 -230.608725 -2273.661792 -2306.857529 1889.244714 1590.454294 -147.106125 -345.037579 -663.679426 6.929539 -1907.570552 -674.936357 -423.329651 -489.625833 -1563.764449 -338.852673 -750.043702 924.914379 371.420168 -1460.598061
large -332.037880 176.475378 1309.299938 -207.259900 1105.486276 -863.358686 -366.610992 -35.627672 -1859.085657 -657.212404 632.418914 -1242.674473 1110.259269 -498.332427 -286.818114 -1875.167193 -792.988083 719.018116 -1184.730602 1081.766951 1885.716051 423.487855 -438.220313 -2066.919054 -859.978978 -1541.795989 768.518576 1601.158320 58.968800 968.779676 -64.823232 -390.224080 -1113.238855 -841.858540 1824.626837 1485.019702 -614.554845 358.780586 118.309521 569.688245 -486.629465 -293.631171 291.916188 -711.036446 -598.662710 -437.216760 -951.948198 1430.024252 491.361997 -592.756271
mustache -74.606427 106.240605 54.105242 33.060514 91.347042 -117.147840 -16.980379 -6.515305 -156.142384 -13.539883 113.034055 -217.392129 53.405829 -25.027977 -16.767652 -223.309918 -88.094387 123.236502 -68.118926 137.908222 190.974567 -54.539583 91.908849 -298.947207 -170.042070 -167.197633 228.513148 146.928019 20.525222 19.277388 -131.030864 -82.842319 -99.715892 -12.128649 263.782927 188.940948 31.339405 34.727721 62.435564 58.676790 29.465417 -24.204167 47.306469 -155.567321 12.476599 -30.226710 -91.678803 166.503162 189.766858 -22.782738
thin -28.810724 37.824507 -35.662194 110.967138 32.168002 -113.439706 -18.851722 58.931317 -50.944796 51.351896 147.023915 -121.796893 9.125644 60.850728 9.652349 -164.382605 -2.608519 85.930299 -17.857199 103.104584 10.522308 -26.474199 101.370157 -234.612445 -140.509756 -94.828251 126.888086 86.065017 -15.174535 -115.417111 -110.763947 -74.656533 -82.104780 28.313167 165.113896 84.012003 96.093263 50.087564 45.892336 -22.243055 146.244781 83.261447 86.139352 -62.282655 52.243239 46.336073 -79.418832 65.690511 176.477989 51.499209
blonde -18.891253 11.780501 13.892390 6.211256 27.545216 -11.942734 -9.818173 8.389432 -42.303267 -2.448710 10.939570 -42.852568 5.355498 0.154879 -1.815351 -50.028905 -15.028671 10.702208 -27.854013 22.046647 39.000486 -7.115348 7.511120 -43.967346 -30.695198 -24.448646 39.422857 31.180839 11.176975 6.367809 -19.005494 -14.477276 -22.098777 1.087060 51.708983 35.681393 -4.196844 9.825495 -5.086584 6.613032 -0.977026 -10.819751 14.511940 -15.381272 -8.546543 2.652984 -4.567944 43.808586 29.869500 4.351783
had -69.364516 -1399.502564 4852.267099 -910.076598 3430.820704 -2935.201007 -997.011541 1300.567533 -6122.529816 -2515.881235 2891.574891 -964.530720 4806.589257 -344.875674 -1072.998663 -5959.552762 -1848.224671 1624.475436 -4627.808200 3973.297507 4014.094349 2920.117901 -3768.571526 -5319.287155 -2250.541080 -4004.199228 -1588.190117 5173.742289 -822.781236 2545.903756 1505.144052 -1061.107609 -5013.005926 -4184.121003 4320.450677 3690.960695 -2548.650589 1402.637748 -936.643045 576.832020 -1574.484667 743.304750 1234.352269 -212.882848 -2738.591371 -495.203762 -3513.152819 3797.209035 91.506424 -2220.935274
nearly 174.092094 -537.073759 1090.813004 188.577584 1004.572578 -370.555769 -314.657144 657.167370 -1115.208847 -391.576317 653.608007 -388.175534 901.778262 15.225954 -157.721399 -993.994223 -258.193477 188.838730 -907.188445 876.708547 802.903859 529.765369 -1016.620224 -811.386857 -286.764140 -518.843899 -551.203240 1105.263195 83.784340 797.907853 241.350086 -99.987475 -1281.382474 -1044.591197 931.739905 721.265176 -317.168886 231.484994 -484.917618 -117.690699 -522.498067 64.918889 147.754597 219.578409 -793.713155 83.661158 -494.274345 652.144377 84.766593 -442.474012
twice 143.247836 -381.221503 663.860014 178.280863 578.268609 -357.037940 -198.155194 403.825838 -657.646337 -197.017543 508.539890 -245.225711 638.142739 28.263287 -103.187008 -667.149198 -122.045940 186.896551 -513.651678 600.436040 440.905066 389.619412 -581.761718 -662.475016 -184.032539 -419.628009 -383.433347 701.556867 -15.524567 403.767632 166.033288 -83.131156 -805.717132 -666.762768 596.697618 422.062885 -158.427411 175.568407 -221.983957 -91.838912 -188.130785 165.955040 136.801265 123.887962 -441.139127 91.571782 -432.187035 355.484695 91.954502 -298.011364
usual 179.938970 -459.997714 948.768455 180.504436 871.886978 -323.621383 -263.814960 535.456241 -917.528417 -317.761327 591.199499 -341.213711 812.014039 4.304099 -155.005779 -847.359873 -236.556615 189.101954 -733.014429 781.308659 702.750697 464.104083 -855.475207 -757.617516 -233.822992 -489.812687 -477.905163 965.836828 63.374439 716.863403 202.673414 -101.401345 -1107.691503 -926.148693 811.046167 633.155969 -264.108516 178.493843 -375.645281 -87.953046 -438.848380 77.093160 117.491355 148.790044 -672.312105 57.051116 -492.262951 540.796493 83.400771 -419.677189
amount 25.310834 -44.999175 94.091326 26.615278 82.427621 -59.261551 -24.102279 53.374140 -95.344174 -32.835362 81.628290 -47.572516 100.956681 2.657471 -23.783099 -105.458339 -23.197827 36.093552 -71.022528 96.247950 74.348459 51.797060 -77.267898 -111.388911 -40.298501 -72.756062 -39.994372 107.378605 2.422050 56.917042 12.217029 -16.992026 -123.414253 -96.776753 101.690319 69.844725 -18.470925 26.922788 -24.347552 -5.791035 -18.322654 23.830569 22.605518 3.540423 -64.230071 1.585314 -72.317026 61.353878 28.180154 -50.987259
came -161.374766 24.997820 -194.111905 -112.094901 -245.904519 -259.341475 -19.084240 -178.401328 -82.117047 27.191061 -25.388937 177.130161 14.257749 59.823374 37.490023 -249.294048 67.330941 43.386046 -32.892533 -84.613354 -173.684103 167.271963 232.863264 -248.845554 -105.444777 -260.637014 138.567823 -49.090349 -223.031792 -426.872276 130.575056 -101.965669 238.239154 218.273931 -69.867646 -97.106708 -130.601502 147.209883 209.194822 65.979455 434.646495 253.919612 224.306619 -8.517323 228.067852 30.882842 -172.546049 57.380878 -48.199740 167.685086
useful -61.657026 -3.572742 191.583739 -11.740072 179.084834 -178.852971 -50.701773 48.053475 -316.614152 -74.985163 146.061248 -191.231304 191.195645 -27.491619 -44.018263 -363.057602 -113.779243 110.969325 -222.056051 210.168287 264.656056 81.979631 -73.061179 -361.325896 -171.279713 -247.539685 93.119498 266.118985 -10.138342 93.132483 -10.492586 -80.666174 -224.609521 -137.569725 317.332340 231.864723 -83.114442 79.172447 -6.758277 46.941692 -25.780935 5.723600 82.891382 -77.543842 -78.604751 -11.909334 -161.116767 251.287201 126.546686 -91.619289
as 1265.841191 -6075.539490 16915.674231 1304.198181 15245.241791 -3657.950818 -4566.651010 7508.834978 -16911.879774 -5808.636493 8198.581975 -5166.157507 12728.502599 -626.034741 -2245.938740 -14241.071689 -4429.863822 3713.623887 -13259.083669 12963.310649 13245.836945 7121.583280 -13713.585166 -12099.808104 -3760.304258 -7584.908580 -7819.902245 15995.796039 185.714754 13874.211044 3800.785336 -1774.603889 -16660.123937 -15914.796761 13986.692268 11144.010346 -5813.807942 1911.203626 -6022.588849 -799.678552 -9287.729002 -725.120303 874.391815 1494.898896 -10576.942870 427.367006 -7553.016646 8862.029843 167.953089 -6897.983498
she 828.333096 -1306.415235 3678.061230 851.214061 3527.356443 -698.953687 -676.132784 2133.775740 -3289.771803 -1325.712031 2252.003296 -1117.881509 3020.207353 204.198924 -503.724679 -2986.960490 -976.787921 1119.286707 -2674.158436 3379.111529 2807.608182 1103.815965 -2973.704703 -2773.167701 -1253.681141 -1392.318217 -1828.382744 3485.312148 168.695720 2982.680804 157.147820 -451.954120 -4261.135959 -3927.092837 3401.487535 2489.915435 -544.502080 218.915833 -1425.215947 -565.587861 -1987.771356 -11.912009 172.812948 207.310944 -2484.135024 241.380593 -1675.469810 1730.857768 658.033688 -1862.490099
spent -106.787207 17.908609 472.943378 -85.773235 397.774939 -424.788679 -51.786577 117.507166 -752.524964 -247.494986 380.060544 -342.276900 531.324938 -27.147010 -121.915510 -841.828732 -297.100772 282.819713 -537.086159 564.719149 598.656525 147.778491 -230.658433 -806.770793 -456.204718 -540.048280 118.206563 609.504910 -81.653617 214.592534 -43.805742 -195.056111 -586.023606 -402.035693 732.643563 547.471331 -178.995729 159.691917 -39.608608 103.811114 -122.798124 13.536768 173.771590 -183.995581 -190.523248 -44.685651 -390.079542 563.382548 306.176840 -290.140669
so 1197.587399 -2685.623948 6171.415004 572.481457 5253.625118 -2246.648044 -1190.671314 3543.637987 -6305.471847 -2690.126684 4055.740864 -992.611273 5691.832348 439.705180 -1064.139645 -5881.134996 -1657.543044 1547.815448 -5250.555099 5423.579919 4218.534339 2940.530495 -5631.463749 -5033.457587 -2285.996492 -3059.444845 -3562.117099 6134.580674 -253.396212 4035.254426 1208.997296 -913.284925 -7430.582580 -6339.479026 5149.520628 3981.432827 -1818.870594 1200.486855 -2441.280455 -706.174930 -2709.246414 831.995349 981.337081 860.480250 -4281.242240 352.448750 -3408.316835 3494.274134 453.875159 -3011.183642
her 1332.354426 -2105.788394 5271.930714 672.905921 4684.899118 -1269.629721 -894.128873 3000.512382 -4752.785797 -2281.450617 3228.014694 -913.085130 4534.605005 202.471097 -952.166157 -4121.217194 -1445.171956 1188.138411 -3970.886944 4406.036124 3688.444483 2100.736424 -4799.549143 -3670.146826 -1574.112128 -2059.853902 -3068.053501 4946.567014 240.527341 4158.288482 760.779228 -630.320836 -6341.836178 -5488.161666 4126.091386 3341.588053 -1270.660616 628.135463 -2121.890813 -690.327128 -2858.957668 313.870457 365.410808 489.734462 -3831.063100 132.871744 -2620.836838 2603.028740 242.141442 -2681.635246
time -194.604870 92.712872 2253.425807 135.120019 2063.315090 -1824.229793 -471.721682 695.204876 -3226.737452 -1165.164681 1944.135138 -2038.580397 2289.217900 -327.235147 -566.076509 -3641.647108 -1337.925580 1449.727822 -2151.935777 2498.156117 2925.456596 688.175849 -894.439914 -4117.839004 -2063.944038 -2678.609911 1055.411749 3062.803865 101.019705 1297.305864 -503.824626 -919.127193 -2865.515312 -1862.250056 3540.142046 2662.693621 -599.746394 773.360902 41.099691 561.858813 -381.478475 89.699614 790.324062 -1115.997140 -1249.999846 -425.416696 -1972.115463 2550.910333 1431.050336 -1160.605080
craning -29.991574 41.832514 18.578809 1.153425 29.633611 -55.323199 1.831755 -4.215440 -66.520781 -15.720271 51.196599 -70.985250 31.104396 -5.021784 -5.734521 -96.447701 -35.804704 46.912650 -31.872494 58.442642 69.789939 -17.774640 24.147343 -113.952942 -73.534433 -66.224476 73.588277 56.005846 -3.851562 -6.968001 -47.534575 -30.735591 -47.912755 -3.222671 99.500318 75.530399 11.785750 21.882944 22.210118 19.450376 13.289773 -6.173735 23.496050 -57.823572 10.714451 -11.768732 -37.807377 67.305459 74.469718 -14.494295
over 555.473332 -1334.268423 5347.908180 494.227695 4845.003788 -2090.145557 -911.606015 2651.068856 -5799.712773 -2261.114564 3609.988150 -2029.140851 4796.227481 103.287976 -983.637575 -5564.935742 -1859.323235 1912.948172 -4406.034007 5081.987498 4670.234015 1813.671645 -4000.780314 -5438.782797 -2589.798912 -3134.594290 -1597.286880 5617.127260 7.742445 3869.041002 179.027778 -1157.776776 -6410.952756 -5324.521173 5596.048425 4271.956204 -1215.622821 867.796626 -1568.617750 -240.527056 -2407.383753 248.759929 698.851217 -479.523422 -3390.148536 -39.674415 -3090.716293 3634.672963 1349.490590 -2774.780908
garden -103.390750 95.959032 37.811053 5.484337 75.750066 -128.520807 -15.558478 5.880869 -183.494200 -11.039605 111.339111 -171.908758 52.997960 11.468289 -10.813940 -254.958921 -69.185476 93.815646 -97.449275 129.216360 154.711065 -33.466931 70.620143 -287.314690 -179.915267 -160.137627 193.691506 141.081233 -8.302845 -24.975373 -98.219512 -89.004086 -95.154277 2.024705 242.899398 168.791972 6.496484 54.622101 42.365319 40.085929 54.150293 8.917552 69.351844 -121.033124 28.638372 -5.190595 -84.161603 180.545002 173.932712 -4.838119
fences -15.923747 22.126803 -4.942595 10.671309 3.640639 -26.287526 0.906986 -0.738109 -19.751568 -2.088157 15.816908 -34.399237 6.917487 -1.220584 -2.711064 -37.852227 -12.467209 24.258311 -7.426449 18.670257 25.289536 -11.494408 24.482916 -54.602646 -38.446126 -32.808582 53.804600 19.819669 1.822864 -19.765553 -29.684096 -16.890299 -8.638931 6.045330 45.583429 27.272720 13.356573 11.142611 16.261602 7.983568 21.778283 2.691041 16.281530 -27.602479 9.172022 -7.801335 -15.686407 29.455650 41.157116 -2.039619
spying -58.621145 70.887225 8.478079 -3.798320 33.225194 -56.089597 -4.310819 -16.824619 -84.477613 -9.368031 44.376188 -98.846076 17.055310 -4.464546 -3.178255 -125.904396 -44.690374 60.488000 -42.074066 59.497133 91.718528 -35.814460 63.479045 -154.279413 -101.305429 -86.154900 134.365035 68.533664 -3.723491 -15.273998 -67.414012 -51.835146 -31.435749 12.867882 137.070897 91.962588 12.590084 23.963667 38.502838 35.688594 29.457492 -12.768329 34.429856 -87.478635 27.347860 -8.542375 -36.889877 90.793326 97.211697 -4.719416
on -412.641611 -1288.877963 9612.527211 -500.021511 8398.473241 -3713.254893 -1931.541493 2548.822421 -11135.191965 -4111.918483 4979.177058 -4837.688328 8045.941503 -1050.323279 -1689.977735 -10567.001683 -3812.729859 3659.681112 -8366.192593 8191.256316 9899.783380 3378.522605 -5927.695746 -10705.822245 -4601.753924 -7023.209329 -884.433458 10185.626392 -248.094594 7604.799458 725.127338 -2020.676594 -9352.499142 -8447.364030 10452.478455 8172.200000 -3256.168057 1480.316013 -1775.064366 1098.092036 -4624.741114 -886.464305 1126.838170 -1811.702663 -5218.565446 -891.550534 -5595.208016 7138.473946 2088.171745 -4721.758832
neighbors -46.970850 68.055074 30.480446 -11.429224 44.559420 -52.412155 4.100041 -19.337147 -98.340370 -23.457479 44.124518 -95.755005 28.818779 -21.507141 -15.936623 -125.310646 -62.247210 60.221854 -51.123384 63.200703 116.481463 -25.326766 43.819586 -150.390761 -99.611930 -97.912153 125.870874 77.078549 5.065039 11.712610 -59.673959 -45.179623 -46.629637 -5.441199 136.055435 103.971691 -7.858582 13.491043 34.547596 42.395734 3.046517 -25.320900 21.793421 -90.211553 9.731160 -34.067114 -49.914147 96.988918 83.424299 -22.960112
The 713.114874 -1132.630747 5007.057297 222.864668 4528.264479 -2646.052254 -312.084811 2852.339731 -5842.985127 -2577.828021 3942.068992 -1977.833729 5252.516427 745.874526 -1079.996143 -6280.058150 -2065.167131 1909.496571 -4902.930540 5544.375484 4447.974585 1466.262843 -3934.354903 -5948.784078 -3609.280130 -3220.586199 -1455.535764 5536.290272 -237.603351 3025.492913 -405.390541 -1423.786834 -7008.327525 -5109.385124 5903.399579 4401.369147 -671.302388 1185.302214 -1830.418579 -347.648265 -2046.936853 504.141887 1282.399076 -395.336101 -3154.788715 434.724294 -3075.808249 4158.973764 2330.690273 -3206.017007
Dursleys 103.433814 -85.239386 1054.897731 109.444392 925.183002 -852.240633 -119.926723 420.067890 -1370.053885 -584.555359 966.066177 -766.227708 1214.901936 -22.838212 -269.685156 -1621.071729 -513.170134 703.458046 -1014.297580 1246.133710 1242.295194 346.587563 -514.415694 -1893.715703 -990.055923 -1187.840886 250.601010 1388.366195 -19.717802 547.827792 -255.424808 -413.404846 -1443.547508 -1025.510067 1599.600303 1131.668924 -121.786279 365.563120 -44.767863 127.147483 -117.934431 170.666560 406.540346 -432.818210 -621.333076 -144.452679 -930.211461 1081.162745 692.680939 -684.426822
small 417.732995 -317.566009 1228.273409 362.394052 1179.190954 -684.955642 -74.849276 784.397477 -1202.029094 -553.889635 1126.037743 -694.731721 1321.246948 136.792254 -282.889301 -1407.119741 -459.782270 605.879310 -981.320410 1469.823336 1148.597252 324.525013 -860.585155 -1672.401950 -852.586716 -874.101701 -248.572704 1428.749044 93.270156 821.801609 -296.119283 -354.675847 -1851.851382 -1373.091323 1577.318054 1094.241892 111.184197 257.630346 -324.594014 -167.669147 -372.826000 205.839605 259.284712 -226.350821 -838.441172 32.323214 -898.729093 922.581749 747.306880 -890.690544
son -22.768386 32.171450 194.715629 -10.269654 190.912729 -131.993535 -17.435129 49.003180 -292.712156 -113.142585 156.466723 -156.527190 199.696717 -21.199944 -58.647032 -335.129060 -129.007081 138.868058 -203.915131 230.149145 281.467048 48.589241 -65.628421 -365.161374 -204.738112 -239.495484 102.391986 272.419369 1.331020 123.515854 -49.147757 -96.565205 -248.070554 -179.581081 327.985230 242.323251 -54.004423 55.502343 -0.499087 47.468626 -41.969683 -3.155885 65.391099 -120.553010 -106.806497 -55.343432 -175.138593 235.888927 130.237213 -119.367943
Dudley 827.554570 -1321.866989 3096.888053 597.612528 2766.205898 -1503.628610 -489.609232 1999.643302 -3118.326070 -1353.354265 2508.004702 -889.159809 3178.430437 444.009657 -577.683162 -3300.935016 -806.584760 1067.095729 -2689.604059 3137.639479 2239.813399 1411.750600 -2669.613780 -3384.910881 -1588.573596 -1887.558023 -1567.919271 3383.622222 -88.313900 1911.512825 161.934623 -660.739631 -4219.322255 -3298.578625 3138.983623 2253.602245 -381.632820 778.001434 -1104.318725 -481.429753 -956.888443 697.480209 742.860034 186.448178 -2125.157433 283.570913 -2043.616426 1981.263611 857.589084 -1718.935931
their -270.498261 52.574390 2098.347057 -525.077307 1677.216039 -1674.422323 -150.712709 353.449786 -3158.561689 -1373.679220 1574.478620 -954.954804 2445.840859 -117.362741 -574.906730 -3562.524355 -1224.185773 1353.537785 -2357.997245 2299.562689 2566.952151 902.575348 -1003.005791 -3616.808196 -2031.578117 -2542.965504 325.768135 2688.910821 -511.981508 942.129382 -39.650917 -858.000360 -2508.290017 -1874.293627 3019.928518 2302.503896 -900.129426 724.663498 -21.861633 493.429240 -395.603865 229.648219 837.703797 -880.327165 -959.441567 -460.143553 -1897.743247 2311.642930 903.192067 -1309.994330
opinion -50.187922 78.239611 15.166577 48.934793 54.584390 -110.120636 -11.659554 1.786717 -102.127114 -10.837750 112.686043 -183.619791 39.230073 -0.719604 -15.521834 -176.781372 -57.483458 88.538304 -47.426569 107.713439 120.016905 -43.712307 71.465013 -238.146090 -150.026446 -134.441406 173.593587 112.726546 14.814588 -30.884957 -121.930613 -63.218224 -87.123515 12.682927 210.463149 136.714481 47.202284 45.067575 44.532807 37.923220 59.687847 -3.695355 57.598639 -106.641226 20.900243 -16.928809 -66.766849 114.812123 175.311078 -2.895826
there 1316.768711 -1033.360615 4980.442398 693.900618 4277.820234 -2728.826992 -301.851423 2357.073281 -5092.570778 -2691.586423 4331.723312 -2042.185521 5375.204732 9.750098 -1332.514375 -5561.229029 -2050.428645 2760.671954 -3861.553098 5445.184271 4772.205668 1696.422556 -3359.348391 -6632.596558 -3325.595625 -4049.218220 -957.704777 5750.570571 61.582383 3329.128659 -610.781071 -1456.250672 -6830.171536 -5404.387108 5946.879140 4398.633728 -439.500618 998.003173 -778.352503 -60.066609 -1517.422101 843.577357 1035.340340 -1363.415524 -3289.625806 -770.047845 -4035.003885 3613.909305 2025.602383 -3371.586399
no -743.279038 1450.905194 -125.778373 766.781451 570.552898 -1689.524674 -65.797717 -122.265559 -1327.847771 -15.842054 1598.069154 -2524.002039 429.599303 -86.262259 -159.260941 -2637.019497 -818.051821 1626.276235 -326.679303 1482.936497 1767.197256 -751.558549 1721.290285 -3902.096914 -2347.043432 -2223.352436 3264.441153 1509.169399 172.850864 -791.222484 -1966.755090 -1110.314446 -967.329575 335.881976 3073.753683 1948.917053 809.872200 601.519745 1211.507123 620.235889 1429.945266 290.631369 934.303630 -2040.673546 498.898143 -433.980756 -1219.749032 1774.392881 2645.861752 83.524196
finer -24.636286 41.402585 -5.295454 11.343105 17.251923 -43.368603 7.363166 -4.651310 -38.853627 -5.422063 39.140613 -64.196476 16.155830 3.020336 -4.303131 -73.727688 -27.153780 40.887891 -17.918057 47.562675 51.210732 -30.169804 35.559059 -95.418360 -69.537312 -53.489859 82.080681 38.668659 -0.311234 -20.603501 -55.940235 -29.676590 -30.554999 6.653091 84.246004 57.691092 21.797778 15.114090 20.359977 14.791231 28.070325 1.502449 26.256780 -53.121023 17.650556 -7.927229 -24.827581 50.214739 77.343828 -8.344854
boy -591.369944 724.287248 51.808710 42.087443 283.180295 -824.219615 -79.441242 -140.162688 -925.773261 -111.622536 475.121344 -1358.380616 138.592551 -206.659501 -54.704305 -1279.802988 -467.644353 563.895603 -390.416829 527.363006 1069.102992 -345.663348 616.235372 -1646.835730 -978.289580 -1029.879685 1575.057716 772.579020 88.681197 -210.861612 -739.440056 -437.859244 -374.074161 328.088542 1421.693392 986.061397 85.721081 426.839666 411.201419 410.267104 427.709075 -172.410711 374.166212 -928.815356 235.025755 -203.526020 -368.704379 1070.910278 1088.820659 46.672587
anywhere 30.137618 -47.598971 176.105906 25.338981 129.791311 -237.234813 -29.058307 74.660305 -237.917247 -99.157129 225.617313 -124.858301 254.926325 0.959755 -51.844661 -318.924751 -78.883452 144.288714 -172.705319 234.913171 184.137866 115.339049 -92.046790 -412.093979 -178.251518 -272.181047 22.214400 271.625423 -34.290184 36.576488 -24.421849 -80.067366 -281.554524 -173.398700 278.072653 199.301969 -11.493258 101.802841 24.790860 23.469149 48.615173 106.459331 108.120202 -74.177613 -88.401801 -22.790540 -234.057285 192.132657 127.896033 -121.160933
everything -94.327345 106.532009 80.415535 -22.366902 119.153716 -162.275117 -33.135542 -18.425872 -244.874962 -77.301770 74.439306 -268.232173 77.884184 -58.645525 -30.245600 -294.341449 -115.462811 94.244957 -156.347947 116.222391 280.828409 -18.828675 64.986177 -350.663383 -201.472381 -242.832715 290.024758 211.008865 29.290242 17.126308 -124.126568 -85.408419 -130.864482 22.747427 297.039159 230.856074 -46.661530 112.729166 45.767810 87.256046 45.021425 -69.959664 83.678353 -161.307391 -31.321840 -64.222226 -89.858911 268.619076 174.652040 -19.762884
wanted -215.131913 478.046454 -122.972485 353.201198 169.349254 -534.773814 -6.201673 -9.066118 -351.291672 31.322362 548.908830 -863.423430 75.761636 2.325639 -34.762044 -827.126707 -212.605411 558.447702 -49.590998 460.871117 537.757127 -294.418437 654.218665 -1280.263112 -794.388459 -708.017600 1107.762975 465.080699 67.190890 -344.943392 -717.500557 -357.157128 -290.136959 163.718596 1008.640376 609.527008 336.620436 233.903963 405.739231 152.546249 587.785139 114.135073 320.284628 -669.482398 167.482192 -150.747115 -375.083393 541.070115 901.346288 85.210179
but 1620.454574 176.355187 4710.591957 849.666680 3762.383447 -5023.624791 519.648819 1801.884034 -5508.281836 -3426.135882 5869.214650 -3630.587461 6894.154268 -104.193818 -1909.856968 -7528.675471 -2991.353924 4543.689089 -3828.818812 6950.686616 6038.922487 1022.748999 -1927.643124 -10412.672667 -5750.815277 -6536.811467 1853.974096 6697.581164 73.012714 2151.061110 -2550.719857 -2446.370525 -7959.137218 -5420.199241 8250.940752 5768.533678 741.552866 1545.328481 756.697033 773.595272 55.478690 1592.577954 2096.395697 -3452.888952 -2943.303548 -1576.512026 -5740.231213 5070.648169 4575.900261 -4541.218397
also -252.011898 350.233430 -15.580142 -106.443647 57.848054 -336.726436 64.057421 -153.000383 -350.370859 -81.172664 104.694865 -515.399529 97.100650 -76.036198 -44.334524 -536.455748 -235.357186 236.635397 -191.547309 219.986233 465.175722 -191.608619 286.169780 -661.833953 -463.342114 -439.016079 690.457698 246.874471 6.598218 -90.721111 -326.644205 -175.236124 -113.536402 141.903796 579.230216 392.892588 33.837216 129.535075 179.622485 204.779320 122.010804 -116.894786 155.387205 -393.815814 140.609703 -90.194889 -120.243974 475.848227 491.533975 -102.487870
secret -181.636532 277.401010 7.196121 -56.621112 85.133073 -273.110539 52.401765 -64.388551 -300.926181 -76.725724 123.971361 -439.463127 92.686417 -38.664612 -31.392878 -455.502258 -200.606987 188.496431 -177.373233 231.176944 390.056876 -167.691959 200.316784 -542.507882 -396.667994 -329.294774 526.636812 230.415966 12.817077 -59.660292 -297.522516 -152.342076 -166.915035 82.472578 508.598416 336.533431 62.736849 118.068663 104.779862 130.476894 87.698111 -100.236567 124.831111 -308.752683 97.095724 -38.859907 -90.843347 397.100314 434.055606 -102.108151
greatest -12.923045 1.595834 -15.875578 12.503140 0.776651 -10.396790 -12.967249 6.084234 -3.502639 13.159519 4.890544 -11.925047 -11.003354 7.788676 8.077977 -16.375383 13.164729 -2.389517 -2.429069 -12.064915 -8.273666 6.521392 13.671275 -18.356437 -9.430451 -11.981892 18.419453 3.559608 -0.647745 -23.680657 -3.076587 0.422465 4.386930 24.932534 6.501465 -1.286212 0.687888 16.142410 3.692542 3.573318 25.931711 7.095831 17.228039 9.955573 6.058471 19.162064 7.171926 5.026698 2.631968 28.545484
fear -108.204367 173.726828 -39.047259 16.662778 37.677753 -134.492958 17.666305 -34.548897 -119.378464 0.337517 88.374708 -255.251437 -7.670644 -26.583847 -6.131817 -219.759604 -95.873781 113.252413 -33.651686 102.206687 182.398718 -112.516039 164.398633 -292.344175 -200.103873 -164.818861 337.454528 102.227458 32.660125 -63.127807 -189.730184 -87.759455 -64.786102 91.150650 263.382341 187.202495 65.295948 55.961427 87.297457 71.322860 81.174060 -37.470322 62.556705 -191.469169 66.644964 -41.254115 -45.090898 197.920159 244.100599 9.613731
somebody -62.251297 90.574991 -24.841429 -23.655576 0.006528 -60.028533 23.235518 -33.115612 -61.257898 -7.970973 10.087216 -96.761626 0.392716 -5.969239 -3.805493 -101.764009 -45.910558 41.404306 -32.945498 35.853766 85.209888 -64.924544 73.954416 -116.503351 -102.041465 -72.404272 161.432880 28.724006 2.319755 -41.876655 -85.352386 -36.308219 -6.229453 48.383423 105.029679 74.262564 18.557676 25.638942 37.162900 39.520335 25.803714 -31.545788 30.408948 -83.136576 42.675758 -9.341641 -5.195685 95.193197 111.381248 -10.705242
would -475.212266 799.566662 -141.115973 341.662030 320.538959 -736.748730 -80.871962 -167.535798 -660.863077 7.820219 588.437859 -1424.461923 44.493270 -112.590284 -44.702183 -1323.280044 -426.251883 737.268306 -231.817536 596.115836 1039.582337 -398.814136 965.086637 -1966.383727 -1156.830065 -1175.476797 1904.804181 790.293122 166.782998 -308.484163 -1013.454656 -542.146133 -345.899542 341.338637 1555.277155 993.343047 340.473448 350.060601 614.864644 389.945790 752.060630 -18.623551 489.476076 -1037.285752 317.694419 -223.139122 -509.964576 995.938370 1304.656515 85.200032
discover -23.161476 38.905727 2.574996 -5.773926 15.775159 -32.744369 12.338774 -4.516060 -42.255451 -14.099952 22.372835 -45.704973 16.461394 -2.711278 -6.303213 -62.146410 -29.478716 28.837187 -25.128672 34.776777 53.889309 -23.955701 17.853385 -71.097792 -55.719130 -44.158243 69.555987 34.420518 2.200997 -5.575334 -41.604945 -21.999625 -32.100845 -2.296753 68.099352 50.858067 12.693772 11.083497 14.982443 16.230662 5.351551 -8.605946 14.845029 -45.629891 5.534021 -14.080772 -16.345713 53.749476 54.577653 -18.191906
it 12278.567944 -3600.384027 -3258.973532 27373.549189 4124.326065 -9750.559347 -2223.639317 13780.865403 9984.206534 6532.208073 24807.440233 -11069.969974 3197.052277 7369.815800 330.848629 -2946.994683 6815.952813 11330.048195 11082.503552 12938.017691 -6528.026084 -1660.313928 6885.317411 -22125.059655 -8316.612173 -5896.645434 4631.030729 7811.043339 5042.403003 -8891.040525 -15732.784816 -5213.479419 -15211.119351 -5680.842722 11806.461381 3479.399135 22032.401155 3249.928414 5425.250221 -8856.729325 19918.459296 16588.495214 5825.162039 -5201.374418 -2911.631566 1431.954757 -12127.133047 -5142.805437 17842.890482 3456.325218
think 89.027743 571.892069 -275.635542 1230.785429 202.181169 -1125.398355 -136.138028 80.698278 -133.841738 124.529770 1412.133650 -1604.597318 227.823698 -37.014951 -75.197032 -1167.637851 -76.678497 1180.045641 349.762612 796.019377 663.244458 -262.628212 1232.479356 -2588.844575 -1272.472382 -1495.781813 1953.132403 875.503132 286.184880 -754.156831 -1331.702375 -615.786178 -612.127228 185.084895 1637.217476 933.027708 974.596096 478.237625 938.152263 187.624264 1581.879002 629.211565 702.546541 -1251.108992 135.135210 -490.234580 -1021.043461 560.912571 1586.620212 268.986828
could -733.242756 2021.208087 -978.165479 1999.847447 501.679286 -2147.237341 -81.126047 84.268535 -721.728729 509.488498 2485.568766 -3585.275769 -61.400951 145.692942 -62.386438 -2938.547170 -667.151183 2371.947731 399.749960 1896.367201 1703.595566 -1397.115384 3056.485477 -5224.456087 -3029.601365 -2739.059380 4771.780328 1680.975889 380.010063 -1741.360203 -3253.372193 -1508.541898 -1102.321430 890.781164 4016.720909 2359.482477 2014.321894 819.636672 1907.180420 482.503935 2824.068147 850.295245 1378.445990 -2832.459021 1050.449933 -484.006367 -1573.359502 1708.823434 4040.788662 586.885643
bear -61.371894 93.562723 -19.345785 17.035966 27.682703 -77.221592 8.754233 -31.334717 -71.224787 -12.347972 57.580570 -137.894048 6.312133 -22.154260 -16.874943 -130.873106 -51.281885 83.873782 -24.700728 63.155441 119.716288 -40.622911 92.999043 -195.416974 -117.846241 -130.179676 205.198735 86.779561 17.746025 -25.448715 -104.604529 -54.687316 -35.174207 35.529653 160.206364 117.296050 26.481138 38.331809 68.875022 50.579568 60.232073 2.353828 44.994201 -121.161658 30.456783 -55.030108 -59.326358 112.920266 132.520992 2.337943
if -51.665698 858.791502 -359.281934 1270.157555 373.893007 -1261.249436 -76.410515 217.325852 -353.398585 132.565454 1582.852155 -1830.401296 266.298824 101.150061 -119.872600 -1591.785403 -278.848057 1311.170015 208.483080 1092.777156 885.361674 -532.161424 1475.883472 -3003.393061 -1647.345774 -1608.913590 2409.444820 1052.551136 267.769314 -888.315602 -1723.760576 -830.717710 -898.047149 201.387314 2161.743292 1255.010166 1107.340211 536.131207 997.820284 179.689016 1653.609717 681.152604 843.432007 -1497.062717 250.788852 -338.509589 -1062.613600 914.318682 2106.859769 222.681296
anyone -90.643323 270.389865 -32.070389 160.792113 63.009126 -332.265720 20.780932 -87.689433 -222.848578 -78.971506 289.386237 -546.663625 48.996619 -131.817173 -59.824961 -430.801169 -139.545384 365.720205 -33.337877 195.041573 443.495040 -111.449567 369.876068 -802.058172 -455.232054 -549.556818 757.505107 332.329756 114.348385 -120.456769 -379.291597 -171.964885 -136.636534 87.492052 557.464041 372.412803 137.944691 156.746186 293.276072 180.526386 326.435919 20.067901 155.819290 -451.833131 -9.024048 -281.758284 -279.190522 363.437084 448.088919 6.601394
found 162.703917 -367.638313 491.117638 547.450772 372.614294 -1382.698889 -237.547686 457.196030 -974.128578 -322.202445 1312.776039 -630.253405 1019.420799 99.555953 -186.777319 -1546.006131 -10.384046 736.795458 -674.099438 960.377382 530.734352 738.368655 -207.221318 -2249.088365 -914.655000 -1512.360257 364.588834 1311.681510 -120.393319 -361.848275 -180.092258 -370.849176 -1139.344932 -529.196298 1224.902657 747.480924 130.785099 751.884167 321.445109 32.241048 937.004012 948.495481 776.503818 -204.917154 -447.098884 -142.405025 -1242.072583 846.249801 671.536145 -155.857317
out -185.993047 346.260781 -85.554607 -289.048123 -205.629790 -442.926743 88.419854 -385.989217 -352.493485 -195.592342 79.659773 -123.390996 213.766289 -115.952122 -83.959532 -580.641860 -231.516288 322.081863 -144.364580 92.880600 284.210003 25.010974 473.003245 -739.931782 -446.847096 -618.585949 629.824312 164.204048 -262.804681 -408.975776 -125.911092 -255.108094 117.556427 198.167806 379.986042 257.704929 -165.857594 177.928194 414.899244 294.712487 452.137760 86.338598 289.525417 -476.713522 263.253846 -231.399472 -351.490569 355.237612 219.897353 -34.927483
about 1800.645916 -425.254977 5033.858168 1837.753844 4733.461979 -3687.278984 -236.443630 2461.169063 -4901.944012 -3003.843936 5250.628770 -4131.014844 5830.729149 -437.705877 -1604.747797 -5999.139231 -2216.060045 3641.964431 -3466.071831 6194.499887 6063.556670 1111.148581 -2617.037655 -8843.910349 -4296.656590 -5322.438831 1240.779304 6611.658673 1014.628735 3708.798167 -2348.896390 -1689.265793 -7745.880054 -5423.941342 7486.327368 5498.443353 696.062495 1494.029076 44.166956 273.858146 -936.136652 781.498494 1321.510906 -2666.248171 -3902.938406 -1433.947210 -4679.704603 4449.532422 3698.557415 -3809.445644
Potters -319.087704 368.771684 -136.829590 -9.743236 45.925244 -272.017368 10.706658 -120.454520 -267.868835 9.609096 65.019642 -514.028069 -48.628549 -41.843844 -21.110736 -468.306108 -157.156201 181.837477 -117.046770 137.610254 386.728346 -219.722312 387.881231 -597.079385 -403.741420 -364.920134 773.786436 188.650932 36.067261 -157.538306 -365.838252 -150.574413 -6.395468 259.566587 532.679676 358.555075 57.615423 163.937998 207.766857 181.263238 193.856572 -81.609809 165.068176 -356.725671 165.069518 -24.860390 -34.674046 424.965412 491.476867 52.909841
sister -203.009616 220.151774 56.546097 -78.420185 114.213241 -265.940966 16.908203 -73.559795 -346.232764 -97.328489 103.593937 -380.224763 127.030701 -87.310817 -67.337973 -447.176642 -198.901220 196.328525 -208.830539 222.962687 440.357375 -73.939412 147.287708 -560.633492 -317.273229 -391.735152 500.812518 297.604248 12.756084 21.633567 -209.979897 -132.673841 -158.442929 21.266009 516.310887 364.741609 -42.106835 127.746014 142.577071 158.678307 43.408737 -51.748626 126.568381 -295.620755 39.072927 -89.961781 -162.118968 411.789850 344.963382 -104.624801
hadnt 177.888681 -310.211643 1134.454875 233.075714 1006.980052 -1033.795894 -214.808242 489.226839 -1465.748633 -657.100824 1201.121040 -687.331466 1383.952206 -42.475768 -334.548431 -1775.581489 -439.269968 751.254194 -1117.474670 1286.039686 1256.407891 707.658870 -685.725669 -2213.887772 -987.624793 -1510.798957 106.599314 1691.388776 -36.841974 555.976512 -89.525642 -463.273806 -1641.203612 -1131.146950 1619.471800 1171.886659 -239.156970 561.734375 -6.241398 85.857921 135.477602 412.322404 570.913882 -388.660727 -731.975066 -251.082727 -1261.618869 1122.211084 554.273038 -633.073079
met -208.854108 278.443907 -104.594264 17.353346 42.089498 -200.506559 -0.496975 -55.634066 -163.886332 20.290471 92.279008 -383.798448 -44.007924 -30.298513 -21.615695 -309.690620 -138.985962 151.141008 -53.420812 137.294821 268.945562 -174.438539 262.967376 -451.930536 -267.782510 -258.343816 579.495898 172.750054 49.492298 -97.063332 -302.026415 -133.284950 -66.934153 174.128943 418.270064 296.722715 87.382376 96.598083 170.903589 126.801799 123.621975 -26.658846 119.259448 -286.783435 123.741915 -13.174274 -63.076506 296.332968 398.862016 23.809634
for 1239.466343 -1477.422115 6997.023776 1114.563944 6041.188058 -4720.919526 -1099.278835 2921.662422 -8001.714632 -3695.720643 6221.661335 -3675.837825 7462.965305 -413.484003 -1832.575736 -8792.787321 -2619.595146 3900.788000 -5788.603621 7226.418935 7047.934325 3245.493394 -4334.491975 -10669.895688 -4831.880273 -6963.814165 -359.483926 8753.410778 103.373457 4298.597770 -533.488208 -2193.888493 -9207.435589 -6865.148504 8636.921121 6519.152417 -1277.838262 2231.890648 -616.615474 314.544075 -991.872318 1450.075830 2005.162457 -2139.793897 -4673.221510 -1416.233072 -6206.923500 5859.820463 2655.473485 -3805.494913
several -227.061462 258.816788 3.107127 -100.781186 74.594663 -258.666991 34.947564 -106.967190 -288.949978 -72.147261 67.549921 -363.306390 93.150574 -77.557261 -51.108027 -407.604200 -183.996156 160.322512 -170.335708 178.060406 387.916216 -110.623380 170.797893 -504.709983 -311.618703 -355.137929 511.389444 222.955699 10.954925 -18.336734 -222.611927 -118.083635 -105.510425 93.738321 442.601980 329.094328 -17.259560 126.499561 143.865376 162.106757 45.964276 -68.568290 117.887591 -285.714820 75.165370 -71.107724 -109.956288 389.731267 345.280774 -87.885908
years 85.961746 25.870311 -13.568807 108.733606 43.427950 -78.237521 68.020273 50.108656 67.430178 -39.259818 88.737201 -135.987491 62.994567 21.180326 -26.423382 -11.516310 19.122441 39.070774 11.561103 92.214947 85.437212 -79.074850 6.093733 -164.457729 -136.016052 -58.898237 111.448343 29.680536 78.438928 1.561017 -190.315086 -1.273154 -118.922966 -16.789778 102.198783 69.081510 158.560285 66.663782 2.643815 -22.623866 44.533092 -6.860302 32.631260 -46.176588 -71.912111 8.521995 -16.266156 68.605544 174.509516 -94.310913
fact -152.611514 215.898505 -20.140995 -30.871262 53.985549 -236.420508 26.006296 -99.145585 -214.907798 -57.545985 90.024811 -348.449075 70.100275 -91.451745 -51.959512 -343.715687 -155.057138 173.155387 -114.233812 151.317977 351.545016 -77.614792 202.356895 -501.658087 -274.320776 -352.059013 496.165606 214.903783 25.661443 -40.016544 -213.624103 -122.122469 -80.018057 85.851706 403.227201 283.254773 14.661246 125.906380 164.117212 146.494416 124.065786 -43.289415 120.658090 -280.259621 73.279594 -95.047735 -149.275595 321.819507 318.526594 -64.234092
pretended -78.600547 78.653655 -3.211208 -10.309988 37.549139 -82.724083 7.500798 -16.482180 -94.316891 -9.696172 34.326546 -119.062427 22.392991 -12.307288 -11.379245 -142.589829 -48.422629 58.686270 -52.834529 63.603851 119.836753 -38.987897 60.487491 -166.642537 -105.614253 -110.304569 164.767021 74.015006 7.366038 -16.033614 -78.591187 -43.058258 -42.769836 30.733573 152.449804 107.024325 -0.329173 48.555491 39.815557 39.803465 36.325829 -17.768045 46.500542 -89.219003 25.761216 -12.351502 -33.790477 127.668005 121.012632 -14.148326
goodfornothing -11.798637 17.796780 18.030737 1.296632 19.445380 -38.434116 -5.852714 -7.717446 -44.820133 -18.444830 26.958072 -50.958455 23.815006 -19.064931 -10.244889 -55.114026 -24.850022 31.239375 -19.819523 33.253741 58.007065 5.582955 9.364508 -76.779291 -33.330137 -60.096221 48.741458 51.077963 3.129193 6.746801 -19.062411 -14.819429 -28.701889 -7.318391 65.460108 44.192744 -7.551352 18.701795 20.044506 20.633571 14.372865 -5.234662 13.351235 -36.614958 0.881733 -21.977516 -34.933937 42.626300 33.596962 -11.318809
husband -34.499779 41.335407 -11.456990 -8.565639 11.307666 -37.194772 8.601676 -11.033542 -35.446336 -4.059985 15.489129 -50.910051 6.509133 -7.330226 -7.070720 -53.466615 -22.465701 22.079973 -18.179197 24.197108 51.499336 -27.264440 28.747001 -71.851928 -48.799455 -47.083101 78.360844 30.330528 4.461953 -9.502663 -40.880592 -18.750214 -17.377856 17.929020 61.512206 46.718364 5.598212 18.911785 18.848568 16.541586 16.486279 -6.359332 18.639528 -45.041501 15.057490 -9.285184 -13.522389 54.144373 55.103498 -10.585796
unDursleyish -8.188712 12.327789 4.221562 5.393989 5.605507 -24.697704 -1.259986 -4.896773 -22.450822 -11.289535 19.461991 -22.464866 15.506115 -4.844948 -8.029646 -31.892497 -10.585475 21.227363 -9.265103 20.104636 26.985993 -1.400060 10.657220 -45.474016 -26.049424 -35.432806 28.202654 25.014359 -1.021659 -7.120834 -15.852670 -12.228218 -13.050321 -4.018878 33.313561 25.055848 -2.965052 14.748452 15.061392 13.265132 17.203222 0.046003 15.303007 -21.741867 -1.465085 -11.490640 -21.234127 17.763670 19.160046 -3.610683
possible -208.286868 270.963812 -25.476230 -73.705027 70.804450 -210.308895 33.180683 -117.351617 -255.412238 -62.901622 70.635387 -357.679125 48.026804 -81.237629 -37.276767 -369.756371 -176.858007 183.884318 -132.565986 150.642758 380.786044 -128.247046 216.374321 -478.465813 -306.321381 -334.933638 528.918939 204.449677 12.214793 -28.041973 -232.276506 -127.730071 -66.844717 98.050801 429.132018 312.669229 -0.490059 108.296626 156.062192 161.043767 79.748189 -86.441940 107.043536 -307.977485 97.886089 -96.517258 -105.477134 336.928950 320.921016 -54.943400
shuddered -48.011447 41.195639 5.314660 -7.914148 22.194527 -37.051787 -2.645514 -17.284025 -59.754018 -7.805355 3.260474 -68.734430 10.032829 -11.401528 4.587308 -76.555747 -21.848994 29.871865 -38.457667 24.158892 71.803159 -19.360333 33.313223 -87.001824 -53.769086 -62.371593 84.123242 38.267819 -5.229642 -3.810765 -36.004010 -16.371482 -2.663326 16.713250 75.581861 53.198028 -6.047795 29.355569 19.772064 23.813666 12.789756 -23.925020 19.523422 -42.007514 15.671169 -8.020800 -9.632928 58.487134 52.493129 -1.679646
what -544.209461 1008.888245 419.564168 -183.637606 405.074324 -1371.858202 36.339555 -499.460921 -1508.349957 -694.973494 808.313985 -1697.842399 846.430807 -576.873406 -346.533269 -2025.624048 -861.257574 1179.368370 -702.513204 904.837792 1953.000602 -162.454214 784.953246 -2859.754925 -1613.438557 -2110.669527 2342.177921 1353.401343 79.145356 -33.309308 -989.183489 -692.158520 -709.824939 5.207280 2157.657581 1604.447385 -124.641585 673.572163 885.867491 866.988189 587.372070 -161.276345 638.149676 -1629.128846 -81.387540 -904.132657 -1049.234582 1676.958650 1334.675453 -386.529349
arrived -80.627193 180.566892 -68.790800 205.424932 120.853621 -198.238639 -26.748293 55.836694 -95.918557 64.478945 226.526635 -379.777308 -12.329021 26.633482 -1.013051 -294.379720 -58.973003 176.644747 -9.497018 198.084544 196.183967 -120.763913 232.697574 -506.452340 -268.200511 -243.030271 458.707395 201.059797 78.205664 -103.420022 -316.908182 -142.139714 -157.099671 68.992777 406.896416 264.404645 192.133388 99.126611 140.107544 22.892649 212.919007 72.061545 128.939230 -232.063902 63.151206 9.179168 -126.571735 226.082618 397.190829 38.980768
street 41.490339 -14.287821 243.061844 58.733693 214.942492 -205.415150 -44.719400 63.037295 -298.774287 -142.687152 224.277768 -227.621117 250.127451 -96.816364 -77.662087 -301.797776 -109.568878 171.324585 -174.768393 252.383155 329.737765 112.250151 -96.662384 -453.855361 -166.019340 -316.503732 95.683481 357.658580 53.356527 168.926753 -64.131808 -79.116131 -315.831182 -216.654507 352.021222 273.896489 -45.599436 110.213828 42.290845 41.900729 1.682046 32.216474 43.610602 -162.819158 -174.870156 -130.405474 -262.430409 269.336085 121.069350 -119.548328
knew -193.417302 427.947928 -160.213473 392.370064 184.297517 -486.919345 -77.671912 24.728992 -285.203809 58.568970 464.854670 -876.480940 -8.864474 -73.705561 -27.165915 -662.328695 -189.117401 461.959947 -17.780543 356.914339 525.921336 -233.171443 609.353320 -1197.128037 -614.007493 -678.088295 1171.840837 481.952709 173.642094 -272.534123 -690.270115 -309.898274 -231.688811 193.695709 928.277615 586.977588 318.214618 261.096404 442.038623 176.782260 548.292437 119.022098 297.743814 -604.550811 123.931316 -141.334775 -336.341479 526.384815 835.391906 121.513592
too -960.065905 1305.607472 -283.876967 -13.788780 378.334369 -832.946594 86.182116 -388.882920 -1050.185654 -73.167577 453.539908 -1730.162131 -32.200596 -275.416624 -146.898850 -1634.248948 -795.693573 874.009422 -403.664942 727.834979 1587.825585 -729.992458 1199.739155 -2205.726860 -1402.067018 -1418.931867 2660.750888 929.856280 202.400932 -282.717300 -1246.446026 -697.740019 -293.332871 528.683632 2081.613565 1447.749215 182.865679 378.721019 789.263182 659.954249 538.524426 -257.617393 504.912564 -1480.645711 516.004695 -415.409625 -475.854338 1487.534855 1698.930570 18.733137
never -32.391596 525.420415 -313.088528 1191.084437 368.871001 -829.515901 -172.195580 360.241857 -174.076188 266.765126 1203.796001 -1455.895900 11.596155 175.356431 2.902234 -1060.844165 -72.021711 849.435570 189.426760 809.337353 515.022174 -448.516787 1036.026407 -2089.975178 -1099.236120 -964.924716 1685.712278 764.248661 282.141401 -667.784054 -1340.199173 -594.037647 -670.161525 175.544192 1558.610930 881.494019 971.606254 421.362904 630.211930 -30.258183 1243.038725 503.330937 592.296448 -933.677702 176.721630 -59.703352 -628.816509 567.350480 1612.676529 314.288228
even -220.471027 237.977799 459.345458 14.844752 623.939695 -373.246245 -33.836974 77.335147 -872.835296 -292.241613 437.635806 -601.067111 493.075161 -116.416872 -160.286109 -1038.839704 -412.066601 498.566594 -602.565600 670.057059 1003.187746 25.187403 -23.263203 -1243.638675 -749.628683 -858.149683 618.417278 850.072518 61.226655 358.529266 -303.467763 -351.072158 -673.053754 -432.264360 1137.477032 816.154949 -164.073109 196.282727 128.463866 199.842033 -4.939935 -76.276751 231.598793 -536.004048 -214.816336 -239.218539 -541.318822 792.408097 508.977968 -278.966851
seen -855.926191 1189.483401 -620.342793 358.486974 216.754850 -734.506715 35.519821 -243.833153 -519.753390 259.325571 491.671403 -1599.944488 -342.014917 -9.012841 65.805099 -1300.112810 -427.693482 741.535942 -102.468370 550.698020 1013.856205 -846.542356 1371.577575 -1905.237334 -1271.942191 -1063.471970 2446.753630 557.017905 129.712393 -698.852993 -1361.195776 -590.308664 -73.853728 761.857150 1690.524346 1112.831865 568.435019 390.113438 726.975050 365.737426 855.787123 -66.958281 554.971423 -1213.942585 726.391871 -113.535439 -249.284127 1037.407330 1728.139813 289.597408
him 1634.920474 -985.251404 8150.356041 1927.800308 7003.607868 -7066.835251 -1159.275769 3063.290108 -9679.556649 -4671.963365 8516.515129 -5934.248206 9516.301829 -1086.475841 -2576.174157 -11230.645227 -3500.445732 5911.121297 -6389.283589 9260.600106 9430.680059 3529.778239 -4010.512694 -15322.235166 -6799.811684 -10091.312542 1877.893985 11258.148346 564.498089 4716.137918 -1966.418552 -3142.087044 -11457.460095 -8056.876546 11829.131715 8749.971259 -782.918261 3151.476153 678.151190 997.497724 65.805558 2185.736978 2847.677365 -4286.150390 -5563.783052 -2667.999381 -8594.736590 7807.743415 4614.334953 -4842.116305
This -48.999522 75.978197 115.627965 -14.951309 93.280890 -155.332817 -25.309902 -26.942325 -252.670863 -95.558920 93.026741 -215.939683 128.954332 -93.255885 -38.679473 -269.576059 -99.031863 160.640419 -134.074081 130.232506 287.510687 37.560171 43.079206 -378.249996 -181.477652 -285.844446 252.924394 234.369965 34.811572 79.719364 -77.063867 -86.892482 -101.153610 -70.338307 293.834479 198.090663 -52.992845 83.012082 90.563876 98.831464 58.679908 -31.272954 53.010349 -181.694624 -76.205438 -135.931719 -175.376359 217.740289 127.450191 -50.244119
another -80.475527 114.458295 -11.655056 6.875527 1.807386 -132.758821 -27.707532 -57.764050 -138.211433 -32.716963 21.646107 -229.745968 22.243018 -89.243105 -13.160508 -197.881198 -55.675306 87.445354 -41.280692 6.419868 205.899165 0.380990 139.730352 -281.934621 -148.783386 -230.532622 341.941790 111.158784 42.453428 -11.193179 -95.229325 -59.598025 31.575562 73.254656 187.458694 133.443003 -13.118775 95.705818 109.214209 106.251642 111.573833 -39.081094 63.300309 -155.906311 -22.905153 -115.268971 -73.325792 180.483685 127.133785 32.599914
good -257.553847 356.139818 -77.095228 -2.667446 21.508814 -347.290214 -36.700875 -209.747572 -311.934344 -66.018376 83.838251 -603.906386 14.010686 -194.557908 -28.785079 -488.148735 -193.043696 270.586633 -101.371780 91.594161 513.147373 -105.001246 413.396593 -765.698676 -391.400173 -578.669158 918.369586 279.140589 81.167066 -107.176999 -339.966227 -163.884001 60.461462 229.978337 545.886123 383.359910 8.262638 210.618449 335.694211 286.099794 272.125572 -84.820079 190.310561 -451.728245 72.798124 -225.511081 -184.947469 450.237489 424.205316 49.014214
reason -181.866404 302.321198 79.182519 -8.049503 160.255837 -361.473599 14.180717 -124.462282 -382.394530 -122.494455 206.305696 -535.846880 191.131111 -167.177674 -112.934545 -531.219236 -233.549919 309.470393 -173.460836 291.770612 596.173917 -78.879224 247.423240 -820.806256 -414.190746 -586.186871 729.162212 401.064958 72.764172 48.285904 -321.892224 -198.964568 -204.385207 0.222276 658.969432 472.553873 4.058354 170.986413 263.587008 221.798573 156.557681 -35.255179 147.697351 -487.946204 -1.465487 -226.494890 -312.928933 507.872407 462.197426 -127.424018
keeping 56.351499 0.934580 142.446697 117.002125 144.916462 -208.310288 -16.745182 78.194246 -174.891353 -80.819243 215.964897 -234.053722 207.590114 -48.109942 -63.846506 -229.338625 -62.001280 173.677815 -91.478365 248.398886 251.290951 39.398444 -12.520488 -426.799582 -168.633232 -266.265816 147.353552 274.138580 51.486929 94.918444 -133.269519 -73.085689 -261.564109 -168.915888 341.721985 204.913529 57.670513 90.485650 71.060752 12.219218 78.621897 63.999008 61.137727 -155.079198 -111.646667 -76.526037 -223.409394 191.096847 215.612514 -119.250598
away 146.693799 129.005084 -155.736447 713.663773 149.748104 -367.893447 -96.018224 295.350122 117.032795 202.710316 656.669554 -576.322366 17.045700 165.808370 17.046799 -311.915318 59.120976 366.880827 240.784426 387.554395 40.209245 -174.838086 406.410650 -882.568576 -396.083497 -333.994607 581.935341 298.291225 136.677934 -313.883028 -604.046397 -251.644148 -362.133427 2.713041 601.226062 297.257235 587.983255 155.587107 248.442605 -127.422651 626.366504 358.537592 253.202708 -341.198975 59.400561 51.487852 -328.016227 53.907104 732.908060 159.121515
want -370.871540 564.413826 -78.347144 57.994903 142.492378 -477.453596 -36.653106 -217.112669 -498.386050 -98.840293 228.305061 -897.255072 51.185197 -226.037370 -43.850532 -775.509913 -309.838077 437.063954 -187.816308 263.309915 807.016156 -231.964017 587.099615 -1151.901601 -678.066603 -821.203388 1317.007126 471.493831 126.234806 -132.444923 -581.194865 -308.748752 -85.510246 275.099435 915.401516 649.919056 63.868045 306.974812 411.514283 348.636532 392.506166 -148.520851 283.125316 -724.685983 109.178009 -315.850492 -284.268894 686.785313 725.767710 40.494082
mixing -50.186934 49.244733 -8.738861 -14.319653 17.802729 -33.819247 1.747093 -20.909666 -54.521726 -3.800905 1.945530 -64.492786 -0.075851 -12.741265 -5.472027 -71.108781 -29.953477 25.366574 -27.754419 23.719095 72.126122 -22.968411 41.822518 -78.386582 -52.249206 -57.453845 102.389215 37.567023 5.970212 -8.413166 -38.694579 -28.705695 -5.979027 23.928654 81.226287 59.160463 -9.770706 20.304565 26.105423 24.700686 19.778254 -17.326840 23.906581 -57.347939 23.938623 -19.793625 -14.593717 72.859080 60.132690 0.558011
child -5.025782 33.819265 -7.655513 26.973164 16.708954 -35.562921 2.949658 2.283938 -19.718472 -1.923253 38.048394 -60.056960 6.776651 -5.610586 -6.589933 -47.122674 -23.188591 39.980370 -1.418930 40.708763 50.464369 -20.774929 38.135613 -84.436533 -48.855402 -47.858858 81.026444 38.072866 13.596209 -14.107935 -56.041298 -26.462895 -33.420719 1.989751 74.867619 47.405752 28.749641 13.353050 28.403845 6.625478 35.371168 6.924429 17.741002 -55.428884 10.439865 -21.902442 -33.569751 42.337758 68.255435 -2.291880
like -588.770614 1315.102590 -471.656848 941.217636 515.505023 -1055.970158 -56.041527 -41.503526 -688.084924 166.416540 1106.086837 -2276.316125 -89.660238 -75.580905 -14.745945 -1757.146985 -549.818453 1249.045547 -44.059524 982.230775 1446.680760 -906.308776 1735.044504 -2969.774127 -1784.449802 -1627.977624 3140.337151 1058.523815 347.090028 -704.135762 -1924.923387 -889.212628 -543.459428 531.970900 2473.807634 1551.676298 929.610392 540.093382 1021.956858 395.168707 1331.655126 107.735857 761.089738 -1710.746927 476.162181 -356.504711 -699.842070 1296.964072 2316.036183 281.533085
When 12.739850 98.357496 44.221843 31.917651 64.987212 -182.698516 31.532849 -39.592911 -128.835412 -115.763896 101.205654 -222.898303 141.999120 -80.807825 -53.198641 -212.120926 -77.603163 135.296418 -89.287975 107.360983 277.582951 -12.666736 57.721537 -397.395668 -231.871588 -305.894784 316.373269 189.904311 68.309463 32.467731 -173.531276 -62.199935 -125.840656 -19.658775 253.371438 189.264893 28.170382 127.466101 114.117333 94.603961 93.828175 -23.677814 88.969783 -191.700253 -80.634446 -129.286310 -154.556703 206.637392 181.235971 -91.834742
woke 45.846901 -8.362414 202.845827 81.252418 197.657857 -170.794985 -30.722670 69.998032 -223.690742 -117.418171 190.028901 -214.890819 230.215898 -57.461862 -61.846599 -262.785925 -80.742330 146.949416 -147.352433 216.833761 287.287447 67.036936 -86.096134 -401.167418 -175.637810 -275.235617 107.750123 289.672463 51.750246 162.548342 -93.218053 -57.111393 -276.181296 -193.377470 317.191665 234.511890 -2.217939 91.394214 29.433365 30.141498 -7.951670 12.165033 58.145505 -126.915825 -165.876903 -95.725657 -202.380072 205.043581 142.931137 -124.844042
up 663.717446 -84.044261 -150.367199 1924.284219 557.381767 -698.106509 -281.482379 1043.413769 349.150700 526.249890 1753.631306 -1008.332667 251.407043 566.379855 4.556872 -629.682417 256.707215 865.962293 579.220083 1126.859626 -205.149779 -236.665617 692.560050 -1870.314026 -728.798760 -494.896261 665.789882 733.688695 256.072085 -590.432339 -1258.202466 -568.569620 -1167.817249 -457.399126 1328.905804 555.936865 1451.548102 201.344826 424.662502 -577.109387 1364.168633 1121.730081 530.786003 -550.584675 -72.241760 318.907537 -857.031476 -109.955637 1562.857786 280.193989
dull -56.212302 64.307638 -27.968750 10.389218 15.650451 -45.255647 -0.992090 -16.931717 -40.457620 12.688519 26.813388 -87.341950 -9.261287 0.185942 1.903246 -80.746679 -24.036644 42.611922 -19.005764 35.652119 66.505455 -40.901317 68.825800 -112.667625 -76.715551 -69.593874 135.878260 38.150410 5.383792 -32.538870 -68.320849 -30.926388 -6.519277 35.879113 104.281985 66.050209 19.077348 23.458047 37.471881 21.874028 42.989733 -3.530630 35.215783 -63.871045 36.866672 -5.767826 -15.421126 67.361516 95.160972 12.257621
gray -185.350536 243.949679 -75.071650 -71.941113 6.422745 -142.490262 37.029875 -129.341726 -165.671741 -31.879259 2.776302 -270.010274 -10.422593 -80.304186 -18.224191 -236.960262 -133.138788 127.303185 -70.189917 85.506510 286.188935 -129.607262 219.611654 -326.840474 -220.932392 -245.332152 467.680338 120.627913 15.702952 -54.487720 -198.501434 -95.268155 16.192036 129.094302 301.155555 213.189416 -0.762342 75.141121 147.749116 129.070631 80.797089 -80.841133 73.290618 -256.856435 111.211536 -93.414864 -59.184798 257.068251 260.755725 -16.103823
Tuesday -22.540559 37.982925 -3.506094 -13.491258 -1.885079 -51.263797 7.575973 -22.911355 -38.212072 -20.882286 7.939241 -72.620576 18.203235 -24.200046 -6.941965 -55.322324 -24.612009 29.592128 -14.901292 19.205338 71.107379 -17.916201 34.483123 -82.346769 -48.840433 -62.875332 98.491294 32.560849 9.915168 -9.957520 -45.059940 -12.246743 -11.013826 22.631770 65.671488 50.946910 3.584356 34.035468 30.496853 31.281542 17.002894 -16.313536 20.142619 -48.951751 1.346021 -27.726520 -18.420505 65.542276 57.102246 -16.541720
our -226.030731 243.929647 88.489990 -42.541457 206.383591 -253.983889 -19.594977 -81.995248 -433.360302 -112.903218 121.185853 -452.394100 159.015331 -131.921528 -63.601063 -517.983229 -220.404060 235.311946 -256.108405 266.631227 584.155477 -57.828382 150.695559 -664.966183 -378.109870 -503.592286 608.581205 417.543933 52.874689 105.209422 -241.893789 -170.610777 -172.975539 -28.386083 620.838263 433.601837 -89.110855 153.191847 166.596108 179.231664 65.178990 -99.099974 140.986249 -350.453386 7.446877 -158.612367 -229.926313 475.966756 382.665036 -70.783993
story -173.753577 199.364813 -83.661313 -25.408712 33.054195 -118.380704 22.147623 -77.118871 -131.673597 0.688604 19.478224 -231.759641 -26.003112 -7.083511 4.159120 -233.534385 -88.113246 92.019616 -84.378351 76.742855 203.659626 -122.953333 170.118614 -287.957545 -211.118114 -190.772383 380.466310 97.512346 -0.717173 -84.593064 -184.311186 -85.292849 2.109137 117.677561 264.190528 182.610230 30.277697 80.348744 95.693162 72.477362 84.790052 -41.579066 94.530620 -177.924941 109.157349 -20.376866 -25.759784 214.669122 246.368914 6.051065
starts -58.157577 75.458107 -22.971635 -3.221484 14.161843 -36.254783 6.811166 -25.150254 -41.871656 4.812117 14.547135 -87.503034 -13.590940 -4.676621 -0.676352 -73.877634 -34.189349 39.648867 -15.833501 35.948466 74.945715 -52.504123 72.475689 -102.387379 -71.657931 -59.079337 132.395437 31.484611 -0.493882 -22.079965 -71.285897 -31.377149 -0.335227 35.925952 101.155813 67.512659 17.984320 16.227649 33.937381 29.763472 25.509022 -22.544804 23.367395 -73.613162 39.963248 -8.605843 -10.839036 62.932607 93.733844 2.530424
nothing -14.084389 51.537349 75.891090 -0.040446 51.999837 -204.893228 3.273110 26.881680 -246.540033 -144.337222 202.002053 -66.189275 163.686332 -3.915714 -45.086135 -350.418705 -74.336144 153.956651 -198.793191 133.299174 181.767504 87.141368 9.953497 -395.803779 -309.594937 -295.127527 182.285921 222.627391 -45.506484 -80.602469 -76.512079 -110.860484 -169.615760 -59.981525 209.978519 164.083914 -43.951913 126.311126 65.701832 75.050298 148.585476 79.799761 155.950818 -108.500644 -77.207162 -119.306671 -201.892510 200.520474 113.893507 -7.220088
cloudy -21.270832 29.847326 -3.389536 -1.835600 12.060628 -20.118552 0.131766 -7.107475 -25.804685 -5.156845 2.687091 -46.680112 2.926817 -13.308526 -3.745450 -32.785131 -18.150170 15.764725 -11.883350 13.798386 46.163459 -16.042535 22.845128 -45.843445 -29.332129 -30.734870 66.420043 20.700758 11.977361 7.679739 -30.126713 -11.860016 -8.196897 11.570290 45.972028 33.697255 -0.023094 12.662555 14.416772 13.332787 1.893345 -16.648340 8.872933 -33.929346 3.374987 -11.403687 -6.072457 41.066911 36.141826 -4.983777
sky -18.442163 18.003086 -13.468140 -13.488149 -28.373386 -40.428179 -4.101189 -15.329633 -45.171126 -10.119308 -1.540183 -31.127210 -1.211330 -19.673958 -2.227276 -43.335712 -11.567925 14.053296 -21.245153 -3.231971 25.579777 7.966593 32.305795 -49.444903 -31.092523 -48.567642 70.290126 26.271213 1.988005 -36.675433 -10.089184 -13.024278 12.103924 25.851611 28.168174 10.216639 -21.760830 22.664670 23.741212 17.622018 45.486080 4.673507 22.385990 -21.783965 10.644902 -24.034706 -21.380732 48.279533 21.394935 22.337727
outside -1.543148 82.294747 -5.675006 184.598035 64.274054 -549.086775 7.706199 85.205288 -163.438633 -55.506129 389.045949 -449.690363 307.130777 9.262960 -82.520053 -426.637402 -63.358378 246.715501 -86.761135 345.940295 290.398260 -34.124118 105.415026 -827.581933 -365.978090 -519.441266 482.196292 362.478911 64.704137 -152.379437 -349.830224 -143.411204 -377.115689 -8.259693 553.760098 349.007393 195.809546 290.832709 210.868775 39.156335 323.521216 226.868554 276.164872 -264.972938 -23.665626 -1.088043 -324.036542 381.505320 533.456950 -146.613447
suggest -47.899536 57.862157 -6.136371 -7.542868 14.602070 -53.599838 2.261803 -11.569109 -47.463042 -6.018000 23.655206 -73.934667 8.760564 -9.525974 -0.350627 -74.960396 -29.776420 33.078239 -23.603365 32.753911 70.982157 -28.143172 36.619096 -102.170818 -59.345779 -62.363960 109.295444 43.547540 -3.105660 -13.794946 -51.627277 -24.680478 -18.847909 25.047617 82.375030 68.774942 11.194721 31.401252 25.956350 19.672816 17.257817 -8.587690 27.138510 -61.083772 23.661288 -15.603916 -24.098223 65.778926 78.492175 -3.276556
things -75.020661 316.305221 -232.978115 671.282092 255.048491 -369.917044 -55.116265 215.259298 -32.317276 225.809728 646.555432 -708.739693 -14.098029 186.008777 28.842210 -577.424709 -27.874984 489.753362 114.566706 517.454301 262.410778 -287.785540 554.313948 -1106.980863 -623.781730 -477.054904 886.620671 407.000233 129.382389 -337.219116 -739.614237 -363.400543 -357.724728 49.221793 873.812570 468.460586 587.408800 152.500168 321.851358 -84.268678 664.853557 317.043240 316.495057 -515.542984 181.363358 6.537980 -357.686123 277.485284 939.895510 161.658756
