6913 50
Harry 6698.618410 -1635.180850 -4949.950703 -1244.855464 491.703072 -7658.691441 -1813.592225 2303.222557 2171.122224 1207.954210 -2715.384847 4344.670665 -2874.660155 -537.447381 -1370.357303 1861.230670 2972.544640 -4535.616733 839.933011 -3649.584114 -4417.307818 -4552.772782 -2562.390427 -1520.002186 5996.167428 -172.923767 -1592.600488 655.265169 -14.638633 -7218.784801 -1331.273939 1762.529112 -2001.338921 1188.700788 6076.029723 -7097.625364 3766.826455 3598.353646 -1260.149507 -4938.791364 -3572.277210 -1313.427114 2994.484774 -6529.026720 -2415.514112 278.815296 542.547958 2907.656685 5791.535848 -2354.491435
Potter 688.432048 112.794575 188.500601 -341.263111 43.204747 -686.218329 592.321285 -367.833492 247.860054 -724.854812 -67.209482 -30.292157 -527.326659 -223.476787 228.520514 -352.008946 -149.160924 -562.548260 484.840499 -297.181042 -354.297979 -73.327298 -216.155970 -199.417687 85.421265 -9.436463 -215.240852 252.018345 93.927948 -250.226246 128.629215 2.880361 -306.555770 -46.961635 -367.148608 95.922137 -231.861634 -956.822060 105.456811 -380.702209 -529.075770 -183.136351 17.619843 284.045873 298.820426 336.911803 -617.652710 19.840854 444.464686 648.712861
and -1610.217445 -39.657004 -834.435548 -397.232938 -261.082562 2319.201865 -1187.710273 627.042882 -912.630328 2232.570360 -86.563662 252.644583 1746.410707 243.529353 -58.794950 -229.515485 -216.619119 920.636394 -1296.125611 187.062322 576.149880 389.291230 1076.851834 781.088697 50.927430 81.479933 715.782046 -1013.659789 -791.523911 1012.593089 -372.965889 814.647862 1436.361794 -3.604843 -139.211803 -86.113066 125.720708 2237.754041 -364.960227 989.561333 1854.681097 351.776483 -1284.731579 -462.091197 -1033.031479 -1356.869965 1727.639445 -448.008479 -1230.072265 -1486.088419
the 2312.028833 -2038.284503 -1628.358248 1877.967159 1420.726281 -4496.553990 403.418919 -1525.328985 2240.388871 -2656.898635 -639.920133 2138.672793 -1274.054538 -15.313154 446.525580 -483.127214 1216.127366 -2254.399604 2624.187991 395.429477 -313.601269 -1798.078412 -418.328774 -1420.612480 905.757105 396.388150 -433.710226 465.958863 481.365754 -1309.951584 -1098.785156 -364.690754 -1955.033899 -685.581319 611.749820 -1709.732228 1466.852008 -1226.494928 230.478586 -618.884291 -3348.097343 -741.282951 79.534911 675.071730 2135.122483 867.887258 -1053.461479 1968.919818 4137.192604 22.367473
Sorcerers 129.167904 1225.962078 902.351215 -2212.646273 -1059.946711 1177.893518 285.922334 1238.041410 -845.519758 1761.385328 195.034491 -1151.869931 -549.117126 -524.513817 26.884639 -44.213124 -671.139728 562.590440 -1057.725694 -1160.065606 -904.400816 456.451602 -63.014952 393.199537 914.992650 -273.913830 -16.177492 19.459056 -457.569031 -369.105935 1065.400072 657.527227 849.613984 342.840231 -370.186646 197.199868 -947.372463 710.558737 -2.645678 -820.957749 1761.789991 66.888487 484.423699 -1121.162374 -1417.665183 -359.642402 268.580902 -1199.535551 -2120.008460 604.720093
Stone 617.631395 3241.412393 2042.914024 -6145.666029 -2777.283225 3044.173013 575.610609 3448.216508 -2365.876756 4887.035821 349.219309 -2903.517540 -1392.158409 -1475.210204 -29.691159 -85.291308 -1704.408027 1281.602823 -2928.566599 -3392.529241 -2632.224969 1128.245535 -237.471480 1029.730074 2677.664126 -746.288445 -152.151418 -2.294460 -1309.953519 -1230.870701 2767.576640 1925.551178 2379.211326 1040.216641 -810.687475 293.338980 -2445.786929 2151.495609 -189.191244 -2343.901614 4675.489475 156.177946 1151.420074 -3297.112619 -4105.802094 -1045.820890 850.218871 -3161.376810 -5473.311940 1511.576044
CHAPTER 52.215776 323.542958 195.040637 -606.685659 -274.799127 323.643798 39.389200 353.424714 -247.142185 496.380565 31.672822 -288.891265 -121.590306 -142.841174 -13.385949 -2.006547 -164.965777 133.642885 -306.880849 -337.681200 -257.993055 114.830451 -25.399408 110.268230 259.932359 -70.612343 -16.035112 -9.398470 -132.443705 -118.602352 271.462584 191.379919 243.070593 112.468836 -67.694156 31.521266 -243.571705 232.153791 -26.362857 -226.290176 474.978350 18.750375 108.174292 -338.000544 -420.865425 -107.453020 96.693807 -315.916068 -553.616908 133.984312
ONE 8.066262 60.411127 46.313107 -119.052991 -54.535119 54.289337 15.392808 63.788193 -38.519991 91.570061 12.512827 -60.758024 -33.578708 -30.864394 6.064825 -7.611111 -39.006958 29.666185 -47.903115 -62.257440 -51.332652 21.327921 -1.846665 17.719532 54.270458 -11.490189 0.032520 2.811638 -27.694971 -16.974813 55.904227 35.953466 44.552557 18.561350 -25.688135 11.547183 -50.856289 39.694873 1.442687 -45.234767 91.905995 2.574900 21.702979 -55.827444 -71.522706 -21.347629 14.605419 -62.462649 -111.094902 35.886637
THE 142.626629 741.295840 449.861192 -1412.771165 -634.324524 713.022544 121.399994 794.522950 -553.801666 1134.112329 72.885131 -659.231781 -301.200496 -339.070313 -6.624345 -18.005881 -389.715335 292.639024 -680.417708 -778.159634 -596.485731 261.040549 -45.606079 238.004647 612.985227 -169.954282 -33.646859 -13.185671 -306.305253 -281.159650 631.141472 446.859818 557.720724 236.667185 -185.623231 63.327096 -560.417579 508.174961 -50.813756 -528.517127 1076.863924 41.010977 245.728104 -760.507311 -948.268961 -246.168835 209.185348 -726.282504 -1250.420351 332.096599
BOY 14.802070 82.260392 46.366282 -166.544720 -72.843615 81.429661 11.633184 90.889053 -61.698640 134.751746 7.933315 -71.971981 -31.928777 -40.077340 0.233224 -3.293258 -46.139699 30.732336 -77.935776 -91.258826 -71.470451 27.896470 -2.722361 26.338071 77.451291 -15.692083 -2.538959 -3.954465 -40.088313 -33.900196 71.314061 54.443811 65.612574 29.673834 -20.912602 0.693343 -62.316560 65.084876 -8.460410 -63.960778 128.131096 1.866453 23.695573 -90.859239 -110.585430 -32.895777 26.034727 -83.600611 -141.618238 34.295731
WHO 23.666631 79.850301 44.224374 -163.543766 -70.828697 71.678397 10.638108 94.107198 -59.914467 132.423137 5.238679 -66.463379 -36.059369 -41.718642 -1.198240 -7.064552 -42.303456 30.539582 -74.547067 -91.774977 -75.963231 22.351530 -6.548378 23.595926 83.970801 -19.022551 -4.474643 -3.657333 -37.325733 -36.718563 68.719465 56.887082 65.083096 26.198137 -16.784538 -2.054928 -58.029344 66.020811 -6.666456 -62.133389 119.975743 3.134862 27.932771 -92.930704 -111.539502 -31.529028 28.994126 -79.359297 -137.132064 33.043296
LIVED 37.075309 34.868087 9.773959 -88.093994 -31.452718 12.304341 5.353432 50.328284 -22.849394 64.727962 -3.261647 -23.764364 -29.678986 -23.211538 -2.134601 0.792409 -14.302021 -1.099003 -29.715074 -55.187724 -48.782846 -0.597935 -9.691680 7.335442 56.018223 -7.624773 -7.467440 -1.321766 -19.684499 -38.156756 32.161515 30.035617 22.812642 14.178642 -0.172809 -18.351799 -23.363672 34.772282 -2.327993 -48.644732 47.941069 -3.930260 20.444436 -57.510804 -55.741552 -10.045979 7.342978 -34.530885 -50.604251 17.279912
Mr 1147.054079 4297.989218 2348.224891 -8565.284722 -3727.985190 4029.535909 534.239504 4916.588317 -3352.409353 6957.029998 316.134263 -3744.008100 -1790.695653 -2142.506381 -84.778866 -133.225911 -2201.610536 1603.239033 -4097.019347 -4901.838901 -3791.248034 1431.905783 -336.174546 1336.824871 4025.415499 -1017.878475 -268.666022 -110.854121 -1900.568210 -1912.132577 3709.269531 2850.715400 3449.611628 1490.273128 -903.597077 144.495599 -3226.306292 3362.321543 -467.000231 -3277.506881 6448.380783 186.398178 1402.312764 -4862.567387 -5932.195815 -1593.871360 1436.882497 -4265.859622 -7347.410163 1878.622266
Mrs 861.850209 2215.378858 1087.901853 -4574.687474 -1915.553408 1910.035721 269.520505 2623.821544 -1739.189652 3621.189873 91.720531 -1869.763198 -1030.308134 -1209.665773 -42.768421 -114.156473 -1120.550751 665.824106 -2108.300326 -2702.517780 -2116.240960 649.297027 -213.505496 639.078417 2279.771961 -534.952598 -212.855832 -68.418326 -1007.116428 -1165.690026 1926.696705 1571.319103 1805.631097 757.014275 -439.829989 -35.928499 -1664.079035 1782.958858 -285.117026 -1818.253685 3269.400961 55.714694 702.935083 -2654.028996 -3171.677685 -798.003192 751.754563 -2189.518579 -3725.620324 1010.028481
Dursley 877.880048 2448.857600 1173.718953 -5087.446301 -2129.374207 2237.253288 237.329895 2957.532258 -1952.313981 4100.326281 116.315314 -2082.893278 -1049.335866 -1343.761322 -38.593286 -155.516546 -1249.152148 796.527659 -2368.827724 -3008.279700 -2344.652220 741.752326 -183.329034 732.164317 2532.705280 -570.689552 -210.051803 -109.710545 -1173.352679 -1228.191614 2136.698873 1763.490941 2088.033024 873.616539 -496.060454 -21.251820 -1870.559449 2082.976111 -349.402099 -1945.592169 3723.006306 93.113414 689.781600 -2951.953507 -3553.783567 -952.343503 925.074591 -2460.336434 -4220.379181 1081.229796
of 2600.121350 14021.326897 7217.243330 -28411.688979 -12619.243551 14893.414020 444.199713 17760.804838 -11600.383092 26028.619387 1551.007796 -12658.508572 -4861.839178 -7114.625365 -571.765660 -154.667343 -6788.368801 7143.110359 -14638.943067 -16219.543248 -12397.818492 4727.566458 -431.488823 4818.973668 14323.602226 -3385.692399 -369.170208 -1079.263867 -7144.346647 -5487.287600 12565.576053 9760.905247 13168.514533 5309.817550 -2407.161275 -71.552970 -10828.720270 14543.024831 -2213.063187 -10025.987092 23848.643717 1197.902957 3828.915426 -17378.398408 -21073.121235 -6708.797746 7007.325528 -14736.968329 -26775.542424 5071.081604
number 429.782527 -38.685716 -276.330286 -343.818606 8.601866 -264.621262 38.904971 90.039816 -7.249101 119.409408 -153.907535 148.458547 -125.259066 -199.640248 90.133310 -198.098189 20.403851 -325.565864 55.646187 -320.481032 -275.451792 -114.680840 36.747897 -90.636556 374.210435 16.576276 -76.171530 -72.428966 -122.399108 -248.340971 -16.979686 271.037613 101.427238 -47.158580 -86.238963 -223.342591 -13.755097 108.087809 -86.349587 -199.573188 -43.903823 -68.217486 -160.818063 -199.630737 -126.043613 -33.456056 58.215548 16.724543 179.071286 73.979869
four 725.472633 -132.308257 -410.815463 -430.315466 88.469968 -580.879071 205.176784 -41.369498 103.241164 -82.219207 -231.626990 268.790708 -258.882157 -315.774502 234.559814 -441.431485 14.790148 -641.668913 271.811665 -415.381654 -378.778707 -193.461116 104.632188 -199.764350 507.921230 55.632885 -122.535292 -85.057230 -152.731903 -319.659017 -58.493960 393.288660 54.629968 -187.834147 -290.633982 -301.568426 -32.134104 -89.298976 -74.535296 -256.258447 -249.716582 -138.188940 -325.692531 -87.586064 31.203480 32.270410 -32.328612 91.534527 453.981691 217.320413
Privet 504.356062 -19.102661 -229.902312 -451.859226 -5.769490 -302.983657 165.449936 35.508946 11.591475 63.069873 -143.704798 108.273359 -189.837380 -261.794477 179.186722 -330.301737 -38.297016 -394.965569 122.778400 -357.241672 -310.441696 -93.875439 96.395001 -117.891584 409.229913 23.506170 -74.211892 -70.343028 -155.234118 -226.263720 33.086415 323.684785 120.954250 -112.884096 -263.150496 -179.671456 -101.432999 -22.327674 -55.986958 -215.949845 -41.206591 -87.018016 -238.069025 -112.744372 -67.970386 -14.954618 1.999617 -26.052656 161.991101 199.050470
Drive 345.996252 -68.804411 -208.044585 -202.675147 46.630851 -275.429603 110.566280 -41.352708 71.000736 -30.094028 -109.645292 139.113022 -114.013559 -150.596619 128.239215 -231.924486 12.239730 -318.383162 144.260944 -188.274875 -176.120723 -97.985239 80.016712 -97.708204 241.684609 30.076546 -42.688369 -59.544296 -86.350842 -139.060458 -34.677438 199.110348 37.555531 -106.067888 -161.718308 -147.206479 -12.922878 -46.969141 -33.292712 -112.662669 -116.902657 -65.343358 -193.762301 -28.851690 38.532830 8.546850 -8.383933 47.220570 229.625935 107.486517
were 3117.468604 -803.706507 -1919.101130 -1699.836020 513.997097 -2601.678333 947.234444 -376.796277 700.251751 -191.791668 -959.182833 1302.136822 -1003.772259 -1323.353562 1215.962561 -2095.864275 230.593071 -2748.042739 1427.559710 -1605.910707 -1514.034570 -990.086849 704.881870 -892.517938 2278.861466 349.892859 -361.941977 -561.735111 -849.718850 -1217.050283 -300.741603 1703.370097 321.197795 -970.755468 -1395.498511 -1438.638836 -124.258401 -271.785226 -302.907539 -943.149221 -990.198127 -618.038535 -1814.488851 -280.828158 403.205184 -26.206526 -40.249093 413.908590 2102.326575 888.621390
proud 327.479276 -64.249401 -361.904337 -199.954496 -23.955478 -220.241538 -292.501781 335.089015 -2.038735 349.770385 -198.217389 244.721842 -34.712290 -47.635584 -163.779511 179.765937 172.543544 -169.114871 -120.096025 -321.931958 -321.020674 -261.952806 -177.680756 -2.107478 449.695467 20.037017 -83.803911 -56.211471 -89.576825 -422.620874 -82.997856 156.516378 19.897514 198.717731 473.049727 -443.391376 227.189522 540.975748 -156.313217 -287.110714 -13.293845 -42.002381 124.517941 -588.728818 -369.446098 -91.151832 194.752229 97.806868 172.712581 -270.672678
to 3970.714578 3464.989285 477.784986 -5702.705107 -1478.692611 -166.606123 3368.122436 311.472470 -1913.035039 -46.797031 -742.338091 -1557.614487 -2180.130263 -2423.008340 1258.160400 -2078.048491 -1802.690757 -3006.284767 -1105.233795 -3768.725134 -2710.444147 1264.187194 512.528661 5.676907 814.191288 -1245.188973 -1059.466576 611.130048 -107.502332 -2100.309205 1854.598283 3123.246275 1887.510659 -1029.948084 -2679.608463 648.075067 -2822.031429 -3644.556996 -396.710763 -2035.872092 270.037389 171.193460 -308.452904 -930.955920 -1836.951609 853.939465 -838.496262 -1569.864319 -1233.740477 3333.149657
say 2043.382312 340.123644 -603.969837 -2587.340424 -587.707185 -907.306694 148.167636 1411.038760 -176.830415 1735.703767 -490.388359 31.258833 -1161.941018 -1020.907750 260.868774 -549.786833 -50.713110 -922.336624 -238.699592 -1982.537028 -1862.594510 -616.529963 -112.230368 -256.868238 2596.806592 -15.165175 -309.001231 -209.324081 -792.732629 -1635.179040 637.829245 1300.993190 608.115478 122.612095 -60.365630 -1231.397042 -357.758541 1362.096765 -265.955973 -1619.031995 834.320174 -365.245824 67.234450 -1896.840224 -1385.425189 -330.324376 370.148559 -561.127814 -428.109637 495.366943
that -467.190569 -108.266339 1239.605669 -563.323315 -263.116253 160.334505 958.888070 -193.827735 400.321336 399.190120 844.839289 -1015.410842 -731.513734 -290.478844 894.897930 -1151.985981 -504.569311 724.842559 675.354870 376.479044 115.756892 320.870181 705.481153 -261.242545 492.637727 122.112522 367.365569 -48.933115 -464.863723 1044.667929 874.971052 -121.271346 185.977246 -638.550596 -1882.991774 616.548317 -919.961488 -253.127903 653.775895 161.027735 1189.893639 -179.442789 -513.158030 1059.010364 772.101616 -244.837339 -239.312337 -749.621654 -1352.895011 1220.796220
they 2084.543666 -1741.138486 -1342.554304 -1589.023238 243.486986 -2481.647843 -148.687810 974.566926 1384.618834 1943.510944 -265.868592 1019.880854 -1414.856943 -947.600265 953.597240 -1618.265423 605.439380 -976.561002 1520.237763 -1253.610034 -1588.779210 -1666.183638 482.602524 -1065.355119 4063.182981 754.851656 60.188038 -745.409317 -1562.804702 -985.887832 182.053605 917.478956 13.248758 -378.111065 -788.178292 -2134.625615 352.283815 2621.493629 72.121441 -1317.599095 797.888055 -930.561767 -1169.017490 -1114.814806 80.957956 -906.631736 578.843132 23.801584 713.916678 293.823567
perfectly 400.239717 -81.272200 -404.988734 -134.161294 51.040340 -317.925839 -178.145107 171.337552 22.300845 117.078607 -225.867593 286.748371 -36.973653 -70.351517 -100.588767 74.991845 160.318347 -316.449575 -26.921725 -284.249658 -268.235752 -232.200021 -128.507941 -37.582951 327.682968 19.990155 -102.563978 -45.469484 -43.283133 -391.321776 -137.166537 173.209257 -14.437781 97.939196 337.264728 -383.371554 207.928412 274.724113 -146.488342 -228.814880 -186.666713 -45.747903 27.034957 -412.053686 -222.803913 -15.544624 109.790461 163.037222 344.104798 -187.732324
normal 368.817608 41.608821 -124.853555 -438.275935 -85.477706 -184.576677 -35.276575 303.204740 -37.606614 319.937863 -89.396542 21.152890 -232.430319 -167.411135 -13.103621 -59.283537 17.051818 -165.382823 -57.254602 -360.040074 -344.917032 -138.236577 -84.365510 -70.721380 487.564573 -17.928251 -87.036293 -9.956539 -123.368536 -319.294853 96.113088 184.545220 67.591629 46.668972 59.582896 -240.322748 -15.104837 278.544103 -56.491651 -304.138780 132.510754 -68.556945 54.531640 -380.825389 -277.053512 -47.395137 81.245573 -54.174914 -60.922493 52.932299
thank 195.528658 -34.629187 -125.976001 -141.895579 -9.401571 -148.033251 -41.552982 110.473912 14.596045 113.165257 -69.272720 76.878586 -78.847987 -70.608854 -7.390233 -17.924840 45.061992 -108.053153 7.932434 -157.687054 -155.969217 -98.905044 -40.317824 -44.583130 232.543049 14.064648 -42.101529 -14.467261 -54.336799 -166.943907 0.348955 87.614893 19.223420 34.702854 70.180259 -154.070380 35.164297 149.015578 -43.047136 -134.767859 0.286019 -35.269102 6.631320 -184.187154 -107.994152 -29.802196 47.242689 17.803897 60.880953 -19.316188
you 16495.070329 -6646.849171 -19589.182899 -3283.215545 3170.246142 -15007.535847 -11208.305223 8481.919080 2490.900184 7498.250997 -9423.080127 14303.109500 -744.158816 -2087.731849 -5374.716662 4787.972630 8865.991508 -11993.527390 -377.798251 -11403.758791 -11652.174937 -12365.412169 -5957.721494 -2423.830975 16704.509475 1229.232396 -4150.246372 -2422.962934 -2771.475629 -17038.762710 -6656.475453 6243.386904 -1075.732496 5400.141453 17817.648174 -19259.635441 11298.446281 17434.722426 -6787.283405 -9414.424879 -7519.274775 -2279.578966 980.263971 -19664.844116 -10278.850375 -2228.358008 6924.957631 8162.954662 15812.962443 -10852.013789
very 3459.476927 -1507.251306 -3365.427002 -741.151483 804.270715 -3334.585363 -1609.561967 1331.970582 708.555234 911.405645 -1518.873923 2462.907707 -768.358702 -633.563545 -698.681046 164.867200 1481.309840 -2547.073919 577.160898 -2047.794071 -2250.948415 -2319.635066 -1049.513862 -919.523965 3341.943519 232.601321 -875.506989 -280.469035 -576.894013 -2952.148463 -1022.554561 952.239617 -485.754021 471.013002 2323.422827 -3242.219251 1792.830318 2486.094278 -977.214079 -1668.055237 -1614.566878 -589.173330 -205.989702 -2905.538261 -1309.972851 -125.046965 892.329355 1560.192424 3078.014710 -1167.035053
much 3903.927165 -2172.767022 -4919.288741 325.090767 1284.083380 -4231.322670 -3415.983541 2123.252869 865.986516 1078.908778 -2274.213539 3750.754738 -173.132737 -29.827114 -1992.870075 1842.334318 2592.317722 -2825.710456 138.411486 -2304.708428 -2709.937630 -3392.579459 -2219.897042 -757.446883 3782.253140 359.270234 -1237.981110 -324.936436 -231.752166 -4312.011119 -2049.518549 667.620645 -1215.985880 1623.083202 5394.289202 -4901.154395 3562.649574 4353.041714 -1573.403219 -2256.820820 -2774.734058 -613.422624 867.640822 -4775.568533 -2303.155364 -103.664992 1503.774050 2706.430009 4677.971346 -3019.956236
They 5261.276121 -3145.640255 -8083.466137 760.820845 1894.388071 -5545.441857 -6089.363824 3891.007240 686.346794 2361.840738 -3670.229907 5929.236967 518.968800 177.411782 -3540.692741 3235.507804 4117.870607 -4031.099865 -653.401194 -3379.948279 -3893.223932 -5117.599311 -3357.191338 -691.970202 5542.981794 464.491818 -1703.189980 -778.707905 -314.539895 -6404.244065 -3517.110285 1250.678589 -1317.859723 2679.449276 9005.865717 -7607.207856 5798.280286 7646.313568 -2778.969775 -3003.978346 -3813.276091 -657.263346 1270.459303 -7946.719713 -4283.704544 -525.596957 3142.306694 4203.280176 6688.366034 -5694.402762
last 1867.059140 -1071.538699 -1828.372538 -81.044809 530.363711 -2142.333495 -1257.476572 1118.514040 543.326695 599.008458 -838.473993 1401.454639 -592.317510 -240.482490 -645.593912 451.352130 1095.875685 -1199.706157 330.221209 -1043.959776 -1333.239520 -1581.013976 -945.365406 -559.491356 2158.204359 241.317056 -527.413210 -87.146980 -217.031486 -1806.134974 -652.356362 206.986187 -564.423452 545.712655 1871.186670 -2066.964905 1313.692545 1918.719207 -498.703229 -1155.256349 -929.609629 -406.524940 381.076521 -1974.128531 -785.869764 -25.896022 565.131086 986.490217 1660.075921 -949.085527
people 4666.425100 -2961.806412 -5891.194849 337.610955 1658.106284 -5402.460316 -4365.618747 3131.023991 1133.115408 1574.869588 -2636.485048 4420.329004 -640.877872 -38.159554 -2519.117156 1965.353363 3197.833007 -3327.329686 359.237043 -2637.439378 -3490.116321 -4388.219967 -2884.362373 -1001.055568 5205.368025 607.980632 -1438.823786 -453.968508 -344.178377 -5102.378954 -2530.792793 646.053112 -1794.036836 1858.233513 6524.146478 -6163.787188 4601.899158 5814.944658 -1676.336813 -2889.246118 -3149.535010 -971.962873 1194.613961 -5931.326377 -2764.684843 -118.919226 1943.550175 3369.386922 5405.652236 -3697.148283
youd 787.486989 42.420975 -315.331987 -630.072913 -77.550061 -516.777772 14.478037 356.909846 4.841373 313.736935 -231.630075 156.456200 -394.150128 -295.641983 1.850391 -97.220663 84.755420 -470.509318 -7.512388 -618.113901 -586.809377 -275.356467 -160.614882 -149.058537 730.830846 -18.702337 -181.467257 9.932241 -138.846596 -632.561847 87.103984 331.941878 66.872735 57.190289 129.347591 -450.329489 -0.724292 264.989302 -128.684446 -530.417860 -33.925910 -111.127242 77.123632 -607.624678 -372.408660 4.337511 63.862765 -0.773950 151.597583 110.298207
expect 613.672626 -20.404597 -282.850982 -444.088402 -30.797373 -449.038098 -15.782008 267.332088 30.718036 227.264712 -181.671142 157.776527 -305.589690 -224.447027 -0.472093 -81.180235 91.502405 -371.298995 31.524934 -450.920424 -450.255811 -245.757782 -128.499473 -136.379723 591.801247 -3.406340 -138.597723 2.871945 -112.581455 -487.677715 36.320493 238.924152 20.555545 37.304323 120.044246 -380.591489 41.629540 228.057236 -95.257716 -398.692081 -59.655726 -97.580214 46.354683 -458.869897 -261.674372 -0.304899 59.366479 38.916402 177.327843 58.103685
be 8551.294361 49.552242 -3979.958277 -7404.436710 -615.156975 -5279.135129 -36.250584 4066.262848 -67.212291 4091.582868 -2380.680190 1773.640070 -4032.432563 -3508.187280 399.721134 -1973.393082 757.738829 -5130.665909 195.983715 -6878.427625 -6590.887557 -3002.584030 -1133.568134 -1723.664893 8690.457463 -139.357234 -1968.814380 -315.554640 -2136.192022 -6232.432371 1061.950878 4083.195402 1249.695319 338.777992 722.265240 -5018.921560 -73.288363 3598.854182 -1559.227557 -5295.974472 323.314931 -1288.650223 -483.016031 -6331.297233 -4155.807688 -468.861817 1213.428524 -76.899772 1476.376694 1304.950679
involved 238.451279 -49.433860 -132.308650 -89.842865 34.681173 -209.781785 -2.637840 44.521099 40.954327 -12.355793 -68.633151 84.865001 -96.730016 -77.992681 13.369372 -50.476629 42.193490 -169.843593 66.694696 -132.493053 -134.985588 -88.394402 -37.353036 -70.114162 178.652462 18.303887 -65.540917 -1.808780 -21.066585 -148.297868 -11.589649 68.943261 -18.436986 -2.636674 22.727188 -118.446568 25.076784 30.985096 -37.269318 -106.294653 -95.427798 -31.529945 -22.839578 -97.031203 -33.237711 28.785174 -5.113400 50.853504 133.700433 38.575932
in 17638.563584 -7232.367800 -15744.426475 -2383.132253 4907.474339 -18360.231284 -5796.648865 4230.880259 4501.501585 1444.859708 -7282.343355 12009.831901 -4860.367556 -3149.464466 -2260.460008 316.668322 7570.040426 -13459.171615 4249.799334 -8295.409846 -9535.034981 -11435.678000 -4655.070345 -4654.239234 14566.695296 1164.053844 -3968.111512 -1008.197050 -1754.063422 -14430.830391 -5287.371026 4441.580282 -4096.411405 926.127028 10346.267544 -15455.917898 8448.969756 8268.672388 -3995.558141 -8461.766363 -9931.257312 -3609.385997 -230.385470 -11850.276938 -3896.697745 900.435967 2236.718870 7752.994584 16570.350791 -4719.501176
anything 3017.242294 1864.271147 -584.265568 -4433.320604 -1499.267353 -580.822777 -87.716954 2823.957731 -1023.532873 3029.535220 -925.119730 -290.550018 -1792.235528 -1199.986455 -526.750825 559.311609 -143.821062 -1307.395277 -1733.063436 -3451.847596 -3268.442702 -812.107970 -1018.493616 352.462475 3246.932605 -639.306645 -717.164617 162.055218 -643.418811 -3435.071426 1100.060241 2054.988161 871.311321 811.172057 1599.411104 -2156.444196 -288.546300 1951.834665 -592.701141 -3041.332767 1210.342180 -284.252464 1623.346068 -4336.131244 -3399.129217 -246.718496 657.822820 -816.170771 -1122.731088 193.600131
strange 713.993481 -568.122751 -915.755926 -144.437467 172.151559 -906.337203 -952.986118 901.312162 257.248446 916.956758 -350.389419 667.111918 -283.481919 -11.568752 -469.141887 487.402624 659.944931 -221.598385 -62.599842 -462.494624 -632.452548 -915.857715 -514.977726 -139.035083 1344.716639 152.874154 -109.058051 -143.880946 -239.369188 -1018.108926 -297.994413 129.113564 -371.995782 395.595177 1291.355046 -1319.193283 823.813910 1625.762512 -218.252104 -728.746249 -69.604036 -282.381303 483.352616 -1332.315453 -673.685219 -196.146626 475.240752 367.008467 533.236896 -777.499901
or 3107.334575 -3152.062903 -4594.529149 1631.912514 1705.209290 -5074.416408 -3946.768657 2110.040162 2005.409607 1753.569762 -1697.574882 4006.893594 -700.358295 595.540988 -1984.599573 2422.055114 3427.155729 -1685.563732 717.056943 -777.912992 -1708.818403 -4311.742618 -2245.702299 -851.119531 4193.214204 631.515140 -518.524439 -325.459893 -335.753088 -4296.100291 -2188.076705 -178.651541 -2565.509900 1366.880471 6089.913588 -5734.932624 4305.105430 5341.555995 -901.074638 -2437.549627 -2467.386761 -1236.289729 1867.984145 -4583.068399 -1415.081307 -274.640488 1336.351135 2766.024217 4705.043190 -3784.986163
mysterious 275.801306 -147.733696 -269.147702 -55.916765 85.833741 -312.527393 -209.665869 208.234155 61.616325 158.564052 -109.683054 184.616275 -115.406740 -23.263224 -116.012181 92.542400 177.105761 -144.605144 14.485791 -132.830900 -192.029289 -248.846186 -154.175758 -54.393233 340.119984 26.945184 -56.778937 -24.318376 -36.659437 -303.151507 -88.731654 41.832052 -137.418156 70.131393 316.132276 -353.060612 219.623917 324.277116 -56.322024 -215.188335 -102.563647 -88.149360 116.885253 -326.352525 -160.779818 2.636551 81.243351 126.410288 215.094511 -150.661861
because 2949.297899 -3191.686197 -4278.424841 968.605831 1452.102098 -4813.290847 -4066.708677 2778.578673 1956.632200 2739.691676 -1474.346476 3578.405319 -1033.147095 454.492413 -1914.329954 2261.812910 3317.803882 -1190.677484 581.167556 -1018.296659 -1990.074878 -4360.929124 -2233.995099 -829.606061 5014.532775 736.204275 -377.310702 -422.170495 -684.535568 -4248.485108 -1845.295799 -86.481331 -2468.605633 1480.289907 5893.345808 -5869.913809 4122.536111 6265.964431 -733.844344 -2757.311478 -1523.235414 -1398.992140 2032.395916 -4937.970655 -1752.586057 -613.389308 1575.834498 2290.297200 3752.068014 -3659.050245
just 4545.639654 2984.287083 -1003.172965 -7764.910396 -2741.396415 -221.579153 -723.491388 5250.958245 -1942.048593 6460.581903 -1285.359399 -751.943145 -2631.118563 -2054.287031 -955.092217 953.010862 -194.849251 -1355.207898 -3265.380433 -5943.728396 -5442.278629 -1267.262510 -1539.721011 609.341463 6035.859343 -1108.122193 -1009.760794 39.470713 -1603.304431 -5410.345786 2193.155402 3394.526042 2066.445743 1692.234060 2599.817127 -3625.518259 -673.987309 4510.530892 -1239.930696 -4946.484262 3355.703445 -381.620089 2312.039145 -7654.957110 -6404.065187 -1096.321027 1733.459755 -1856.599677 -2908.317324 131.393682
didnt 4207.852458 -2540.852673 -6527.867814 1525.559415 1881.645526 -5016.943644 -4689.509722 2474.900646 954.435078 1221.564940 -2882.020144 5064.499573 269.025316 505.647325 -2877.068024 2988.372440 3725.838092 -3432.930801 -329.564834 -1859.966935 -2543.876389 -4435.793180 -2705.656990 -509.215451 3637.943873 176.148218 -1210.047681 -376.153587 219.388796 -5351.625122 -3126.747062 727.034837 -1795.599447 1756.193493 7706.179281 -6435.069934 5037.524894 5254.082449 -2009.634347 -2288.144987 -3784.791562 -688.732880 1489.572291 -6025.477672 -2807.815109 -55.719230 2232.978549 3855.438041 6097.126260 -4895.308204
hold 510.133698 -386.352863 -734.460830 140.312199 236.525691 -693.982862 -688.544495 479.440815 160.438878 354.283910 -306.441723 568.953679 -106.562289 71.328054 -409.412959 462.180051 521.478432 -259.368313 -53.357516 -215.985850 -329.029621 -634.159743 -430.577233 -80.330537 656.713028 64.317472 -125.371166 -44.868944 -20.624530 -748.954414 -344.134291 18.084995 -373.993349 271.527457 1060.826505 -897.774800 680.945232 894.426900 -183.997003 -446.371384 -355.218811 -169.075357 402.093409 -860.118370 -403.297681 -14.306851 259.274834 403.761059 633.190083 -627.852550
with 6480.631511 -6501.316062 -10494.582995 4242.007569 3886.027189 -10220.919858 -7997.252830 3522.900906 3773.885342 2098.989957 -4091.463446 8983.154796 -264.033058 1166.216793 -4053.920673 4595.025119 7003.354853 -4610.502972 1561.104763 -1662.971896 -3309.058116 -8416.545848 -4233.690905 -1777.621549 7448.704374 1268.039032 -1386.472454 -884.617016 -248.647716 -8250.294089 -5331.698619 -30.350118 -4372.567092 2625.664118 12276.183627 -11285.592195 8908.751327 9949.869953 -2540.686597 -3850.182301 -6217.874393 -1947.785543 2467.919911 -8792.766788 -2584.020960 -408.854991 3080.170513 6483.441442 10803.229239 -8082.908148
such 824.680573 -485.993922 -988.767517 43.473310 297.767276 -991.632835 -959.224811 808.151219 175.622750 537.594575 -423.223899 711.096722 -257.778476 33.575092 -596.941250 641.555146 689.711391 -406.818525 -109.338237 -436.568257 -604.198077 -885.873799 -687.726685 -126.224315 1040.882124 75.351890 -241.063012 -24.236720 -23.252252 -1123.438181 -388.623427 30.781017 -514.984172 425.080494 1489.893715 -1248.930452 898.763216 1281.638410 -262.632856 -717.088503 -447.368720 -242.794926 615.715789 -1294.679493 -670.774705 20.546051 340.918993 518.581087 788.860638 -777.245871
nonsense 82.696392 -124.145136 -154.622097 82.344246 62.988256 -178.495173 -170.102525 96.247413 86.025614 91.212914 -50.452623 142.288094 -24.332418 45.655220 -91.757698 123.884780 138.149851 -19.332418 17.500293 -6.478690 -54.214765 -170.411339 -98.606376 -18.446488 157.961172 28.130035 -9.292927 -13.486157 -10.823548 -154.936745 -87.130896 -33.497775 -119.721409 64.588754 263.349806 -225.707736 182.787374 239.036490 -21.726371 -101.061981 -75.681227 -52.298444 106.617543 -187.729239 -57.678550 -15.839472 51.324790 102.775596 158.639707 -164.417410
was 2924.423401 -830.802975 -1255.156034 -2463.681011 293.358512 -2418.817314 883.592303 762.615861 383.718204 1230.809862 -458.014225 615.669698 -1573.894597 -1551.891640 1145.255913 -1886.663070 352.174946 -1455.247855 1190.802009 -1856.093313 -1718.630410 -792.119847 267.103138 -1255.948926 3363.490060 313.210570 -606.969986 -277.950861 -1058.137799 -1203.507547 450.487919 1144.346515 476.369317 -397.231437 -1467.636618 -1449.243601 -323.669967 887.813664 -382.442225 -1620.958141 588.787303 -655.235410 -1283.949685 -975.346501 -295.055887 -484.578520 252.663502 -154.230038 479.474334 1185.370403
director 142.641994 -48.635490 -105.487386 -31.585956 39.427751 -143.881128 -31.684096 33.978159 27.691689 9.602056 -49.394686 74.509982 -56.111190 -32.575170 -11.190318 -2.551776 51.606008 -101.166203 32.381002 -59.208312 -72.470106 -78.070723 -35.513829 -39.911819 112.213030 2.696412 -31.985200 -0.063630 -7.693654 -114.357254 -27.129091 32.136242 -38.952562 -2.742549 60.214966 -108.933642 51.788871 41.110435 -23.211612 -73.869856 -70.978463 -32.905382 9.808939 -79.817950 -26.440962 18.494125 2.965428 47.627184 112.950759 -15.493462
a 1385.370685 -3158.695461 -2089.592045 2483.780083 3192.850038 -2439.913526 45.996774 -1731.917942 747.440033 -3322.308859 -818.711246 2032.532850 704.841441 225.754890 409.416595 -1257.467932 1628.658249 -2565.350307 2854.138299 1806.234399 1572.248374 -617.030492 -201.721780 -1475.393520 -846.800228 1432.194236 -805.622998 -1198.213699 -13.271469 944.839225 -2517.159490 -2082.991239 -2480.991100 -982.708926 -1431.302160 15.321686 1556.609669 -1910.027364 -395.222884 890.086029 -2899.281913 -1180.292586 -3295.995472 2802.145948 3425.184901 1461.960088 -1758.574449 1877.835808 5140.804440 386.529034
firm 108.499261 -58.335777 -169.072328 42.025704 32.660634 -147.726776 -154.472424 95.824649 44.432190 61.489132 -72.617001 134.663729 -17.477472 21.635501 -96.912547 103.546919 100.174842 -74.418614 -23.577882 -52.978274 -87.336291 -144.668397 -86.850229 2.918713 127.960472 -1.708699 -13.870550 -1.509264 10.627273 -176.845336 -75.284596 38.059707 -59.940439 45.201716 257.645868 -200.755394 148.460636 185.298674 -35.307707 -83.548042 -104.998028 -24.213366 102.581718 -198.373448 -96.954989 -2.349105 69.156536 102.468069 142.119244 -156.833849
called 1334.341787 -1232.500133 -2250.507867 829.048456 577.165650 -2198.078998 -2243.764801 1264.725294 969.853373 1082.883623 -860.365719 1906.300421 -288.842987 428.918531 -1249.867921 1467.230964 1582.045443 -768.073715 -24.875989 -481.596764 -1036.224171 -2228.459169 -1157.316856 -61.169944 2012.313724 189.609826 -60.078061 -141.903893 -100.254563 -2274.190522 -1066.175985 203.558135 -1115.293164 728.969054 3527.773954 -2948.938325 2159.539220 2966.075941 -385.161549 -1163.447056 -1231.774185 -507.758819 1318.750501 -2627.024451 -1069.228741 -177.329996 915.304109 1351.902235 2051.606601 -2192.965026
Grunnings 155.452907 -58.647503 -165.774378 9.854699 35.396953 -183.777776 -127.168887 92.788269 45.553365 56.261845 -74.255568 124.213598 -51.945982 -11.974765 -75.657460 85.745546 97.323079 -85.272418 -9.445607 -82.299031 -98.722138 -142.171172 -85.107758 -23.555987 156.574672 1.064618 -29.177757 10.992685 8.366727 -193.254427 -53.148578 43.664309 -56.494550 45.810632 221.691511 -193.709152 119.065900 161.163848 -42.498178 -105.285235 -101.375317 -24.191762 102.601371 -190.156052 -100.050540 6.537498 56.731788 83.244616 129.631387 -112.615650
which 2326.009304 -2696.289888 -4397.472937 1733.983481 1190.713731 -4176.796320 -4390.131124 2472.491838 1839.091590 2221.163275 -1595.900809 3717.146874 -433.055705 801.561797 -2263.920334 2628.958457 3056.964768 -1291.766080 85.912751 -831.963173 -1867.376227 -4233.265816 -2090.416968 -286.208371 4039.429223 460.478284 -157.908825 -361.058475 -276.969426 -4041.652052 -2077.380000 290.521480 -2032.241077 1452.725643 6491.109440 -5656.037992 4201.497084 5988.974973 -778.242875 -2075.408075 -2104.068219 -922.322953 2230.259555 -4920.060250 -1946.469828 -539.685464 1944.370191 2633.174546 3822.764786 -4253.265725
made 2018.610170 -1797.025850 -3358.128324 724.908505 634.211632 -3151.475184 -3427.733380 2329.782040 1157.241830 2232.588182 -1237.412767 2638.990782 -567.964407 333.306199 -1754.047474 2075.252360 2199.170864 -827.711518 -287.459733 -1167.089282 -1801.726171 -3193.976885 -1665.492791 -243.520341 3575.460489 233.093114 -206.561055 -107.356836 -273.406533 -3433.416932 -1235.002180 571.593356 -1203.650014 1266.963776 5073.017916 -4413.648288 2986.347085 4969.954813 -679.143546 -1909.546910 -1219.593932 -598.996419 2070.769504 -4282.626845 -2095.276327 -578.164541 1765.805054 1732.007814 2287.585758 -3187.694131
drills 96.550794 64.041981 -46.440790 -132.317080 -48.740773 -11.221042 -42.790091 109.546725 -40.193911 119.540361 -37.709374 7.019544 -48.555563 -30.115583 -44.121835 39.964189 4.719684 -48.349167 -82.431974 -116.213544 -111.714026 -42.324180 -42.180546 27.872413 103.069269 -27.788432 -18.181449 2.300860 -18.736565 -127.886201 23.213002 76.115766 27.897605 33.259366 97.522149 -91.981274 8.845380 94.996094 -27.104782 -93.221852 32.820497 -5.674850 63.149006 -169.375841 -142.314094 -13.082338 46.267476 -13.648942 -32.679196 -29.180229
He 6110.095039 -7713.928883 -11065.842409 4836.377839 3514.870602 -11500.662344 -9626.628481 4814.561336 5144.129976 4332.223286 -3855.293512 9769.774780 -807.939988 1491.122364 -4392.246722 5393.925758 7786.621025 -3201.473812 1741.986200 -1735.048206 -3956.924790 -10120.840689 -4502.304334 -1911.101237 10036.058906 1502.630701 -795.379127 -742.700995 -815.758415 -9181.274212 -5163.484581 172.091542 -4589.267896 3391.438741 14379.271894 -13447.145646 10080.911578 13706.071289 -2234.542769 -4668.693337 -5410.906668 -2156.404334 4065.862269 -10748.948154 -3397.604848 -1673.702756 4474.904409 6739.213096 10218.227212 -9795.788783
big 428.170154 -526.613275 -986.062967 637.263157 227.991428 -982.325214 -1143.494825 599.790042 485.383911 471.116597 -365.030280 890.894037 -124.841312 310.027878 -683.967334 897.673945 753.250510 -163.364719 -121.826779 -106.895365 -398.135829 -1014.671693 -599.959014 43.733290 794.956635 28.889306 10.661774 35.588421 109.720256 -1060.812326 -529.459954 51.252364 -546.952771 398.694713 1909.974951 -1389.469689 1112.010002 1464.454712 -127.490382 -515.893816 -642.761172 -162.188625 926.221879 -1282.242177 -523.158369 -92.135299 503.919625 699.835951 848.144679 -1215.338158
beefy 111.192406 -30.710816 -103.727428 3.688540 22.039056 -126.634925 -85.577967 63.967231 31.816224 30.066227 -45.707964 78.272200 -48.961152 -7.491611 -53.987423 59.100618 59.066596 -68.279688 -8.740019 -60.482006 -78.234602 -97.808091 -60.058975 -11.885862 102.285854 -9.134543 -23.196023 12.528998 10.033785 -138.463153 -30.102950 34.322955 -41.682462 26.137349 153.267186 -129.838193 78.431919 98.302126 -19.116323 -74.259489 -79.139955 -16.429685 79.439074 -130.994592 -70.068573 12.475890 36.496305 59.991230 88.631491 -72.936651
man 411.948287 -510.217389 -1066.138644 677.561127 259.830353 -945.851407 -1226.619767 653.821017 405.467343 424.938230 -411.359368 929.352507 -12.310181 332.494870 -791.071921 940.325463 780.659560 -226.927932 -184.931023 -127.533015 -419.081118 -1036.041295 -668.300775 73.016322 723.377423 20.774439 -39.548023 11.377276 147.966368 -1055.653055 -599.736708 21.351536 -551.194925 468.032185 2021.583166 -1398.694692 1190.110077 1457.964120 -204.686884 -472.051952 -711.290116 -122.225486 889.927548 -1331.183607 -617.211599 -65.362461 537.139818 780.653952 926.915991 -1301.482940
hardly 338.720208 163.943949 -212.396383 -364.903768 -191.871517 -170.121738 -249.154187 447.570175 -11.896478 488.987315 -162.758311 117.293758 -190.561942 -29.413692 -216.841982 276.180697 107.836051 -137.397815 -265.611351 -396.411663 -459.429830 -291.494306 -222.324475 112.341004 490.102385 -87.252185 -36.803116 19.989893 -59.522643 -571.296809 32.002221 252.425520 17.732770 198.005985 612.011268 -523.919402 190.768761 560.932371 -78.140431 -430.009600 55.106779 -40.528145 396.566110 -774.026375 -527.281735 -80.463096 195.226935 33.684644 -11.561984 -270.279679
any 870.128173 -1535.555038 -2335.665536 1475.728697 605.429848 -2253.380555 -2635.190402 1337.652091 1172.172192 1173.810590 -782.567917 2106.035246 -133.722804 663.926392 -1415.631530 1803.093222 1763.623741 -329.910955 -32.610480 -210.027549 -887.825833 -2339.643680 -1230.283598 -71.660943 2002.631597 205.236393 10.179842 -54.255332 42.996940 -2136.661395 -1207.217832 -20.032076 -1170.229533 960.537742 4039.277059 -3174.163845 2534.236149 3533.687109 -361.358990 -1029.817428 -1230.660172 -368.687232 1619.942987 -2758.528576 -1052.622494 -408.113090 1247.286390 1617.974930 1999.597846 -2720.434148
neck 167.917307 145.605872 -25.242349 -202.024290 -78.763126 -79.784587 -0.349713 155.914681 -23.964509 121.227728 -64.718921 -9.985576 -137.508405 -31.093280 -62.573994 61.479379 6.494321 -122.660783 -115.303537 -146.528903 -193.876187 -90.057023 -80.340209 91.650644 127.272031 -46.609867 -11.570879 13.795704 19.325100 -227.316545 7.437509 144.385124 -34.908761 12.368094 179.667326 -180.232692 40.641457 72.205892 15.849756 -213.385706 -27.758898 -35.982642 207.180986 -255.832635 -172.921970 40.752568 7.228695 -2.907088 -15.445592 -35.626938
although 373.606577 -145.209281 -392.301156 41.538566 71.081206 -498.445631 -300.997396 208.052203 178.630322 156.011626 -157.111142 313.279356 -177.558449 -11.809344 -168.960248 195.331763 234.731023 -216.091448 -0.540737 -179.109550 -263.214981 -398.281592 -182.319234 -37.961670 406.869916 -13.903662 -36.119312 37.525177 6.334398 -497.978767 -118.473281 149.154321 -163.192382 75.983484 560.736890 -533.772104 306.267087 404.324122 -51.542616 -277.219905 -269.629168 -78.511635 300.490924 -469.368681 -220.398418 2.192233 145.260782 223.937851 331.072107 -296.035336
he 938.745881 -1023.481306 -1748.580675 964.534908 997.271021 -1417.988794 -238.145569 -554.185996 195.837309 -936.435588 -617.076581 1332.674621 454.575178 -168.644794 21.201202 -370.557617 750.797573 -1080.081117 712.092035 -47.609319 25.551311 -367.040844 5.980688 -588.929271 69.720634 151.029623 -451.797888 -93.748702 211.241568 -233.359684 -926.031763 120.811948 10.368571 -125.326567 325.056399 -674.353340 775.029027 -91.261294 -633.465114 258.664935 -1331.964634 63.004926 -980.495251 100.782585 401.075934 29.836097 372.688471 1128.072024 1913.562763 -471.221285
did 1329.814519 -1682.479512 -3348.649141 1741.791625 902.915206 -2576.834004 -3384.753342 1729.562872 1090.769747 1137.730668 -1303.555577 2838.234688 214.093217 809.609942 -1937.384553 2342.574715 2223.617213 -924.224269 -335.003103 -395.610577 -1077.567705 -2866.008170 -1636.646785 13.185622 2113.459392 227.699963 -195.705136 -207.949444 175.440548 -2782.278997 -1851.645657 87.151213 -1394.856136 1248.616231 5181.185318 -3891.106887 3364.007160 4034.906612 -692.875374 -1160.760662 -1914.497378 -387.891866 1776.076366 -3598.235976 -1540.536872 -302.741173 1552.623605 2238.372300 2930.312856 -3604.567712
have 2228.703803 -532.456892 -3808.022774 625.467069 453.726309 -2489.966053 -3282.434908 2189.985844 225.813129 1834.031155 -1719.392821 2768.586972 203.433484 598.406536 -2474.207551 3000.047814 2342.574654 -1394.663225 -1419.969859 -1523.789971 -1972.362629 -2677.476840 -2132.087728 446.696770 2089.420845 -438.807630 -593.542376 33.698114 373.739242 -4053.874280 -1630.295268 788.319125 -766.863419 1662.102525 6319.715362 -4530.309183 3257.681495 4036.009997 -1347.655490 -2011.936653 -1818.248994 -168.389573 2316.823037 -5152.622959 -3116.967156 -309.151970 1839.007164 2187.679007 2847.578216 -3674.520044
large 1268.743139 -1112.653454 -2663.537972 651.066375 442.853917 -1951.455300 -2860.282501 1971.250708 615.715970 1701.577767 -1029.560738 1979.478745 -160.063563 398.484841 -1620.025125 1810.401529 1643.261886 -635.463498 -621.251598 -817.407535 -1329.027266 -2291.217643 -1348.622473 64.171203 2363.564713 54.857406 -143.356418 -166.982749 -24.675278 -2533.713393 -1161.934751 461.735876 -830.561183 1015.061113 4207.617247 -3306.202410 2484.577811 3834.429059 -582.271297 -1276.701029 -997.897455 -302.245748 1653.880752 -3416.560055 -1878.159489 -398.315304 1528.435144 1489.844342 1688.200257 -2757.917740
mustache 153.249269 -78.987117 -177.448068 12.532447 47.691716 -207.008802 -136.079533 110.019074 63.424555 59.108108 -71.956519 129.166999 -76.946209 2.485794 -79.090059 53.478236 98.546517 -122.828935 8.101277 -59.081301 -118.423387 -176.836963 -82.487608 -15.260623 180.049155 2.902860 -15.935611 -5.145414 6.079984 -179.556663 -75.333005 53.743253 -92.789888 10.473319 222.402753 -234.369572 156.290463 176.130611 -12.179209 -106.160837 -115.447016 -44.200285 92.350853 -187.403609 -80.936404 12.209501 64.515676 120.474288 154.644961 -126.527114
thin 544.308091 -234.158522 -617.507880 102.345046 170.096795 -660.454827 -458.706246 291.264752 168.186547 121.934059 -278.495070 468.666325 -178.967410 -1.819789 -277.090165 274.670097 357.980562 -412.572387 -0.210300 -238.391165 -356.249790 -525.899564 -306.780626 -57.108197 483.508695 4.656557 -105.260043 8.862674 40.932980 -658.261842 -252.805728 146.084300 -267.899278 112.644046 776.754957 -712.047265 473.673002 500.144239 -116.519709 -348.425994 -450.592926 -117.811876 305.418267 -635.749001 -272.014716 66.576620 170.005450 371.887052 597.716262 -410.177643
blonde 120.437073 -61.845512 -150.474938 20.939249 38.458276 -156.476264 -113.523626 74.093865 48.833084 47.208016 -60.738788 114.071803 -44.007043 3.021352 -64.585759 54.956083 82.772827 -94.133510 1.601490 -49.930501 -87.417237 -134.419071 -61.986252 -10.036638 130.868695 0.432067 -15.316276 -1.856226 1.666259 -148.656935 -59.448796 38.905414 -60.117713 16.832500 181.336813 -179.517951 120.961950 135.774485 -21.016591 -76.817733 -95.076037 -26.461634 65.146423 -151.532337 -67.228150 3.965305 53.923110 93.883778 134.400655 -105.740438
had 10632.918531 -9894.927858 -20111.274754 5767.730875 3663.577932 -15981.200674 -20043.345669 12468.606554 5572.699629 13295.453541 -7533.369346 15608.075138 -640.450367 2394.485848 -10434.324419 13301.930113 13445.323547 -4446.993170 -2730.650157 -5758.251281 -8992.409866 -17145.357173 -8997.032166 -1035.275548 17920.274142 983.647261 -1657.120288 -1483.032405 -1324.016552 -18932.927601 -7831.114061 2268.686678 -5279.476850 7864.162587 29930.268524 -24984.275545 17256.819092 28150.815064 -5292.420410 -9511.882608 -6747.535084 -2365.813150 10128.625185 -24954.149234 -12411.018339 -3531.890028 10762.752232 10487.365621 13718.966215 -19462.726173
nearly 747.939275 -114.667910 -296.205060 -308.524386 67.908133 -793.701495 4.167755 207.663935 227.524516 5.209967 -169.228714 241.068828 -527.917689 -208.899480 14.729179 -38.903758 154.660116 -470.514026 195.357644 -370.949661 -466.918836 -419.288978 -206.632239 -205.528826 647.415926 -12.048680 -145.034479 114.425196 -15.969118 -616.195986 28.131139 216.313423 -254.765429 -42.437194 235.822870 -499.502661 163.245406 122.433068 7.436178 -489.736568 -309.452141 -177.389215 270.839705 -394.773401 -86.930048 125.663010 -69.979070 161.550759 392.659324 74.656117
twice 309.782334 -239.886635 -349.827873 111.674074 130.090937 -423.205155 -222.015236 97.676509 217.053308 110.927787 -145.766564 321.245135 -101.326752 22.967884 -71.914756 143.536153 261.080012 -220.723141 111.639403 -44.508405 -114.069273 -343.206919 -106.893468 -74.290596 311.995110 72.687519 -26.141932 -66.202122 -49.432261 -333.939608 -180.297692 5.654825 -225.714207 40.355821 374.434399 -453.102216 299.924571 323.101122 -30.498514 -206.715070 -229.171755 -118.858325 94.001086 -298.053977 -12.649305 13.519259 32.750518 207.784615 430.983655 -245.599632
usual 480.527693 -236.865080 -479.439325 158.245817 140.361910 -630.462286 -307.298077 150.380445 248.338257 85.898474 -209.340924 408.388529 -198.420121 7.958199 -164.249253 235.924298 324.342104 -336.168803 84.102817 -117.105968 -232.660355 -457.747847 -210.821123 -100.685728 395.869781 16.845617 -78.342972 6.754138 39.267681 -533.222510 -206.482178 47.919595 -277.837423 58.076150 602.511012 -614.737903 412.485451 348.437406 -54.946085 -303.134289 -405.097430 -97.622691 269.962303 -472.554441 -120.229425 67.366709 83.125988 341.711712 547.514942 -328.385693
amount 69.632707 -5.976541 -8.332697 -36.059556 4.279067 -84.999481 22.862875 7.330570 20.886190 -24.987889 -5.956649 8.902091 -63.705612 -31.461851 14.232841 -20.040107 1.578191 -39.995116 30.136834 -36.756452 -41.342007 -28.830930 -17.657713 -30.617381 57.411841 -4.902496 -14.486357 26.716543 6.498567 -50.623698 15.584501 23.185774 -20.951131 -11.665084 -8.923018 -25.855783 -4.324015 -19.536323 7.498959 -44.940452 -32.367179 -14.260902 33.175636 -11.194696 1.287928 16.275354 -15.686014 7.036746 19.809684 33.120258
came 2732.972270 -1603.021449 -3038.159749 1394.903023 660.410754 -4344.244071 -3063.891848 1947.619391 1808.140850 1432.582077 -1173.425485 2583.028851 -1641.827176 271.906146 -1726.720847 2550.168884 2361.729624 -1181.856986 47.407644 -807.278919 -1792.250336 -3603.097361 -1976.573909 -526.018933 3312.145426 -43.266663 -401.666409 505.697674 393.908858 -4198.906649 -1085.345997 243.819365 -2059.483706 974.759085 5585.466666 -4719.186897 3137.668280 3783.920721 -183.108465 -2401.285857 -2395.375153 -611.493346 3450.002678 -4217.248832 -1620.694505 198.278636 1120.641893 2218.019110 2771.133263 -2986.237202
useful 263.623848 -68.002805 -160.961539 -6.068307 77.350269 -318.256108 -46.701125 45.880068 97.661002 -59.896929 -78.040281 136.084000 -152.562337 -45.619406 -29.365330 39.169722 97.768412 -183.618823 72.503010 -90.424906 -125.110257 -172.729988 -94.195030 -58.327814 170.896042 0.777169 -48.105074 35.021143 27.174588 -238.867302 -51.438158 59.536082 -134.090730 -16.612643 158.787397 -201.034594 106.682069 32.990992 -6.640013 -152.355097 -197.700317 -68.322621 116.995314 -126.589639 -11.003630 73.269262 -26.860840 108.662221 224.514188 -25.124469
as 7627.024966 -8065.110824 -12442.372256 7456.021659 3536.633100 -14679.862828 -11615.226742 5392.576603 6460.197253 5296.951030 -4318.346666 10992.580931 -2335.413064 2061.328272 -5930.768231 8902.861856 9756.123984 -3040.672170 1131.242276 -1443.697482 -4565.514095 -12221.849661 -6205.777078 -2242.537266 10748.470798 710.889394 -1327.605745 572.716629 635.077526 -12697.188162 -5329.228328 -457.720101 -6151.304714 4348.335861 19739.506033 -16879.315920 12158.589537 15228.911902 -2166.635544 -6636.060050 -7627.546716 -1950.424280 8586.508166 -14177.106299 -4703.030241 -991.630296 5057.573480 8536.723555 11594.589639 -12112.413348
she 1621.631227 768.952444 -1195.928582 -2020.557260 -779.266471 -591.273645 -930.413748 2011.490144 -577.843759 2469.193499 -711.649783 381.998576 -610.141249 -411.724341 -891.942874 1008.591211 487.173432 -471.507591 -1398.795564 -2050.830252 -2041.771932 -857.133811 -907.531790 277.134911 2161.187495 -562.798271 -436.581031 116.437039 -283.763408 -2412.450645 293.402067 1174.260242 673.434048 971.508674 2340.577878 -2217.070866 621.673198 2359.090917 -725.844047 -1862.269588 702.503273 2.190427 1249.617172 -3553.197105 -2775.542706 -583.086551 1159.724754 59.864981 -378.898356 -930.848709
spent 286.365687 -217.032912 -436.978933 166.334781 16.988890 -462.515564 -557.535928 410.623810 237.802378 448.854984 -168.330324 362.749776 -144.745707 75.577199 -287.257909 441.228650 347.664130 -42.978177 -95.725544 -135.932741 -275.903578 -519.812791 -273.787655 -12.098753 558.466859 21.614699 -29.797573 -2.631633 -12.393054 -584.933515 -156.203730 35.451333 -213.756165 235.954287 905.303319 -738.733720 483.587513 823.694774 -48.168569 -366.500748 -169.569684 -62.041274 510.308683 -767.870290 -361.856571 -72.782218 270.567322 270.507822 258.824361 -560.655886
so 1790.921022 -3543.420203 -4561.802871 3374.246839 1359.857673 -4926.221393 -4991.062179 2336.088214 2629.161740 2558.825099 -1390.263432 4237.475967 -253.243062 1253.704577 -2383.033149 3502.383526 3833.146300 -280.482561 433.897456 6.158263 -1310.702866 -4707.409562 -2285.843708 -700.895184 4159.447064 585.117168 -220.305366 -146.224904 -16.637892 -4097.039892 -2285.975154 -654.637595 -2330.439732 1965.689853 7693.094382 -6456.389834 5012.542045 6912.548833 -756.705916 -2115.947994 -2218.719975 -760.109725 3009.924581 -5330.734083 -1677.728391 -856.887309 2279.263842 3241.530001 4033.119228 -5257.515430
her 3540.423082 -2424.603290 -3945.560990 1181.139991 1243.888420 -5214.477700 -2947.765195 1687.220116 2059.288925 1483.064472 -1443.432103 3285.949743 -1562.298717 19.276617 -1352.059780 1776.777781 2779.181711 -2006.737152 773.738185 -915.935774 -1934.153486 -3939.759013 -1722.859913 -983.956890 4010.069546 210.894984 -555.239609 47.523875 -61.429913 -4233.635641 -1475.995463 339.911238 -2112.724729 672.101569 4987.570815 -5305.792972 3401.301478 3867.242840 -473.104258 -2468.315344 -2549.549540 -954.964915 2144.228207 -4078.549427 -1253.003224 72.632234 1110.519682 2546.153492 3914.795480 -2845.142923
time 2173.406329 -1890.943400 -2676.698003 995.913425 928.308321 -3661.358989 -2266.721676 1420.683355 1358.127256 1030.768098 -876.627949 2244.678978 -1034.527779 48.401992 -1098.272911 1461.785482 2019.998910 -901.280107 556.212147 -731.269306 -1391.381757 -2710.903571 -1472.182421 -767.420364 2968.934962 228.205947 -489.147173 212.333231 -15.046879 -2838.148736 -878.801316 31.192138 -1388.101436 782.551580 3694.139963 -3528.404611 2368.527376 3247.611094 -497.240243 -1684.485894 -1518.473556 -613.691779 1631.224728 -2910.239742 -967.263198 -145.333655 944.048863 1678.666424 2415.458978 -1963.683337
craning 128.483982 -22.978276 -67.501029 -29.495258 18.422458 -142.878156 -10.316622 28.233133 42.712258 0.488006 -29.588446 53.970173 -78.854397 -35.464224 -1.391598 8.501404 39.029497 -70.908240 27.095245 -60.683495 -63.106573 -77.791703 -31.344817 -37.285893 100.715174 -4.422842 -23.585253 23.644456 1.929476 -115.848388 -0.102637 34.998938 -35.380042 -4.214106 56.897236 -85.757164 27.065014 22.135742 -8.167584 -75.046360 -61.799260 -22.314579 55.682100 -68.117573 -23.034237 15.916109 -2.534294 29.790963 65.355583 -3.358329
over 6058.930619 -2900.514500 -7030.937379 2163.978813 1728.587114 -8334.878247 -5648.126879 3513.373083 2599.652701 2269.214737 -2801.171495 5485.881388 -2481.561505 116.690402 -3408.204087 4230.706018 4580.790604 -3570.683260 -133.199768 -2153.031646 -3811.481610 -6451.041469 -3691.966453 -1102.785272 5992.778806 -357.791508 -1350.019556 690.192855 834.042759 -8112.158428 -2547.617577 1010.917630 -3226.141216 1627.022712 10346.070838 -9098.817839 6093.438463 6445.765337 -1146.907554 -4394.133406 -5107.463097 -944.027563 5195.999217 -8147.632026 -3596.971021 511.072894 2395.004336 4751.393052 6329.204595 -5603.661763
garden 313.730759 -9.066480 -170.037134 -136.031910 29.407534 -289.579170 11.335484 58.739004 40.621215 -6.669199 -95.217839 117.170474 -162.497509 -99.814248 -0.512443 -10.009964 56.274563 -224.577087 34.602483 -181.116199 -181.134317 -135.645018 -65.114276 -60.909667 207.283532 -26.233723 -66.512752 40.320155 -1.108231 -258.400177 -5.674261 126.647224 -39.459276 -25.795334 87.072475 -183.990718 40.600626 5.583768 -39.846863 -167.331173 -141.374281 -44.007131 64.837273 -160.133704 -74.024972 42.111423 -4.900521 65.301461 173.263080 29.113969
fences 44.668233 -11.245845 -32.051099 -0.200188 5.941967 -53.209610 -6.255414 4.419787 19.787512 -0.548940 -16.904991 29.056713 -15.855854 -6.481768 -0.794843 3.802607 17.611097 -30.725700 13.962136 -19.713064 -22.563530 -29.026361 -8.614035 -9.329068 34.637739 2.206351 -7.514476 1.374595 -0.381682 -37.474031 -13.226242 10.589372 -10.876321 -0.362617 26.372568 -39.294693 20.331531 14.360775 -3.587297 -25.550299 -32.843302 -9.662160 9.319061 -28.383659 -3.989728 3.959009 1.131853 18.105926 41.992064 -10.473457
spying 183.341326 -29.606868 -92.000277 -49.707550 24.332061 -205.486828 1.432178 30.171025 59.808892 -10.103745 -46.849215 75.884533 -112.991186 -54.318127 6.782085 -11.043557 47.309523 -114.261730 47.024611 -81.648430 -96.428991 -107.119565 -37.628318 -46.287878 141.842264 -3.498700 -25.457590 27.242818 2.094676 -155.128474 -5.400898 63.810731 -51.075520 -18.749941 60.952569 -121.747057 37.352891 14.494212 -2.037543 -105.379055 -93.138205 -35.942493 62.828121 -84.658843 -21.249822 26.054159 -7.837320 46.086179 104.536864 6.232763
on 7614.636190 -4741.123623 -8428.155820 3270.884627 2419.156550 -12154.137827 -6071.478405 3380.132448 4554.874047 2471.399465 -2899.702309 6993.129044 -3971.725846 -24.514250 -3262.332012 4370.877366 5967.431461 -3890.035118 1519.141846 -2185.237689 -4636.154695 -8438.084773 -4209.569171 -2220.885079 8341.138190 -232.603497 -1424.826182 1358.457692 821.508613 -9634.429860 -2819.980892 842.549814 -4335.769089 1565.018991 11801.531439 -11561.482066 7518.286569 7899.802945 -920.489841 -5544.338461 -6278.721448 -1487.382675 6200.946746 -9183.191382 -3104.819721 149.427403 2765.674086 6067.495385 8126.207515 -6169.733962
neighbors 225.324829 -38.336857 -111.117781 -49.810471 32.762329 -245.640429 -21.325460 53.335493 80.672980 -10.018606 -54.027009 87.679487 -148.059705 -57.955366 -10.016187 3.900465 54.723999 -147.395611 52.231433 -97.972627 -124.234260 -141.046410 -59.245498 -50.919770 176.219767 -1.183861 -33.811657 29.195302 2.748884 -192.378594 -10.094153 66.616103 -83.953339 -19.371529 91.290358 -158.218379 61.675160 32.107237 6.925076 -129.609343 -130.058480 -41.337551 95.349704 -116.602311 -25.619588 46.897121 -9.957762 68.131270 132.330064 -1.074280
The 1185.998057 1176.897543 -172.898055 -2314.045759 -1277.107899 -199.635165 -96.732166 1382.921376 -166.530086 2138.228469 -284.446437 -160.813870 -985.405599 -517.947889 -233.972295 330.064554 -291.362555 -284.588139 -1109.186163 -1789.871744 -1782.597224 -606.896652 -193.680808 412.631775 1893.290303 -600.693279 43.817925 172.251574 -421.026579 -1843.546392 850.333891 1556.142970 815.871462 341.174221 1089.035936 -1420.951736 -207.735207 1475.658987 -81.783690 -1517.955086 933.675584 55.116667 1326.287084 -2512.508959 -2056.081937 -548.174524 794.596646 -511.072688 -1115.408164 -251.249983
Dursleys 2623.688589 -812.464020 -1673.976007 -144.083405 613.600866 -3205.200662 -477.899877 505.886984 939.825666 -125.757483 -714.346384 1331.404542 -1574.316777 -575.491712 -207.425259 263.343049 986.821049 -1699.323200 748.920609 -1022.240645 -1359.727822 -1734.592387 -816.300804 -792.040876 2037.666381 -26.595975 -572.464063 455.193399 108.803277 -2331.378751 -292.293980 512.667831 -1052.599635 -84.151877 1493.540864 -2118.211554 1036.580438 577.923464 -146.266661 -1487.004796 -1674.800261 -529.728259 1014.732767 -1475.485759 -295.701438 451.729632 -4.422540 1069.666375 2003.597799 -247.989264
small 1086.819938 -652.113279 -1186.820711 488.463772 253.455252 -1647.276389 -1286.041264 968.251317 744.962649 685.720169 -453.513514 980.625902 -674.726944 89.517068 -759.209895 1023.053051 941.544706 -482.587157 23.635653 -357.503307 -835.292186 -1419.378468 -854.502356 -222.150627 1470.050254 18.190564 -220.064605 100.208848 93.665345 -1601.845328 -468.473091 -47.904731 -861.831829 427.189941 2210.937160 -1882.465838 1366.225940 1696.070701 -60.192888 -974.648545 -861.999231 -243.388015 1293.974410 -1741.078541 -684.859217 90.462532 419.217067 943.524320 1096.470928 -1189.038619
son 476.262299 -75.059410 -284.844839 -121.555972 80.393843 -495.535233 -51.514032 105.263678 107.864277 -15.964478 -139.241825 201.618840 -253.310802 -123.964866 -34.256487 -1.829652 125.647712 -331.262891 85.934313 -231.292405 -277.237451 -245.497915 -122.148766 -108.889533 345.567683 -23.963469 -98.034757 52.798851 9.962610 -392.992858 -27.944779 154.233514 -100.464863 -25.390662 205.711799 -330.095560 122.047121 72.508229 -52.062018 -257.149576 -254.917597 -80.111803 112.491752 -263.558361 -110.480446 74.742325 5.273380 150.534820 302.886330 -3.705869
Dudley 3769.190657 -972.271159 -2369.460349 -715.304136 754.900871 -4176.476023 -295.976072 496.658802 1151.959603 -143.089649 -1047.366706 1837.003021 -1917.359784 -937.005910 -9.057014 -151.977146 1182.660397 -2565.946967 1069.570370 -1632.452480 -1939.222501 -2107.665302 -781.832042 -1068.908833 2788.386571 -79.327882 -741.691725 367.236288 -71.820835 -3022.505338 -338.155351 1069.100954 -962.592871 -241.110680 1472.878825 -2760.177821 1088.038801 551.693992 -369.541913 -1943.189885 -2065.048927 -686.238219 680.299839 -1847.941054 -431.223017 470.150766 0.437485 1263.062765 2731.272715 -89.295855
their 5298.935806 -4599.038067 -5955.307710 2993.477891 1807.443936 -9694.653083 -6022.448397 3994.101756 4649.039850 3155.411188 -1854.909734 5313.934752 -3759.193137 535.349647 -3007.241679 4140.646394 5080.308089 -2181.918928 1461.744585 -1163.067762 -3795.781066 -7832.245346 -3859.103483 -1696.133825 8047.280492 512.576587 -780.939917 671.010910 48.527082 -7678.478444 -2214.258230 -417.846940 -4762.787341 1658.306336 10218.736374 -9876.166983 6773.258185 8461.350510 72.167926 -4819.809633 -4191.946694 -1767.076522 5876.077664 -7798.702523 -2206.475277 15.822511 1999.860794 4755.540221 6002.654149 -5500.350663
opinion 222.106276 -61.942136 -119.925045 -23.132082 27.672583 -295.536473 -57.249812 89.802770 127.805542 8.983794 -50.832950 106.854886 -177.622519 -45.349887 -31.752837 17.434880 73.825118 -143.402846 65.596702 -96.891658 -154.236663 -179.848409 -78.650684 -54.336189 230.039781 1.481148 -31.337627 33.040163 5.199166 -209.763457 -22.374213 58.543020 -110.654656 -12.044597 154.545712 -214.628278 111.291408 97.692974 23.282799 -153.000999 -144.941040 -49.243171 142.750084 -147.901486 -33.499464 39.172063 0.941617 103.005612 144.950358 -39.132345
there 5224.731486 -1913.454598 -3367.441167 -189.733243 1394.043350 -6430.541892 -980.545963 1093.652842 1959.325374 -115.523011 -1423.712027 2749.350597 -3007.205670 -1045.822977 -386.060962 677.334770 2254.948003 -3184.071949 1679.979159 -1984.253525 -2597.039115 -3369.004901 -1733.755073 -1703.967619 4161.809028 158.093566 -1143.697201 649.271020 63.528704 -4629.464596 -694.182193 680.989710 -2234.415773 79.840069 3058.607617 -4346.767508 2175.386602 1534.422365 -441.935988 -3107.641572 -3077.219495 -1227.545770 1775.722059 -2980.811441 -411.003355 822.004119 -215.738683 2013.361510 4227.999598 -468.543920
no 3631.637139 50.215953 -1691.920923 -2546.049035 -122.586571 -2783.285860 265.100858 1073.681413 350.497757 1056.810795 -923.105690 944.711114 -1829.191354 -1365.679235 289.206228 -675.422871 414.582467 -2206.264373 313.358213 -2528.135019 -2451.632179 -1390.676079 -370.964268 -729.990159 3151.767079 -277.141023 -665.974400 172.433535 -563.198330 -2793.717638 391.588542 1796.928226 183.103722 -100.665414 525.037752 -2234.887638 91.783250 777.069678 -510.651460 -2130.264134 -517.466437 -508.081261 270.269276 -2276.799441 -1365.360885 -27.480688 305.259460 231.013581 1065.725554 476.725605
finer 108.044999 -40.754239 -66.117869 -8.835831 32.326499 -129.535855 -1.362659 12.704053 33.509198 -28.129780 -29.267980 54.495430 -57.682659 -30.412596 5.935603 -11.773090 30.216616 -77.876533 45.986000 -48.004968 -51.817105 -50.577857 -24.395229 -43.239674 72.844449 6.489116 -28.340880 10.391031 4.535703 -68.125221 -15.538818 21.401545 -31.682354 -5.367246 23.404968 -66.169193 30.886950 8.765849 -15.811843 -50.583858 -69.007899 -19.040940 9.053593 -34.493360 3.781125 19.091807 -4.947325 38.975025 83.674513 7.310762
boy 1690.948971 -748.875061 -1190.112106 197.302800 559.286379 -2214.723434 -430.616786 379.874715 587.194998 -432.108371 -459.099229 1010.828457 -930.481221 -311.061962 -230.206660 238.858766 748.267634 -1122.344427 584.023275 -709.572916 -794.354315 -1061.132086 -677.286567 -644.216748 1204.262679 71.825218 -476.631814 319.868235 171.561217 -1432.471312 -260.563487 225.437887 -742.471429 136.658595 1135.210675 -1308.250827 757.099354 448.843423 -278.364734 -859.902033 -1244.802694 -311.162804 586.540189 -864.080421 -96.986151 337.253121 -3.654333 785.665791 1464.811372 -196.317355
anywhere 251.481688 31.825493 -103.412205 -187.928622 -22.502807 -162.049712 22.914387 77.452615 8.952125 64.881609 -73.651085 59.797961 -118.768499 -89.451533 15.106194 -15.543439 20.151916 -154.270879 -0.288481 -191.896154 -165.841139 -76.950510 -33.418695 -42.531583 186.826975 -18.358741 -51.825350 12.159259 -32.487395 -204.387114 28.002735 123.659395 10.248410 17.190336 50.605761 -139.357163 -3.838540 39.416620 -42.677007 -156.382107 -40.899079 -29.228147 36.782615 -170.037649 -105.236918 10.631829 4.799836 -3.254573 69.572278 31.698338
everything 921.871499 236.538757 -325.305547 -1026.457309 -228.771074 -501.897035 88.117143 531.059525 -91.742598 554.209637 -232.827967 73.305823 -529.129941 -406.065716 29.087531 -174.436911 -21.783613 -503.279338 -137.556592 -860.453846 -834.299683 -273.140508 -140.157867 -78.970499 957.796374 -130.897868 -165.705389 47.124779 -179.847322 -775.164777 233.339740 614.037679 223.731312 42.964042 137.010606 -570.750921 -71.249331 370.541993 -140.029370 -679.409366 139.480144 -102.869106 158.494332 -842.812575 -639.483356 -77.664323 180.079048 -93.172785 -69.770694 166.782739
wanted 2627.326050 -980.124645 -1912.076784 176.712155 583.773617 -3346.452670 -1154.005038 1086.662182 1201.994855 429.543811 -834.286741 1567.902257 -1610.919286 -316.217066 -622.122169 955.416322 1376.976333 -1498.724042 530.484977 -954.859697 -1518.458680 -2199.897709 -1172.076430 -672.840194 2419.874854 76.660573 -549.038554 330.797869 114.487738 -2825.237124 -550.712791 267.567066 -1451.600202 290.359363 2597.473027 -2836.514277 1692.130702 1592.836748 -73.275451 -1856.609833 -1720.507863 -585.534934 1709.501594 -2304.956162 -607.288591 413.887381 169.654860 1351.047756 2181.879119 -995.380597
but 2751.167499 -638.593624 -1386.437888 -1244.047753 376.833166 -2879.175954 -128.618965 947.581923 631.311614 476.966849 -456.477054 875.180268 -1691.131426 -986.762247 92.648415 -349.693734 719.503512 -1352.165416 695.172379 -1631.686921 -1685.107498 -1346.238032 -615.468898 -904.135098 2720.059606 -87.262295 -590.487592 377.589298 -318.905003 -2152.341734 284.170257 908.997481 -433.312597 68.634817 733.222094 -1808.937073 375.149557 930.973570 -365.623843 -1612.034417 -650.613935 -555.184927 498.564303 -1484.213006 -722.247315 23.194557 171.347113 357.133461 1045.986234 338.257683
also 1005.693948 -400.774712 -710.877978 83.555661 260.740915 -1341.540830 -368.356008 375.983795 462.742686 97.788412 -302.072204 586.462338 -654.196862 -128.020735 -209.796215 312.690656 530.630287 -577.190136 260.128741 -336.549672 -569.802095 -803.794474 -450.087402 -299.981927 913.052514 23.080670 -213.382285 132.974156 66.387484 -1041.085153 -212.354269 69.581132 -572.061660 73.169659 918.108065 -1057.801143 645.426442 527.292941 -26.500378 -711.316720 -663.885552 -244.400031 611.383005 -805.730214 -169.588900 173.984310 17.444228 523.328264 872.487672 -308.183105
secret 755.012078 134.770447 -227.841472 -658.363789 -118.074255 -503.540597 93.401014 319.198959 6.017649 191.558021 -163.472212 71.984176 -470.050599 -315.381844 40.981402 -154.827898 -1.331722 -479.091915 -13.402806 -624.844946 -577.460512 -212.662426 -124.924172 -116.631572 662.590323 -83.517609 -170.228391 81.220907 -94.018490 -593.374169 160.017777 418.863140 43.347497 6.981249 66.856955 -369.269158 -69.113868 93.506909 -89.252508 -486.962788 -70.422912 -102.655163 138.469676 -476.207320 -353.097379 32.178317 17.547351 -40.104928 80.253009 189.809648
greatest 183.035251 22.032335 -65.738760 -123.637034 -20.005534 -123.748271 12.706920 74.627798 7.980185 31.341938 -46.680299 25.413281 -99.775714 -70.078320 -3.049880 -20.134146 8.614928 -116.088386 0.149061 -134.456064 -136.137622 -51.236061 -37.941630 -34.285127 147.737928 -13.241436 -44.305358 9.457336 -11.183715 -130.624918 13.899169 73.865098 4.597641 1.505040 26.979250 -88.838379 5.734677 26.862648 -16.130405 -108.748967 -33.851657 -16.359103 31.897895 -117.768436 -77.832786 19.353015 6.617229 16.608711 36.119322 31.560323
fear 147.546678 -23.788763 -52.718817 -68.380395 4.771469 -146.603677 26.854134 26.704839 61.362156 -0.163561 -31.286075 41.350064 -102.553967 -50.906979 26.175973 -39.862605 13.623060 -105.186284 54.991166 -72.635627 -90.052792 -66.272584 -7.744437 -42.947292 130.717279 5.466539 -30.992177 -0.860333 -18.862536 -89.257486 1.208864 49.309559 -26.824598 -18.527148 -3.565007 -85.469215 24.875579 8.077141 7.905693 -84.122308 -52.181275 -27.455988 18.348104 -53.625110 -2.845555 15.500024 -16.964891 32.163616 71.606562 23.954124
somebody 201.909798 69.829422 -41.572002 -221.432223 -55.901242 -103.547021 22.402357 116.969741 -16.570029 82.575501 -42.072464 -1.342529 -134.920804 -91.383595 7.721070 -36.972420 -16.444829 -123.209992 -32.390324 -195.412875 -177.982050 -49.559632 -35.172202 -16.116298 192.678252 -23.593708 -46.079701 20.644969 -32.267186 -173.214147 62.025629 130.612018 30.592934 16.026821 20.357140 -93.560550 -38.100361 41.701523 -24.963103 -146.854047 11.577553 -26.074261 47.718884 -156.806947 -124.754390 4.752836 9.068318 -38.242339 -20.964958 55.321375
would 5712.926648 -2389.721166 -4315.379546 535.810381 1361.702448 -7568.893237 -2483.317033 2194.620764 2764.605724 953.532184 -1809.145636 3624.387448 -3491.312549 -659.541000 -1274.734295 2062.797699 3143.008192 -3270.215628 1328.680496 -1994.898060 -3180.530180 -4888.315303 -2483.722929 -1577.626300 5354.234508 206.741583 -1102.086376 641.294538 183.434451 -6187.716369 -1268.064021 537.537747 -3210.512496 551.038044 5646.129218 -6381.549269 3753.513392 3540.991388 -212.184389 -4052.684806 -3727.244902 -1348.865493 3580.695164 -4973.625760 -1169.263302 811.864286 371.225095 3008.274371 5003.009445 -2190.454740
discover 98.783203 17.246031 -24.511447 -73.479623 -19.202733 -76.278786 17.573973 36.118353 17.931342 13.997763 -16.743984 12.337236 -62.408761 -38.246110 8.599402 -13.497009 -0.894503 -49.779342 6.376875 -80.035909 -73.168282 -29.593023 -14.265716 -14.222321 85.081572 -8.934142 -16.988148 16.508308 -8.490652 -79.444103 24.930280 54.134635 3.469498 8.708741 18.122702 -49.862367 -7.147690 17.657716 -7.807289 -64.273071 -17.084228 -9.135417 35.215172 -63.187343 -42.244734 1.783885 2.706663 -3.701380 8.458513 21.124608
it 14631.089286 12648.802396 -2271.307742 -32152.355031 -12549.563418 2929.312291 -932.987033 19849.709314 -8412.620842 27309.589835 -3593.124897 -4984.902667 -8511.979977 -8390.886975 -2131.339943 1770.860057 -2523.763921 -2260.730409 -14159.418674 -23955.912255 -20246.594644 -1897.628478 -2969.431417 3001.612465 22802.484599 -4263.514134 -2899.144758 -433.157609 -7616.458746 -17463.358067 10369.130011 15004.177477 12217.762693 6823.311648 6717.833668 -11757.172915 -5423.671687 18757.920092 -5198.288052 -17403.035768 17521.411253 202.056948 6828.276076 -28206.554834 -25674.551252 -7079.117759 8736.790610 -9621.909387 -16440.744411 1546.924370
think 3753.866242 2234.778500 -513.863445 -5641.498092 -1881.865169 -826.629861 1076.835222 2338.747202 -949.233803 3004.436827 -834.794059 -564.128044 -2178.817431 -1848.027010 315.562078 -622.340267 -636.999665 -1841.833082 -1469.761260 -4265.507851 -3658.312485 -369.303064 -235.041700 88.854613 3630.656504 -837.869634 -749.563428 168.236763 -1038.018683 -3323.063199 1694.647470 2982.621648 1703.414345 387.815183 75.796473 -1835.822021 -1205.836312 1053.946136 -676.684219 -3102.149214 1634.578407 -119.155819 802.287114 -3844.175371 -3379.585503 -552.450431 632.544207 -1267.545534 -1513.207395 1220.555051
could 6644.015323 2240.212865 -1594.959650 -8025.846505 -1771.136239 -2792.319751 1594.060705 3251.094692 -1134.430184 3536.348137 -1366.402664 -269.766906 -3657.483542 -3219.673041 693.910608 -1698.882464 -502.775987 -3575.463668 -1066.501259 -6510.936271 -5568.006864 -849.319167 -545.535981 -744.613475 6092.637523 -1033.051149 -1593.533899 346.922409 -1575.156870 -4983.281907 2267.125031 4262.623919 2048.316121 365.556117 -439.582367 -2817.956036 -1649.502358 1192.005553 -1315.808960 -4605.423293 1582.719047 -566.566381 285.664240 -4977.400816 -4390.815921 -513.973533 663.806896 -1469.840926 -1002.915689 2413.222692
bear 135.065599 19.816831 -45.251330 -100.067760 -20.169213 -100.660314 28.937646 36.613295 -5.030862 15.366632 -38.593945 26.837339 -61.509229 -49.181623 10.613456 -30.626532 1.840343 -85.187057 10.896347 -100.114446 -103.439143 -36.985896 -24.011699 -22.848411 108.051465 -19.032293 -34.909127 23.946539 0.511873 -97.006352 17.413762 74.222239 19.992575 7.993303 14.168814 -69.044260 -4.426908 7.350533 -24.556907 -85.094548 -27.274659 -12.389480 13.367880 -89.427909 -62.445463 2.879764 11.495498 6.660333 29.798546 20.807758
if 4273.331675 1318.977831 -1354.435874 -5372.549105 -1211.496470 -1700.934626 1001.777548 2050.137881 -654.426706 2880.263508 -1009.368819 74.183170 -2078.272633 -2182.260944 721.751504 -1449.012878 -336.121518 -2241.921253 -598.899699 -4195.380484 -3624.908463 -765.235685 27.667014 -431.763673 4339.823208 -565.392121 -824.750342 -30.711783 -1278.580020 -3106.220992 1349.930842 3108.030012 1734.772283 77.538363 -507.953405 -2111.103227 -1070.989599 1301.673408 -834.040294 -2894.179368 1306.765084 -364.006708 -250.787335 -3398.417485 -2903.936977 -694.060746 854.393963 -969.224826 -770.073623 1259.364412
anyone 900.666663 123.373421 -281.160916 -828.888736 -88.928497 -534.814698 148.623453 351.817376 -62.007493 284.607975 -213.163446 83.900590 -456.594598 -383.121235 92.470096 -286.074598 -12.718438 -558.586050 58.415051 -725.150156 -704.931956 -212.467252 -108.167636 -151.331052 817.536962 -77.015141 -210.816526 17.993062 -159.920601 -607.024152 174.029365 467.696087 153.982801 -3.132153 -73.586085 -397.610802 -131.630824 140.618533 -144.785831 -537.918623 20.753476 -143.385701 -88.912223 -535.767290 -411.026257 17.360335 39.294955 -89.018441 101.988279 293.319789
found 1822.755154 260.254177 -647.710525 -1621.115335 -163.453277 -1084.550293 415.588711 502.257928 -108.700054 473.689302 -469.729176 277.951273 -806.720714 -793.124351 299.856443 -659.215294 -33.959510 -1149.158585 174.429235 -1375.168962 -1266.073265 -409.980643 -97.755198 -344.335061 1515.072775 -179.124625 -400.392322 44.915908 -305.339443 -1186.507774 284.385648 1021.342841 348.988005 -93.692570 -267.120141 -765.957305 -274.826180 54.447857 -300.288379 -1020.116657 -50.300449 -274.779876 -238.030538 -951.522566 -734.724942 12.726582 66.820973 -147.992874 309.495207 541.972971
out 7501.846557 2243.661131 -2278.519851 -9257.763881 -1862.071401 -2937.724767 1408.914477 3846.935886 -1424.044274 4744.677474 -1718.914888 -33.243465 -3687.793390 -3832.467159 923.513940 -2364.792103 -519.580128 -3865.661735 -1095.468360 -7349.952139 -6376.211175 -1166.326526 -394.742147 -848.140110 7498.965509 -989.651858 -1628.791822 53.917125 -2103.815165 -5424.087183 2353.430090 5097.052767 2779.253810 339.224220 -745.661460 -3408.601112 -1942.961280 2229.619288 -1602.212065 -5075.861204 2199.892222 -756.138178 -395.176626 -5842.756178 -5216.731629 -922.538525 1266.695811 -1817.499556 -1349.324823 2408.542721
about 5994.315057 786.129310 -1762.807475 -5062.485707 -298.902123 -3866.577314 1429.999042 1557.218779 -284.571888 600.422625 -1298.622773 540.079350 -3047.874722 -2769.611601 976.716902 -2358.096777 -222.693057 -3707.412192 763.251783 -4443.643873 -4153.685581 -1165.623993 -579.179540 -1353.432447 4726.749215 -560.680295 -1489.800318 656.016232 -767.093351 -3717.249057 1159.674443 3127.117324 806.837142 -274.764934 -1020.137171 -1892.626194 -1303.619987 -465.062113 -885.042599 -3241.046456 -641.291271 -880.532871 -406.193340 -2478.006958 -2087.723295 373.956922 -175.857194 -579.852498 828.407406 2300.686630
Potters 446.890081 -9.073753 -157.958097 -156.190744 68.306535 -390.888630 54.721807 64.437865 25.979376 -159.597384 -121.947481 105.591035 -212.799173 -144.105870 14.051363 -91.635151 52.740352 -307.585216 118.569555 -231.813270 -229.172528 -129.831072 -123.994081 -119.829194 243.262824 -22.355284 -129.058815 78.526419 45.307893 -295.748067 -11.284124 132.642207 -82.160403 -2.809962 48.551348 -134.855036 -11.145342 -111.749192 -59.898431 -212.039303 -236.174029 -80.767148 45.878389 -119.188179 -55.115614 125.422641 -83.184305 40.069335 219.194063 113.198825
sister 337.747879 19.266090 -95.231960 -200.033572 27.542579 -241.799593 64.527842 46.943859 -0.157517 -70.812934 -79.392971 50.607976 -161.651660 -136.887488 49.922860 -133.768795 -7.630012 -231.382720 84.617013 -198.644816 -191.085043 -66.892043 -46.075436 -92.292432 211.640024 -26.762237 -83.720593 44.006099 -3.168642 -189.859131 26.563578 136.322174 -5.862699 -31.187786 -52.041534 -72.002111 -64.906109 -96.701672 -40.930610 -148.343614 -107.634206 -66.787386 -30.441896 -68.374561 -58.657186 75.977492 -56.065382 -18.356306 108.324057 129.881140
hadnt 1940.364001 -3.508793 -664.574452 -908.358746 239.383452 -1644.657795 294.797395 287.350627 1.725022 -596.228643 -464.722557 423.258988 -975.301156 -702.859758 170.101734 -626.610795 117.142555 -1424.694989 483.957639 -1112.039620 -1092.378714 -503.895551 -429.796830 -536.828714 1156.101671 -149.444038 -542.364048 356.754287 67.183982 -1222.465473 62.304501 753.270106 -227.448624 -115.788146 -69.701069 -567.563982 -182.864536 -571.698928 -272.417169 -890.961329 -901.849685 -392.367246 10.072702 -445.626775 -307.562595 477.032222 -322.462644 90.123003 905.204675 610.061798
met 658.846539 138.706425 -175.084970 -598.247091 -73.779126 -358.994237 134.135141 228.552745 -81.376447 105.040924 -158.462297 39.440805 -313.762335 -283.444519 65.105902 -216.056405 -27.958779 -412.059154 17.078646 -528.551338 -490.952105 -116.822375 -88.723936 -121.667837 514.850538 -81.312884 -171.425269 58.545904 -80.391056 -435.163794 127.512078 337.386115 116.969081 2.696264 -60.278062 -219.487166 -140.013072 -16.391439 -115.141230 -370.925992 -35.172541 -89.264025 -27.732974 -347.835897 -297.337944 47.679441 -11.217309 -73.693458 65.288477 234.156028
for 3327.010768 858.488473 -1302.775942 -4124.585911 -766.209684 -1132.821936 508.232416 1684.850557 -701.198373 2303.453394 -892.286498 140.265712 -1380.919742 -1747.098311 526.320234 -1270.712525 -211.021207 -1757.393834 -501.594533 -3250.570643 -2856.067116 -554.769858 40.617796 -366.262828 3412.132607 -337.498021 -663.340263 -187.473777 -1075.635678 -2263.471915 890.040989 2426.391134 1530.098612 66.175766 -406.465853 -1645.750405 -872.907931 1310.018382 -765.690972 -2142.837142 1082.286567 -314.872340 -560.114537 -2695.468924 -2341.940522 -561.317609 807.414458 -794.618111 -581.339564 883.301298
several 533.906589 93.515378 -122.892816 -416.011859 -19.109145 -351.197741 121.990446 129.844509 -45.034551 -53.911054 -118.296177 40.987534 -274.471567 -236.159537 60.906934 -213.018812 -36.013328 -364.732270 66.786281 -386.998528 -349.856104 -98.056346 -83.569075 -114.709156 370.462815 -58.542478 -132.779236 90.519362 -30.496639 -330.725090 86.821518 283.353241 29.165702 -25.803829 -93.682680 -115.885064 -142.069856 -137.198253 -80.724022 -263.017924 -136.735605 -86.159697 -1.814814 -160.175946 -180.765278 89.287193 -60.453224 -63.048671 93.271676 218.046740
years 1702.286074 123.165931 -500.967483 -1036.292366 83.360565 -1305.541592 432.810617 203.033738 15.702450 -355.120295 -389.642930 266.005084 -844.383892 -702.039358 265.607551 -625.179581 1.243415 -1150.714158 409.693433 -1058.215669 -978.484173 -350.464473 -228.655735 -448.481432 1055.621769 -144.328597 -431.082559 285.828671 -33.113140 -1030.399964 176.321661 740.439547 -7.201967 -116.022858 -258.365522 -415.242371 -322.197030 -524.875303 -227.436103 -790.307187 -597.256466 -274.100858 -58.035406 -385.877647 -322.725295 305.745760 -249.829121 -32.976115 566.933711 644.522951
fact 607.587145 -58.243340 -240.149118 -173.510791 116.670503 -580.317292 83.693596 54.115196 77.443527 -186.450096 -162.779915 196.227772 -294.036651 -176.928171 34.199551 -93.583865 103.294205 -422.712905 197.270554 -254.729612 -297.563879 -182.395210 -153.448747 -191.754342 319.676668 -34.150443 -170.299603 83.811878 48.429605 -414.501403 -34.592798 128.486970 -146.633858 -33.142238 64.734636 -248.852953 52.630505 -153.151636 -72.428036 -305.268342 -340.453815 -122.627932 46.763135 -172.375816 -32.825204 168.155934 -132.105850 123.096158 411.334167 135.983850
pretended 192.385031 60.134270 -40.141387 -190.560425 -36.069189 -87.698360 38.493531 72.183627 -35.733622 43.471867 -46.730095 -0.680852 -92.519489 -85.163649 12.698876 -51.948222 -11.706457 -118.164633 -14.027232 -166.635230 -151.105343 -30.196957 -29.552764 -21.760904 141.106659 -26.873616 -49.382027 14.871921 -22.441137 -138.435461 47.461057 112.770319 41.935396 7.822893 -5.914411 -64.191771 -55.777627 -2.579242 -36.499652 -117.176679 1.712804 -24.105170 5.633826 -119.548976 -104.729417 14.484014 -1.385606 -33.868467 -0.569485 66.480399
goodfornothing 64.980964 1.610041 -10.978798 -23.228535 9.146629 -67.859290 17.180476 0.115163 16.202315 -33.122239 -9.321472 13.682958 -38.712447 -22.092802 6.379641 -16.808108 3.471087 -44.530642 26.204645 -32.212577 -32.030088 -20.535267 -16.452072 -20.244075 33.703925 -9.068459 -16.612245 16.590811 3.336945 -45.308474 6.205235 16.987934 -17.617865 -5.623944 -3.616114 -15.444551 -6.958879 -32.273454 -4.203891 -25.829832 -40.509797 -14.249656 6.080616 -1.227697 -1.516551 22.263051 -22.706949 6.528764 36.923832 29.729323
husband 71.766460 -6.564241 -24.479384 -10.704438 13.453704 -65.407647 10.720802 -3.075845 14.354211 -36.651680 -18.587146 24.369101 -28.154017 -15.942313 2.437778 -6.365612 10.995961 -49.088088 24.615868 -29.797934 -32.895347 -25.990971 -19.034525 -22.281705 29.647651 -5.713451 -23.571052 13.477242 6.431501 -46.629065 -5.719545 10.724544 -18.969721 -2.088784 13.302900 -20.773647 5.834052 -25.174960 -8.101279 -30.031622 -51.077365 -9.694377 7.493635 -16.185184 0.809576 25.298311 -18.109952 16.934633 52.537411 14.806064
unDursleyish 106.380046 7.202464 -29.796254 -54.558493 5.196441 -82.909386 19.923199 15.840049 4.277609 -20.959069 -23.442750 20.911882 -48.526247 -36.386646 5.962041 -5.780969 8.805909 -56.837963 19.817803 -66.971872 -54.208074 -31.409103 -26.259498 -30.518264 61.502813 -12.052634 -32.858518 24.135568 -1.721286 -80.174177 13.357453 29.252536 -16.163985 10.789717 14.010053 -30.664291 -6.441062 -21.680746 -17.336924 -59.108616 -41.001069 -15.959146 25.161018 -40.751725 -26.287329 21.549680 -19.845300 0.735331 44.606902 28.122275
possible 433.864417 -52.969912 -202.487873 -94.801494 70.621863 -412.248339 21.711586 36.216509 64.791724 -129.199550 -134.582268 174.098940 -185.184816 -110.690397 12.376751 -28.631122 91.651417 -315.183741 121.931310 -194.552613 -204.021512 -158.001881 -108.907669 -127.290440 224.458545 -13.911998 -116.077496 52.500618 27.647502 -315.950199 -47.296787 104.375046 -106.326166 -9.305985 100.276757 -202.857833 58.694256 -64.766957 -63.030097 -210.457945 -266.609308 -78.178326 51.733765 -154.641119 -34.121607 114.097214 -75.089006 96.400491 317.017879 45.567482
shuddered 156.584974 13.316017 -29.778302 -99.005252 8.876354 -112.499235 39.154418 29.794891 0.200341 -45.834442 -26.924834 10.878630 -87.372220 -63.703394 23.929602 -67.155778 -8.566241 -111.533189 40.318240 -101.004891 -96.734420 -32.773051 -29.088542 -42.324928 96.304623 -11.566925 -44.680853 27.184310 -5.801121 -85.148071 24.172497 64.392330 -9.144173 -12.567612 -34.361394 -20.927770 -38.456846 -56.652404 -14.794322 -64.696598 -53.439352 -31.015944 -11.855400 -22.729197 -21.507596 36.981978 -32.410577 -8.999310 43.610062 75.724229
what 5988.739585 1012.418871 -1750.601566 -5197.965163 -374.076820 -3540.451635 1389.026948 1613.529343 -478.242425 672.975732 -1351.074625 416.985576 -2886.889307 -2756.144513 887.663005 -2233.888690 -228.900122 -3667.158146 498.993332 -4535.312080 -4169.621350 -1023.805924 -607.636987 -1224.366802 4506.215950 -597.285949 -1533.800922 596.881065 -750.164972 -3743.880271 1138.762608 3108.964263 953.688519 -157.117395 -862.967975 -1850.940476 -1387.820581 -484.988418 -957.448971 -3244.049784 -558.955637 -778.809706 -378.433854 -2665.051788 -2317.390694 401.473514 -136.219232 -655.922491 692.328557 2231.698819
arrived 242.822637 162.618534 -6.849572 -295.070357 -107.768248 -72.145631 125.016198 96.511289 -67.900704 55.155110 -83.237960 -24.308794 -136.809163 -99.380150 17.128904 -16.343264 -56.517105 -164.033156 -55.573593 -218.740628 -216.173613 -1.794221 -41.328690 3.376273 130.086492 -56.354148 -61.234953 16.386556 3.034280 -210.961688 59.793743 154.813784 54.327151 10.230111 11.494734 -72.527211 -54.058520 -56.368661 -26.355019 -202.884321 -8.825672 -14.488200 78.447191 -200.194923 -138.913809 39.701717 -47.175571 -51.885252 -1.740628 96.416883
street 573.685851 -59.585969 -214.122548 -155.566729 109.778320 -530.406941 81.857388 16.459598 83.152624 -218.888403 -150.307436 181.322176 -245.282429 -183.372037 53.311236 -150.049501 64.920559 -384.820195 225.256371 -250.299050 -274.638737 -188.575360 -123.012354 -196.735937 324.611368 -22.891983 -151.482738 88.846327 31.996687 -350.730701 -24.178799 150.774920 -106.940067 -41.197938 -5.794241 -166.530932 -11.501133 -166.112466 -65.220880 -236.985479 -330.395370 -116.604658 -4.423884 -98.362862 -10.735594 152.732569 -124.643774 72.848222 342.449974 154.707306
knew 1523.606679 39.451388 -436.675125 -867.710836 136.530833 -1166.825294 391.584339 127.414654 35.956102 -378.718938 -332.205036 241.429732 -715.898584 -615.888548 256.067699 -664.184508 -7.116313 -1034.264317 457.986349 -870.716200 -877.303582 -338.618539 -205.707944 -458.907038 947.250048 -102.714616 -421.073740 239.794571 -31.047956 -813.359913 128.674725 562.166845 -28.835260 -144.487222 -313.120468 -329.418349 -273.135782 -489.690057 -184.327332 -652.456241 -566.402292 -266.939917 -180.814419 -281.061566 -195.257538 302.517742 -257.072083 6.104250 562.484878 615.388811
too 2130.634715 283.785698 -641.571627 -1777.513908 -80.173658 -1217.610361 550.428242 437.438955 -145.134582 140.924736 -517.157041 184.863676 -934.886446 -980.527407 412.259674 -988.600262 -139.879394 -1360.459354 307.992293 -1548.135856 -1451.684047 -362.334874 -111.436937 -492.639452 1575.826805 -170.140205 -530.823748 140.230487 -302.090913 -1168.513076 350.233624 1096.441388 401.353254 -144.829090 -505.187180 -573.759873 -553.878849 -247.594525 -314.053713 -1030.443890 -250.820876 -282.609277 -386.820025 -783.855778 -668.322781 162.748001 -81.943956 -214.881882 318.677297 843.022694
never 2150.880515 284.786106 -701.476482 -1702.762774 -45.433855 -1282.137106 640.908556 281.871326 -125.431198 -5.260331 -520.218655 234.480835 -902.383056 -984.916537 459.449036 -998.154804 -93.426712 -1460.191077 332.805101 -1473.565286 -1380.615811 -328.179314 -41.976588 -494.787335 1401.373266 -189.514940 -534.336824 143.500390 -254.463255 -1164.577124 300.050313 1102.436881 384.394221 -230.664560 -542.101036 -574.949805 -537.300590 -449.853431 -319.159431 -986.491558 -368.796243 -262.645363 -431.064129 -686.825447 -576.433728 197.442391 -104.431871 -142.663497 460.782648 874.227964
even 2186.666475 624.191742 -597.732671 -2512.343723 -455.546254 -865.230383 420.212710 1007.818744 -426.867687 1003.743779 -509.042155 -23.579385 -1031.330450 -1075.416156 287.388827 -797.755797 -181.912889 -1211.776491 -201.964953 -2042.350923 -1844.747431 -336.530757 -158.299825 -291.792265 1995.044472 -263.977594 -525.534552 63.932948 -509.452700 -1489.173105 616.900522 1401.450400 742.297002 86.885410 -233.570491 -854.464424 -637.748008 411.392700 -429.437804 -1384.030357 424.520467 -243.912966 -180.626866 -1540.140813 -1360.560178 -118.289067 237.365517 -502.308518 -282.637262 751.121639
seen 1739.903969 -156.721006 -789.068880 -414.994041 324.433589 -1706.468131 148.849105 131.593487 238.050821 -740.589089 -540.772635 676.687331 -789.981720 -489.835651 70.419214 -374.467063 253.148296 -1342.287817 560.843448 -789.938940 -882.459299 -667.065331 -452.670397 -515.616772 945.483455 -92.115382 -463.066374 320.046029 176.759387 -1196.266275 -197.125606 536.437698 -396.832832 -93.204420 279.355010 -706.818137 163.603603 -470.362815 -217.115757 -750.328193 -1177.643918 -333.910634 165.712341 -457.063627 -112.472587 491.438100 -299.503808 412.206549 1227.558847 243.623606
him 10677.704422 -4359.666843 -6743.757685 -381.540113 2330.804709 -14315.591346 -2635.830878 2725.576908 5304.049232 1736.736990 -2629.468627 5912.487496 -7096.762619 -1945.564609 -653.730580 1542.945188 4941.195376 -5656.535132 3849.997886 -3564.553474 -5833.951233 -8587.455190 -3556.032505 -3418.934832 10518.402670 182.936221 -1680.036504 1514.768044 -205.658190 -10414.484579 -1168.787447 1600.432242 -5192.582763 20.691122 7338.298895 -10812.935007 5145.207804 4980.920757 56.037080 -7447.316884 -5808.161290 -3054.371645 5146.976799 -7491.376378 -1243.759464 1080.701416 128.685455 4213.053666 8163.473295 -2019.143993
This 1367.891273 -580.665783 -1415.209950 177.129558 307.043306 -1687.758107 -960.136603 709.187683 542.309149 575.148076 -626.104196 1146.401466 -511.282537 -23.057646 -553.560833 765.419571 908.741748 -843.525186 57.602253 -547.718811 -857.788653 -1311.344226 -672.968250 -230.054190 1346.367525 3.297648 -290.595979 20.169017 29.063913 -1690.102072 -482.214448 215.035105 -606.287717 326.689171 1913.933830 -1891.830171 1157.389205 1367.996059 -249.595066 -1012.440868 -889.342131 -257.247644 835.380185 -1719.475138 -652.270329 61.068975 382.112342 866.781465 1348.053163 -1017.850252
another 2076.162886 -1078.080125 -2054.543284 368.632796 535.514579 -2900.760002 -1400.392003 1053.014249 1005.958705 844.398904 -825.812296 1707.718470 -1080.495513 -117.698482 -705.090070 1007.754729 1401.833811 -1165.009251 344.897056 -781.090928 -1326.501126 -2081.051500 -1024.987535 -549.996203 2304.888406 39.107409 -405.511549 182.189743 57.835030 -2507.208755 -641.502515 282.183856 -1052.893834 384.400037 2727.575174 -2880.602110 1769.916816 2077.740650 -248.655498 -1568.637514 -1320.179116 -488.555414 1359.252538 -2433.627515 -798.019666 50.933087 585.583422 1320.179335 1975.919606 -1382.571008
good 668.972787 -108.449758 -175.275996 -225.291723 150.574319 -652.065531 189.462404 -67.576063 243.505500 -201.594725 -171.104161 208.209268 -376.455880 -185.383989 180.354052 -261.018314 32.061439 -547.302730 378.701343 -172.501364 -319.336524 -321.390795 -52.490378 -194.442514 420.265848 56.693471 -119.734340 17.886138 -26.430323 -380.834905 -62.101131 102.738120 -277.865995 -191.744258 -119.568029 -289.746460 35.863051 -207.577104 103.982476 -339.661260 -398.346508 -224.817389 -33.189874 -66.363883 187.531945 223.969041 -270.896920 112.172592 497.155487 217.031394
reason 993.038849 -78.361302 -243.571875 -318.027239 179.366912 -991.364898 284.345418 -15.258014 166.843211 -477.241531 -191.267689 226.139650 -614.390760 -330.742081 166.818140 -315.691576 79.782945 -713.823786 423.805341 -446.085872 -463.490370 -261.449582 -201.671561 -373.623598 516.081923 -51.784776 -258.942163 221.190807 66.059109 -583.263333 19.011046 240.574833 -286.854088 -138.818194 -150.994721 -251.070486 -60.396656 -492.013538 -48.880014 -443.334643 -569.355399 -242.343691 53.337480 -36.308698 81.276713 322.034038 -332.083404 111.033022 608.862679 421.272995
keeping 489.409918 -65.057901 -162.568822 -111.475562 82.578088 -512.633557 56.468069 50.474970 96.292840 -172.159237 -117.112314 149.576912 -288.073000 -129.643736 35.574327 -81.380305 90.723061 -346.091508 186.957274 -212.959437 -236.152930 -192.592729 -139.634144 -170.674979 302.536966 -12.450176 -128.906028 95.761070 41.328951 -346.068814 -20.765939 99.719113 -176.447151 -19.884795 56.426537 -207.425378 42.251015 -125.606130 -35.138135 -251.114513 -287.724372 -124.576208 84.835887 -115.039432 1.682444 151.355332 -130.198058 83.359892 328.983886 116.602051
away 1196.676143 359.297585 -305.164273 -1441.067113 -236.704003 -464.808587 358.846936 412.629647 -190.034420 503.077109 -260.060373 -26.810398 -551.063149 -624.730055 259.690908 -548.814541 -166.793789 -686.868150 -55.706529 -1072.081715 -940.528742 -147.756273 16.666500 -163.910166 1049.646682 -145.817098 -245.235728 10.049410 -310.182061 -744.702136 357.365206 786.616527 410.499241 -38.260876 -321.384565 -410.642570 -422.096474 69.359557 -184.312291 -721.394995 202.754497 -140.453759 -176.822107 -680.211314 -649.042772 -70.795696 70.268054 -317.884103 -138.988386 507.706168
want 2224.996248 -101.230545 -640.581122 -812.452191 379.694790 -2044.001961 614.599376 25.190059 265.425049 -1030.849949 -489.317607 511.043060 -1178.296070 -778.741671 350.181756 -758.004860 147.430747 -1636.205370 855.298865 -1054.119735 -1061.234400 -562.444932 -411.424959 -763.989019 1120.284354 -94.277562 -629.957249 429.945051 123.840137 -1238.250816 30.497478 597.570986 -453.668295 -238.341733 -317.869028 -492.845919 -170.766286 -1035.648099 -208.854533 -922.757326 -1228.873662 -433.122300 -38.219267 -157.733575 64.215596 655.793761 -620.422011 237.573263 1268.008908 863.020805
mixing 92.171762 46.320583 -4.170596 -133.167473 -37.006818 -20.020223 29.119449 50.360842 -16.914312 59.112684 -17.409756 -14.944564 -52.913096 -49.652937 11.813813 -26.672279 -21.284321 -40.534580 -21.971986 -99.768509 -82.427455 -5.598471 -3.015602 -6.374690 85.260125 -15.279797 -23.799639 2.371054 -28.218628 -69.226442 38.470556 56.491634 38.200561 8.013844 -13.667933 -23.552984 -34.918557 16.795811 -12.917084 -67.857829 34.659449 -5.824005 6.830093 -71.907112 -68.865865 -10.114908 4.854229 -35.936653 -35.383152 41.115834
child 103.965334 -23.076621 -89.757516 11.936548 20.073602 -127.834611 -53.107487 35.610639 39.256862 3.575843 -43.777012 77.293517 -41.436610 -9.006818 -37.018773 32.385618 45.070753 -71.953125 10.874507 -40.146120 -63.287887 -81.788719 -43.396313 -19.006107 81.276703 -12.333144 -20.988742 12.907327 13.292203 -110.798510 -30.020958 24.823312 -30.223277 8.258750 116.390281 -107.802275 67.161341 51.463787 -19.326600 -59.078663 -83.444112 -11.010151 52.079361 -93.517329 -44.688141 14.649401 21.729776 64.436378 92.633497 -55.760066
like 5815.977776 -2692.545982 -5373.874168 999.400314 1673.012434 -7649.740816 -3163.002800 2275.317851 2292.064635 575.912701 -2322.872518 4538.740135 -2409.100701 -411.431183 -1726.706832 2230.104034 3555.515712 -3680.915064 1206.970807 -2332.246677 -3248.338363 -4890.561001 -2791.225969 -1641.850911 5222.752860 95.432680 -1436.356216 595.096118 338.737848 -6362.610663 -1881.024722 796.321714 -2694.022118 1141.201252 6506.492793 -6591.622728 4172.328742 3984.007805 -1185.484049 -3661.919628 -4173.595298 -1220.717613 2835.668083 -5421.919144 -1732.520034 590.409854 915.840890 3391.764804 5900.930477 -3004.443589
When 468.601608 87.522765 -101.719584 -452.220520 -33.254760 -227.971055 163.764713 137.525977 -68.016705 11.152568 -127.177758 3.170386 -199.280289 -208.264502 83.756711 -253.454810 -60.335462 -344.506656 76.186923 -359.906516 -365.313790 -40.021719 -43.428140 -99.923882 349.266214 -24.785959 -141.463944 11.228613 -65.706954 -240.789259 75.950223 224.276373 97.794468 -9.627460 -141.788562 -96.779731 -132.259195 -64.057549 -72.584388 -246.899227 -34.334359 -63.398153 -115.027693 -190.647480 -137.257486 58.629126 -56.000321 -79.137980 51.604772 228.236057
woke 394.451512 246.508332 -52.005732 -579.185349 -177.149974 -68.098363 100.190390 255.370398 -138.151180 266.757566 -107.115167 -65.737836 -207.765110 -191.605602 -0.274852 -61.991824 -70.380247 -205.258536 -160.405964 -437.513172 -390.618381 -24.171511 -63.934881 20.757080 352.301138 -89.443663 -91.977680 15.370383 -83.651672 -339.073243 155.304361 298.756019 177.374711 43.478422 27.287060 -159.285238 -130.845939 89.722786 -82.619087 -316.258811 144.158929 -17.498430 74.023104 -393.141235 -360.985744 -24.008477 48.095677 -131.831125 -146.986272 135.796056
up 10174.695837 -6396.029605 -9156.705103 2124.507846 3305.446721 -15022.796398 -5199.126642 3495.067844 6050.549979 1922.958291 -3510.705710 8330.785082 -5268.649440 -536.289319 -2053.817625 3295.329584 6830.028068 -5938.861709 3818.536261 -3114.501845 -5381.606590 -9810.223658 -4299.065428 -3435.251636 10764.401591 1031.139372 -1831.800143 511.719682 -359.658850 -10836.469271 -3265.654226 638.436948 -5959.064338 1461.737175 10604.205956 -12822.831469 7904.671803 8109.730512 -1008.500376 -7051.476065 -6745.634291 -3010.455043 4778.267679 -9032.300712 -1382.601786 476.728585 1155.846595 6066.168368 10869.459540 -5072.977615
dull 29.695736 3.407887 -5.606839 -17.286774 1.518489 -16.412518 21.433180 -6.993000 -0.005803 -17.130713 -9.842258 7.377268 -5.097441 -12.211918 12.789913 -19.331155 -6.328305 -29.068273 13.439384 -12.325195 -12.758477 2.703383 4.296199 -7.151913 7.775328 1.604492 -7.031339 -2.358044 0.277383 -6.480041 -2.573316 11.765907 4.070855 -6.879881 -23.090215 3.745433 -9.149566 -19.505894 -2.998862 -10.611313 -14.317679 -2.187030 -16.800541 6.380944 7.413371 9.543924 -12.709241 -1.232795 16.032755 20.328405
gray 343.553345 16.532370 -76.689302 -211.640085 -1.003736 -236.523162 100.467150 29.995297 35.209534 -51.652452 -79.714413 61.114532 -167.654562 -121.004640 61.251997 -112.054245 -3.556172 -254.939941 94.039070 -215.626709 -195.712637 -66.736283 -31.012828 -98.678720 204.188153 -14.065336 -86.604768 23.718727 -34.992914 -189.876002 36.314757 115.554383 -8.909513 -25.807920 -77.905316 -80.489173 -66.258357 -91.970352 -44.759310 -158.578560 -103.472005 -52.375414 -52.310172 -73.705408 -33.440178 67.120548 -82.178934 -6.917479 141.738691 147.761157
Tuesday 128.322095 -37.487397 -91.755638 7.762085 43.772542 -141.181946 -23.394597 9.588535 32.006192 -25.991818 -43.932695 79.970982 -44.462503 -18.964811 -16.433161 5.185411 51.544639 -92.587464 40.523513 -36.466919 -56.273344 -71.456154 -39.019944 -37.302841 75.440508 -5.319366 -32.488069 11.045677 10.964434 -101.477934 -34.143617 17.687977 -45.748212 -2.048134 71.043865 -88.831830 48.530359 12.100622 -23.393485 -58.899978 -96.596753 -26.874160 16.143246 -57.980885 -12.716614 31.072849 -10.093313 53.373622 123.904402 -18.684110
our 1325.700036 44.243175 -193.350941 -833.176845 71.853631 -1072.847404 594.794331 41.136215 76.742069 -487.154008 -226.806817 136.991197 -752.133128 -547.294339 352.253355 -654.054850 -72.093822 -969.528709 503.786184 -801.253404 -711.646514 -139.323993 -140.511267 -479.716497 764.490475 -53.541337 -368.418033 248.589617 -32.987143 -614.150186 183.174168 455.507770 -89.798565 -135.421780 -564.260883 -116.580195 -339.015704 -660.288461 -152.733386 -587.607119 -440.153439 -240.454869 -203.679264 -19.060875 -2.996290 305.230616 -404.788949 -67.860589 492.497197 773.078710
story 424.802179 6.070213 -111.942527 -177.982696 44.944999 -370.724701 150.710507 -14.940979 47.306218 -193.995229 -91.017859 87.697924 -216.355782 -141.242944 73.161081 -141.042509 18.355842 -333.138406 139.317040 -224.476692 -200.781037 -74.508015 -61.018906 -136.316650 183.911496 -34.909640 -123.692335 84.258610 22.162666 -238.302227 22.825688 133.073427 -52.386590 -47.384912 -71.461243 -83.224571 -62.311366 -216.211443 -54.617904 -179.894540 -215.135226 -63.030021 -18.304013 -25.859600 -1.378412 121.781715 -128.660648 29.694793 233.910080 186.883237
starts 86.605469 -16.372490 -51.310186 -9.832959 22.543373 -88.061396 2.220028 1.829757 21.726708 -31.591676 -30.500459 44.855824 -33.348618 -13.277047 0.475348 -15.297460 25.011767 -78.090574 27.739963 -27.650493 -38.725704 -37.503213 -16.463868 -19.124812 41.832364 3.331836 -20.098982 0.451425 6.289968 -57.642417 -24.465671 23.294568 -25.865458 -10.610228 26.524877 -53.331138 22.677027 -10.762286 -11.639305 -43.142721 -62.393394 -19.083408 1.691313 -28.799196 3.448794 25.896892 -15.509956 33.369705 79.387821 -2.712626
nothing 1253.753283 -803.654724 -1065.228555 153.353457 329.493302 -1848.634275 -516.664045 385.196413 820.969997 333.041478 -417.412674 1001.955742 -699.875942 -99.623696 -102.930944 272.198032 784.440918 -734.039156 523.065486 -386.186027 -687.564034 -1259.777968 -404.225758 -424.282749 1419.013570 182.351286 -156.278475 36.576066 -123.377110 -1319.286075 -362.994671 152.201699 -697.206973 118.585838 1149.968291 -1627.086914 914.639157 1040.918335 -28.665732 -907.142144 -737.173184 -383.581766 568.312686 -1102.978997 -87.771692 -2.647850 154.956749 684.285055 1249.454633 -573.950487
cloudy 60.469845 17.543935 -1.953569 -63.049818 -8.997638 -33.065348 25.396893 26.761074 -5.271863 -0.797773 -11.097992 -4.812831 -36.175317 -28.253753 9.465421 -26.067742 -7.736068 -38.485096 3.011871 -51.361807 -44.632773 -8.667488 -10.967321 -10.914683 47.888231 -4.081465 -11.821664 7.312402 -6.458298 -36.732452 10.824462 32.989038 3.852117 -2.890411 -17.458957 -10.511303 -18.627759 -11.832606 -6.957829 -35.543684 0.614660 -8.697824 2.164105 -16.299984 -23.816267 9.629309 -9.462950 -12.113480 -2.973083 33.245587
sky 297.810953 -170.026434 -300.130198 87.433547 91.693040 -448.047772 -148.854368 93.294138 145.538552 -36.406063 -130.609467 269.931603 -128.593050 -2.237384 -76.202442 66.368602 186.237222 -240.412097 97.522207 -103.962367 -170.482086 -272.207204 -136.639520 -89.896213 270.890004 12.938752 -56.493714 32.238781 39.806649 -309.960015 -129.836838 61.053990 -149.459175 40.927203 326.416261 -355.086583 243.528765 186.080405 -56.661636 -172.652170 -264.459731 -64.595148 128.719805 -251.244417 -52.724956 33.554260 44.763226 214.098676 356.034366 -171.044081
