6913 50
Harry 4.920423 -0.717544 0.708159 7.932822 -7.353875 4.068924 23.338876 -17.983592 4.023400 -8.717317 -6.179218 -3.052577 -9.314843 -22.742229 15.884925 12.714084 -10.678433 -5.219097 -14.860040 -3.382268 -3.504899 14.762770 23.646899 -25.203033 2.312303 4.691596 17.963243 -5.373141 21.678576 1.421030 -14.830164 39.303922 2.875223 17.653427 20.481193 4.739967 1.832767 12.938702 9.138539 26.442249 -1.256980 20.035140 9.098034 -23.620038 12.488632 6.995050 -6.243878 -5.340164 -15.262186 5.945759
Potter -26.680233 -2.196816 -20.684330 -18.819124 -47.480750 -8.549066 12.110308 -15.755982 15.200940 -14.879459 4.927361 24.878833 -18.229557 41.999433 -21.956432 -15.094655 -35.368235 -3.982996 33.803978 -14.225528 -5.976498 12.076029 7.397904 10.937265 7.181788 -2.426467 -14.791748 2.503230 24.766892 -31.767003 -19.121919 11.699201 -5.039215 -16.576733 3.076056 -18.144279 21.116954 1.647074 -0.990448 27.044441 1.140794 19.235566 1.248867 -15.504863 37.066189 -18.391939 -24.423681 -14.431414 -20.301398 19.323273
and 0.565665 -0.189799 0.115648 7.992670 10.895940 5.909379 1.840316 1.748060 -6.750847 4.345942 -3.299600 -0.985462 -2.574046 -1.526135 -8.122926 -5.723350 7.508388 6.035089 -4.267722 -9.352664 4.641461 -7.185082 -1.116683 1.547531 -2.341269 -11.310671 1.380597 -6.507454 11.127871 19.400585 -7.920770 -8.213049 -5.767406 -14.903969 -0.300801 6.652586 -4.637356 8.218450 14.221758 6.458350 -18.080234 6.413405 -12.497463 25.780998 5.797297 8.196605 1.263176 4.267784 -10.730167 -14.297346
the 9.796419 -5.894206 -3.439837 -5.945652 4.701182 -6.120370 7.510388 -11.280444 -2.056616 -1.802517 -10.634967 -1.630084 0.751825 -19.082734 0.555399 7.233407 2.761507 -0.853759 -2.409972 3.425159 9.018032 4.777285 5.522117 -1.800088 -0.806854 -3.508942 7.684398 11.869855 10.914932 11.405319 -8.012505 3.055392 7.760731 0.237947 -1.157810 0.696967 4.434925 0.733725 3.675747 6.913528 6.301190 4.430301 2.096734 -7.762101 -2.998237 5.275338 -6.585126 -0.126380 -8.239234 4.018712
Sorcerers -10.387914 16.875920 8.569611 -9.574655 -10.189451 1.587750 -10.718446 60.843785 -57.591079 10.314109 -65.224776 -45.190060 -10.584403 -56.410535 29.073351 -39.587950 -17.860195 23.425761 -20.886805 -21.142900 -33.420841 3.512514 -21.483754 -31.160272 -16.221525 -34.224514 -9.535516 -21.349479 14.408648 4.132754 -13.222332 -4.713406 -0.396599 -29.289617 -20.769208 0.221572 50.778441 -27.654916 26.912958 -23.600331 8.355318 63.085874 14.366668 72.307172 -31.808022 18.015841 8.874844 4.764306 -25.099641 26.703862
Stone 2.280792 -7.582853 -2.659260 -2.309089 -20.921084 25.235599 8.582226 -21.861831 43.793381 -58.667152 4.586498 56.033677 -43.307740 -19.278648 -73.052151 -36.251494 -58.843905 31.674588 34.242696 -4.110659 4.519753 -22.203403 -4.661242 72.533657 7.389906 -20.955242 -67.787222 3.622711 4.616438 -60.871961 -23.020017 -18.431495 -19.520854 -24.771899 -17.339822 -20.092765 12.589993 30.923982 36.823193 5.271568 -7.015338 -11.157401 4.720543 20.175064 17.539539 -15.122499 -58.270029 -12.992012 -35.408474 -16.613903
CHAPTER 44.409258 -56.245933 -92.291898 100.251371 -119.831557 -56.591618 51.047272 -56.822424 -108.857307 73.222414 -79.880062 21.129060 43.347195 -93.526243 42.565067 -122.966923 -219.840407 -3.533581 -6.348583 -90.452403 9.776430 -72.470468 121.722767 33.877071 -67.793192 141.011469 -89.038997 -27.805220 -31.216415 -13.961233 -17.028337 -30.614520 -129.453871 -176.974819 -55.949335 -83.014461 15.604523 55.900734 96.798207 -147.890920 46.777756 -7.402786 -116.970789 36.949041 -7.261189 -38.213483 -78.112109 51.281380 29.653705 120.232296
ONE 201.605256 -264.538231 -316.277462 300.387583 -38.500616 -24.459166 19.380268 -182.003544 -37.863732 67.807330 -224.359436 146.925096 29.034714 63.440911 136.449875 -240.285249 -283.130880 44.955236 -10.876764 -166.661835 16.178214 -103.698944 239.620734 -117.477739 -30.554580 179.551266 235.818172 -85.046683 68.467794 16.183990 174.117688 -220.203783 -21.616138 -84.399099 -306.416591 38.381517 -99.390222 -68.122421 118.531070 -190.607297 113.580841 -180.525665 -153.967725 -117.635591 192.376386 -112.810109 198.761561 85.827028 179.081112 20.492661
THE 136.865913 -205.495167 -226.824193 250.006762 -60.984135 -36.127028 -6.380273 -125.577578 -50.433412 24.346511 -254.488492 61.705711 50.142097 -29.386197 157.485103 -254.930229 -295.677673 85.662335 -35.584836 -162.426724 -17.103969 -93.308045 175.860841 -34.409227 -51.270623 135.758815 127.197687 -114.986979 81.505533 7.079165 124.343181 -186.862182 4.260670 -161.047806 -287.078663 -2.980860 -52.938242 -42.187943 90.006668 -245.984476 94.760154 -99.949490 -150.480454 -48.806514 102.278495 -70.868436 126.133136 67.385184 151.736985 93.528671
BOY 43.855639 -100.414527 -113.251222 85.467322 -186.274919 -124.654858 54.197408 -35.237775 -196.019408 219.199199 -136.849922 83.854192 22.417034 -101.323531 94.428490 -109.125653 -184.434770 -49.862262 16.628603 -56.574562 -11.661098 -119.673727 201.660736 -41.951932 -70.145684 178.979381 -183.220764 4.033149 -109.586476 20.352384 -26.830063 52.800918 -153.306999 -123.125939 -53.526502 -72.777877 39.899345 76.836083 105.367245 -120.909386 90.823455 -19.224720 -161.075644 57.816726 -27.209149 -84.113781 -42.716616 -15.622969 95.912914 112.539687
WHO 55.347520 -69.825251 -119.721959 91.816242 -63.815993 -25.688872 30.198617 -50.635854 -36.090803 50.692999 -64.098991 62.055248 19.356064 -1.445389 24.989086 -89.719557 -125.748844 -5.457026 9.069598 -55.939438 4.309980 -56.071977 115.976901 -12.197330 -19.313380 84.766118 14.838775 -14.308674 -13.212834 -9.545514 25.732266 -65.203741 -53.537476 -50.955896 -90.122801 13.436531 6.696914 -2.683672 80.666826 -44.498500 55.590080 -69.766844 -70.170327 -24.725083 42.290317 -39.883282 17.082948 43.899886 42.698322 25.559114
LIVED 174.745585 -256.692616 -239.520242 221.784350 -95.103629 -94.885552 89.595649 -120.947657 -99.789607 217.809669 -160.523179 262.709978 29.372321 3.026055 107.527818 -183.336921 -242.891513 -54.168517 58.896672 -126.888663 -9.171875 -177.151309 309.850209 -122.016191 -42.028820 271.753351 -12.005078 -13.086957 -66.599241 -29.793650 78.454416 -81.167526 -131.596161 -70.215617 -223.909058 -1.293406 -14.035866 48.551972 216.944177 -109.696521 156.862144 -189.040321 -172.688226 -1.501137 128.580381 -135.188636 65.500311 39.876926 99.928206 13.864750
Mr -2.220442 17.278422 -92.974352 74.630798 -49.732972 40.374865 -21.309780 19.540640 63.753035 -56.187614 -2.345592 22.987056 -40.682074 14.746641 -31.026740 -27.202172 -24.640729 -3.008953 -27.378732 10.778471 38.438830 -30.032526 12.770848 21.228745 -18.135222 -46.665518 -3.358232 8.848976 -18.987713 -42.780450 5.777067 -78.598078 -1.355055 -13.817337 -25.829371 28.900847 40.632740 -21.501459 65.389673 31.398139 26.634664 -38.165382 -19.960645 -10.366006 50.994358 5.028682 -22.810607 65.360728 46.373947 -42.427458
Mrs 11.364747 7.700371 -85.538476 85.707845 -24.692073 19.212849 -27.489674 44.844209 22.256013 -53.007916 -39.850155 6.130643 -12.849117 -35.443242 -7.334233 -74.271098 -37.083437 33.261375 -56.411628 -11.223124 -27.365550 -47.600534 16.917405 -33.874216 -17.841303 -54.131475 3.522576 -26.409147 40.388404 -39.021956 37.822992 -98.562220 4.999777 -40.677883 -74.846417 31.893007 55.265804 -40.014002 68.897292 2.642247 50.025512 -1.851553 -6.020698 41.458065 48.453547 27.108052 -12.719739 81.499102 10.402116 -18.485795
Dursley 20.318013 -15.465870 -64.188197 76.303893 -10.327283 5.669586 14.097676 -15.693864 45.744181 -33.792612 24.695473 48.499168 -33.630864 -13.369492 -43.772125 -24.325627 -51.354523 4.332285 -16.455544 -22.013592 22.719400 -44.922113 3.686990 -30.046350 -3.884288 -2.315555 -14.970739 20.629702 0.565136 -35.866467 8.884052 -51.201443 -44.072619 -17.333554 -29.454711 -21.266132 -10.560787 12.732361 63.877297 17.810893 15.392074 -22.217080 -11.917094 11.037898 57.863021 -10.211502 -31.091756 38.457167 8.533843 -47.092145
of 9.975920 10.131985 5.594494 -23.756323 -24.389092 13.826456 14.013265 -16.338983 -25.420383 -15.162754 -47.053666 8.944525 -16.481804 14.687308 10.225685 -12.407917 -4.097661 12.675657 -17.747539 14.959491 6.189766 15.081981 26.575597 -33.518909 -3.350428 12.902381 32.025376 -0.556903 12.464109 23.849140 31.529584 41.866404 19.416922 -11.794474 34.748762 -16.337435 3.364655 9.064503 -32.589307 25.285058 -2.688265 33.614796 14.695990 -5.355923 0.899079 -17.745449 -53.286649 -24.820365 -39.803875 9.422348
number 116.715755 -145.892588 -195.091532 208.465457 -42.117123 -18.326312 -21.107808 -112.495956 -15.874802 -7.095560 -211.767741 56.441334 -9.276323 -11.632130 108.208881 -174.986306 -209.090816 72.029837 -21.790809 -133.204865 30.166812 -66.527146 123.296680 -22.288488 -48.414364 81.353555 148.385652 -65.956425 34.022187 -10.976981 77.191143 -173.151497 11.122858 -109.667604 -215.039928 18.285259 -54.465408 -44.132134 74.096927 -159.896074 54.997405 -75.587851 -113.217830 -56.334003 75.866748 -70.929065 116.323937 44.502482 140.238699 33.214446
four -12.611162 -15.751490 16.254560 6.123584 -16.889918 -12.866547 -24.577390 -1.814615 -9.729329 6.893866 -62.661714 1.512253 -27.174698 -26.085616 37.943763 2.032215 -2.125380 29.010357 -19.021104 22.028457 -7.953381 0.697347 -22.255608 -10.167296 8.213591 -18.113864 -42.726292 -5.273692 11.576205 21.050748 19.596847 23.966613 57.577144 -5.086780 -15.034977 -33.635029 -7.050068 16.319405 -38.754698 -45.450218 1.529720 40.814669 -7.728403 9.956394 -14.742173 -8.218679 15.405369 -42.221232 40.476572 20.319794
Privet 97.944541 -115.895220 -165.303341 172.546754 -65.790231 -14.947282 17.166757 -53.592354 -9.978759 27.325655 -134.875945 96.552047 -14.262994 -27.336603 58.307290 -125.433441 -168.674002 -8.151531 -0.264975 -71.422343 39.289229 -83.091435 136.399553 -29.119657 -38.469724 77.084666 27.643383 -18.424921 -17.423896 -45.473444 32.435532 -119.989341 -45.430159 -92.356336 -133.652024 6.931776 26.273235 -16.027757 135.493666 -80.383470 69.485428 -70.193629 -88.835745 6.819977 64.822618 -65.493718 9.283466 73.743236 65.955139 9.148333
Drive 3.707018 25.506175 -56.359598 35.993965 -31.765328 3.145065 -5.185908 11.295873 5.329594 -16.872782 12.993784 2.169100 -21.788449 -10.017638 -24.742807 -16.415167 -6.667531 8.856087 -26.157659 -8.681243 15.300690 -15.228600 0.539494 -35.487848 -6.545762 -12.568571 -1.682833 11.222618 6.937722 -1.907725 2.415658 -19.343329 -29.547074 -5.466440 6.430149 8.467996 -3.209958 -7.523670 19.106533 26.751373 14.192665 -2.131532 -5.459166 -4.764362 22.088649 5.175143 -11.265771 34.299035 8.434897 -23.768514
were 7.930926 -6.586047 13.386702 -2.551887 -9.781366 41.094526 19.399030 20.653686 9.541301 -31.092380 -0.552177 2.173897 -5.418533 -17.471258 16.416763 -28.618534 21.235313 2.243003 -4.753543 -23.921138 -31.454708 2.800279 20.803301 -9.246075 -17.589771 -2.515688 16.096347 -17.514117 0.946386 -5.920526 18.756386 8.596538 -12.737170 -26.368643 3.072966 -10.389835 13.326967 23.298351 0.295954 -8.712970 -3.715170 26.225912 -14.694642 22.634366 29.393757 9.856482 -15.251187 15.478351 -21.339965 -13.863318
proud 31.893517 -59.888410 -44.304218 32.244496 -17.239769 -26.213095 6.409256 -33.874304 -32.918152 20.529750 -77.861474 15.673357 35.359875 -26.451954 28.843297 -118.781735 -108.811600 29.889435 5.316114 -45.697176 -39.175189 -25.542079 56.535025 11.298490 -3.485667 45.240768 -5.671494 -62.545385 58.669687 7.469972 22.820928 -67.994631 4.688850 -74.467912 -102.753034 19.747342 0.528133 -9.579445 37.217840 -81.493084 47.235239 -34.967778 -37.607003 9.213572 4.343501 -9.562273 13.604872 12.510214 2.254868 71.699422
to -1.987274 7.017860 -6.274308 -1.771753 12.100298 -12.357815 10.627777 -1.018402 -9.792998 4.800383 11.428489 14.464645 -10.547561 -27.202115 -8.841963 23.342838 -10.252264 -4.753597 -15.734584 -5.677088 7.410977 -18.240784 -24.846933 -9.948838 -0.406377 -4.066173 0.268558 23.226648 15.289548 -12.040104 -3.379195 -24.089998 8.531482 10.372990 -5.141596 2.580115 3.228749 -18.363095 17.843274 4.346192 -5.065657 -3.214196 -15.571141 12.362505 -24.542238 17.043896 19.782535 9.442207 22.842534 -5.916771
say -4.038054 27.057845 -36.591607 8.283943 -30.128778 1.543504 -1.718914 16.905320 -10.731625 11.098782 -2.753385 -10.119463 -22.964069 28.044154 -20.563587 6.619293 3.211680 -2.390880 -19.188409 10.576111 13.073273 10.262144 5.453807 -30.025858 -8.017382 -4.237586 6.100803 19.097064 2.544836 -6.593922 -4.279429 0.469239 -14.176719 5.843934 38.974087 -7.882233 27.986210 -15.950576 12.692257 27.217485 8.992947 29.228343 4.264662 1.820041 15.469508 -0.962883 -18.948953 17.253459 -17.741441 -2.074790
that 9.158799 5.707096 -28.901830 12.414836 -7.957415 1.448978 -4.474642 23.667820 -9.111445 4.548858 28.437141 -13.627801 -6.454807 -2.265498 -1.849162 -16.741032 22.936539 17.222339 0.974104 -31.719406 -24.767376 11.730682 -19.946998 -1.733399 -24.967814 -8.429790 -21.906052 -2.625529 3.968386 -6.477784 -23.797734 29.687029 -1.243873 25.310511 -6.224594 -3.757723 1.186961 -2.075437 19.973554 3.695544 6.069192 12.503710 -12.968677 19.025908 18.110159 18.411325 27.598022 16.865624 29.483220 -37.345304
they -1.427465 -4.132593 -21.519937 21.543717 -2.193591 4.470669 2.839467 -18.045887 16.423461 -20.487225 7.800623 -1.400382 -11.312223 -16.585203 -13.957884 2.591129 -14.692117 -4.197795 -1.860671 3.206887 -3.077018 -6.865587 15.095777 31.845930 1.513474 -15.044799 -15.830537 4.087996 8.094145 -13.572812 -14.171266 -12.913630 10.739210 2.488757 -15.391763 9.470676 19.817565 -1.527330 37.798384 10.553163 5.660621 1.550096 -1.488082 12.083009 11.997345 13.290490 -12.600133 24.950067 0.720704 2.577607
perfectly 208.029396 -292.881507 -311.978103 307.276821 -59.615198 -8.680528 -1.436545 -163.075438 -78.657413 108.947837 -308.854461 174.116510 6.039766 38.955155 215.166579 -220.180463 -247.488744 65.256476 -12.915528 -149.329352 27.187234 -128.683802 277.142879 -121.511008 -75.870696 200.142414 170.347864 -75.163102 -12.049556 34.333313 169.890532 -137.816697 -2.027892 -65.248448 -286.381583 31.599637 -92.850457 -34.912390 129.372096 -199.290287 129.642444 -157.274447 -186.835086 -95.375425 158.500937 -147.825925 204.258251 28.898365 237.453573 -16.252830
normal -23.045492 32.874956 15.333062 -4.194112 -72.270837 -22.375342 1.499561 35.557114 -22.416148 20.900242 -24.735305 3.268232 -41.866232 -74.931716 -0.399171 13.962771 -9.147056 -4.083339 -3.851871 23.601757 13.557580 -38.292408 9.326140 67.960155 -40.927705 -20.291131 -156.500741 32.987302 -86.612657 -27.164599 -90.129309 41.841964 -24.122197 -42.007785 50.037328 -31.534266 66.225481 65.352125 26.703856 3.241815 5.756578 43.124869 -34.389582 60.427967 -67.584821 -15.622700 -81.392879 -22.714035 30.097888 10.423521
thank 62.121991 -76.684729 -76.218260 94.767150 -109.373916 -70.005451 11.495164 -45.112410 -152.043854 141.445239 -109.799292 58.253749 -23.423808 -113.278528 78.945999 -38.812435 -113.724277 -0.763309 -22.993301 -23.287750 17.894807 -119.581771 133.444324 -43.819454 -90.344848 135.042154 -151.739877 24.199813 -123.783170 22.939374 -6.673193 66.593477 -99.963546 -66.544077 -16.733667 -62.347550 -27.227795 82.531932 56.226190 -103.592222 59.748066 -27.160151 -120.571362 45.901273 -44.939704 -68.688690 -13.444376 -36.065685 128.748449 33.043870
you 7.509055 -5.885595 -11.129658 2.395003 0.677408 20.966668 -6.071833 -10.476086 -4.810842 -28.541497 -14.339340 12.074977 -4.787694 -7.264430 4.331444 -11.895749 -7.849020 13.209687 2.207758 7.076867 -15.628682 -7.183332 16.224594 32.802263 -19.583223 3.156282 -2.807817 -9.812032 -0.203569 -19.476386 -13.520599 18.348619 20.378558 -2.738908 -8.092857 10.972522 5.828513 1.335183 8.952625 -3.633083 14.868811 8.621272 15.544927 -5.752602 -2.048062 24.781721 0.054730 3.686872 -5.292549 13.769291
very -13.549740 -11.461913 3.500368 -2.109725 -36.797848 3.132672 1.993458 0.888479 -16.681944 -16.438042 -17.364202 -8.740285 -0.002466 18.747418 -7.024778 -23.136127 -12.057662 -5.262505 1.608449 5.581798 7.012523 28.441440 2.172147 -61.827243 16.077536 8.407303 -12.105998 -14.943990 40.596867 1.621241 8.334077 46.439413 -24.852913 -22.267989 26.725647 -40.394611 11.752293 -17.308696 -24.242752 -2.405372 15.497568 38.402520 36.871640 33.782513 57.741988 -11.626066 -45.925616 -0.089944 -57.293168 28.298310
much 1.623962 25.305545 -6.837968 18.696960 -15.881496 7.342533 26.956736 -3.798198 15.898453 -4.289087 20.181459 32.286329 -20.781123 -17.582883 -59.634192 8.428203 -39.033060 -6.673907 3.594057 -4.881943 3.719158 7.398408 -9.359897 -21.223657 29.114617 -11.065540 -11.143394 17.031192 14.940151 -36.189679 2.487282 -18.519849 -37.898061 -20.729678 13.177940 -27.209399 8.794849 -13.860164 20.211208 24.763834 -2.027230 27.818319 5.814850 15.792645 20.951696 -2.038271 -55.444072 26.453582 -54.234259 -4.025288
They -25.900523 -1.885608 -8.380431 12.657280 -44.069588 -39.816392 -2.817151 4.609937 17.630465 7.515313 -13.684076 3.277320 -21.143888 5.427736 10.020597 5.836189 4.404699 -2.255856 -34.992529 5.250061 -29.147224 5.177294 -23.396612 -46.747864 -1.953604 -46.259811 -39.714866 1.222866 38.421656 -6.862686 -6.416352 20.442676 29.474700 -2.557811 -3.463638 -53.973326 14.949361 23.250829 -21.565620 -17.144397 7.023929 27.994061 -21.528117 20.349502 27.540616 -5.677365 5.175712 -15.077853 44.005198 1.514861
last 16.070700 5.699902 -38.497190 62.717246 -24.967343 6.976347 0.475553 4.573130 48.022248 -44.236289 24.225915 45.139677 -39.917229 -23.511393 -13.175845 18.789733 27.360816 10.717975 -36.614804 -7.060048 0.448419 -31.577898 -14.801215 -32.692517 -30.384559 -15.268136 -24.525716 37.979267 -21.430390 -33.930727 -0.461347 9.464383 -7.181543 5.796019 2.345728 -32.523158 -8.479439 32.750594 14.342459 19.631012 19.502358 5.818545 -21.730340 18.246800 30.549639 -1.905730 -21.544828 27.782838 54.933805 -57.499541
people 3.193116 7.506590 -17.882413 6.513880 -23.060714 17.454350 5.011119 -0.315157 23.124297 -53.502635 -2.692440 25.674314 -20.902487 -28.015607 -48.033312 -34.434083 -43.743078 34.890637 4.600870 -21.371399 1.573243 -3.315887 -5.887301 2.601429 11.685784 13.334235 -27.204760 -1.757102 20.766705 -35.914657 -13.881871 0.241040 -31.355801 -9.815410 -11.394492 14.634990 -1.459146 11.901508 33.720488 33.959271 15.321304 -4.320304 16.536231 15.871742 13.635062 -2.342954 -39.385281 6.880540 -43.583976 -10.209189
youd 90.685830 -81.168472 -183.294058 157.568113 -105.250989 -32.279437 42.359662 -46.299522 5.847717 30.358758 -80.976329 140.923147 -60.042962 -33.156711 48.722548 -68.042196 -133.601677 -45.437326 11.931864 -61.874969 61.244580 -126.841650 145.296049 -26.306901 -46.849742 91.689173 22.881771 43.015086 -108.948994 -74.257034 -2.456430 -123.153542 -67.064482 -57.319639 -97.555359 16.806793 27.567731 13.419158 135.018725 -18.620041 63.211113 -95.208036 -105.871673 -20.392930 49.803911 -66.787452 19.807925 65.546558 104.699915 -47.103653
expect -38.050831 5.938539 6.167804 -61.999522 -65.618054 -37.925635 9.777383 16.169056 -17.341609 16.779021 -3.543549 4.825506 5.391548 -16.475584 -35.506749 -70.967244 -43.355035 17.460613 17.717942 12.031957 -53.507603 -22.425162 6.432429 16.298831 14.715196 -15.787407 -114.290428 -25.679883 38.405551 -8.113951 -18.898773 6.866118 0.065740 -36.168749 -18.106287 2.349513 29.626284 15.790851 -2.946049 -7.026007 8.964413 -0.112286 -10.258238 29.548990 -15.342261 -7.154154 -32.842990 -36.967100 -9.852142 53.052344
be -12.554403 24.103752 -40.961588 -14.125418 -46.401027 -16.470864 23.722459 8.518988 6.995211 -10.843249 10.815847 15.891774 -18.493416 -1.113197 3.097882 -16.032480 17.682637 -2.975786 -10.236751 -19.533185 -15.257414 12.109123 -2.489417 -56.033216 -7.376340 -2.574805 -1.251236 11.070599 12.309837 -14.772289 -14.078569 31.848880 0.432918 8.043927 9.630527 -31.229076 12.817742 4.246778 -10.061074 28.582801 13.968921 23.353578 4.981851 -26.296072 24.209683 2.101214 -10.260155 -2.596761 8.044962 -14.085302
involved 136.514280 -168.583751 -158.893616 175.775992 -75.989263 -27.091558 35.665798 -37.581376 -108.942243 106.355872 -201.603289 115.064776 3.993866 -96.546438 104.155195 -189.926060 -195.615908 -27.919101 8.246912 -92.348286 5.167519 -126.094139 204.737675 -27.137538 -76.933821 107.056599 -2.118191 -26.967139 -93.901373 -36.141943 29.954732 -104.101781 -77.934039 -110.780576 -191.964621 17.466972 48.230966 14.380176 194.675030 -117.061684 101.492063 -78.768486 -107.615073 56.008026 40.515191 -81.397566 17.591045 64.030009 61.970280 14.264085
in -16.630798 -7.445239 -7.335548 -5.777017 -6.461906 -4.921770 -1.278931 -18.659857 -12.604324 10.505117 -1.014648 -11.605346 -5.203063 25.838906 -1.415916 24.186333 -0.363497 -5.616719 -17.218779 10.395866 10.512540 12.450603 18.721127 9.782888 -9.075463 11.064709 1.754039 7.560369 8.992302 14.236086 20.890962 26.514594 22.072932 10.203471 5.642210 0.868436 9.434518 -4.720889 0.533324 13.523195 -7.133507 22.361783 -13.953021 6.306846 10.416360 6.046093 -11.607482 0.796331 1.457776 20.864881
anything -0.945927 -23.500167 -6.887185 -6.860461 -10.779882 -12.050199 18.564959 -8.717358 33.428994 -7.311723 1.641712 10.088912 14.716181 26.782122 -22.154234 -39.861861 -67.175668 -15.127793 40.769069 -14.516218 -8.848435 8.264190 13.641030 29.442549 13.759090 17.543846 -0.978164 -10.492937 40.299191 -38.835111 -7.698834 -44.612856 -22.398333 -43.655229 -20.591034 -10.840281 26.893341 1.206079 31.572606 -9.853614 -16.169743 3.744736 14.497563 9.096837 34.999726 -3.104426 -23.303378 9.145593 -49.177821 27.020317
strange 34.250797 -15.847069 47.473811 53.743473 44.582515 2.851276 1.412916 -94.980728 68.995726 -71.508578 82.989924 32.439621 -8.101544 -45.896422 -55.863796 5.032820 -62.661049 55.461438 -2.391737 -29.917700 30.031401 -49.768680 -55.399564 80.321032 -34.054748 45.223962 -86.135558 2.652996 7.985414 -19.987280 -16.730465 5.492158 -40.318072 -69.755552 3.762170 -104.835363 -83.391603 98.964511 -2.053614 -83.833705 -27.415741 -50.500792 -23.840464 23.556973 1.372279 -24.149841 -90.856207 -18.726251 11.764915 -6.388538
or -4.918030 21.631665 -32.592131 15.389164 -32.491230 7.886698 12.954809 -12.463082 24.072238 -25.184415 48.499677 40.625798 -22.073180 32.380520 -92.929396 -5.742383 -28.260262 3.353361 0.751404 3.229833 19.398543 -20.656984 -6.332443 9.346569 17.006509 8.386568 -40.994899 29.256330 15.634248 -38.064060 6.545080 -25.487895 -39.931897 -4.815986 7.911607 -15.311449 -13.385252 -0.007044 31.247053 38.941123 2.496322 -22.027221 -7.587107 -13.261431 33.674241 -10.398211 -52.737688 22.989834 -22.823202 -24.148239
mysterious 6.734119 -18.133052 -37.894647 44.874044 -39.677239 -29.557898 16.741771 -22.780534 8.757147 13.849116 -15.650474 40.345322 -11.095000 -13.952293 16.970165 -14.330292 -44.386778 9.211452 -1.209165 -28.472555 3.386015 -32.658831 30.364417 7.433408 -22.959928 44.835397 -54.142649 14.317960 -10.004807 -23.140976 -21.092935 -5.595745 -10.861745 -37.754082 -20.314214 -37.819291 9.839510 40.518857 31.860612 -30.589791 26.431181 -9.659458 -40.855430 17.051703 5.147141 -19.573516 -21.501304 -0.921533 35.185524 9.019453
because -17.243298 1.399503 -17.657766 4.194641 -29.511835 -35.097379 19.689466 8.609985 38.359189 -29.933380 23.299114 25.874048 1.462247 12.033898 -34.382262 -36.743204 -38.387794 -6.730906 15.880521 -19.586245 -10.907742 3.960118 -13.959614 -16.044458 22.876741 -3.892016 -30.698278 -8.309102 56.025183 -41.629485 -16.743284 -29.072703 -27.847479 -36.286403 -29.431656 -20.656806 22.147049 -4.787054 21.304919 16.183086 13.590334 -1.767255 0.432883 25.587051 37.965750 1.910375 -39.863614 9.102133 -22.839515 26.442090
just 6.283300 7.737952 -23.643189 0.000451 -33.984696 3.129515 8.708756 0.429268 22.443868 -35.342706 16.580705 31.819178 -11.590991 -17.852752 -31.440433 -52.566133 -4.000975 37.757419 5.734252 -8.268575 -16.285104 -15.577266 -2.135596 21.758967 1.300706 -43.522420 -58.054388 -16.764876 15.690804 -10.309617 -12.015303 5.978549 -5.346431 -17.423423 -19.457747 -10.371464 -4.988751 40.948549 -8.793619 6.594678 6.480279 -19.109188 -17.261867 -4.443058 25.077984 -9.919705 -20.991742 -4.424580 6.488640 -29.168813
didnt 11.997877 -8.166978 -15.732981 -18.739303 -9.378889 -5.159284 12.426476 -8.011616 -7.476771 19.159224 13.546834 3.025845 -10.121035 26.899577 -16.167096 -23.452625 -19.846361 -25.059772 25.527734 2.811241 7.193542 9.585018 -7.931910 5.868427 4.068830 -23.652415 1.162137 -3.612276 17.229500 0.028427 -18.271961 -24.111305 -25.349057 -12.189644 25.209779 -5.654886 12.079159 -11.936521 11.901447 0.073884 -15.785004 -0.054024 8.354969 9.454765 28.956001 -11.573620 -3.099910 1.391092 -14.560912 5.440717
hold -26.282320 -47.956247 47.789490 -73.456048 -20.118686 -33.948577 34.947302 -26.462471 -29.055368 30.633445 -31.006322 -0.277363 79.388802 3.113746 -6.453899 -105.953769 -107.514937 7.906136 45.129357 -23.855161 -113.203994 16.694582 7.639239 7.696594 83.354739 28.052027 -62.602002 -86.160906 161.430266 18.141970 44.377783 -18.850198 -10.201935 -78.069087 -75.346044 -17.631934 11.878369 -31.018205 -25.519722 -97.328693 22.026393 3.301933 -0.889930 52.551400 8.150079 4.835245 -34.131174 -34.361438 -86.543147 140.947094
with -20.522207 1.392859 6.283351 -12.708012 -32.040239 -37.102939 4.698403 -12.589064 -8.077764 -1.931257 -26.940026 2.687401 -9.810378 26.890504 21.494378 7.648856 2.109000 -4.415999 -5.256161 6.104761 13.571998 32.526503 11.837787 -47.568775 11.710244 23.382664 8.920070 -3.767480 29.694322 11.687082 -12.553475 29.638273 12.682932 6.701859 10.884866 -50.302103 13.220206 -5.136756 -36.118541 7.771241 0.811131 21.735927 24.913959 4.894383 28.149778 -22.721654 -23.555207 -26.546253 -16.056788 26.468435
such -0.376737 0.577672 -25.275545 28.812895 -42.855865 -5.904966 0.550813 5.124903 27.653664 -18.908248 3.955914 50.599559 -46.392932 -51.132277 -43.736338 -17.402492 -40.884565 19.521170 -2.698091 17.555207 9.064739 -44.393877 -8.743194 23.770042 0.446699 -20.595744 -115.634146 15.770224 -3.394181 -32.767813 -15.704343 -16.618348 -34.489196 -21.102194 -6.290591 -21.114135 9.389310 19.848167 40.417203 3.594320 17.503250 -5.459338 -19.350248 35.930971 1.276082 -2.622972 -53.118789 -5.783616 18.539576 -11.874614
nonsense 61.623616 -127.999569 -4.740797 36.688145 -80.934456 -109.015764 50.830053 -36.174346 -178.751815 210.850481 -112.427628 116.316825 12.150969 -120.887689 86.694957 -50.511500 -108.835583 -27.819293 41.089151 -40.268413 -44.196497 -123.850748 152.937071 -43.523725 -51.134235 181.531801 -220.239389 12.955246 -102.211347 23.943067 -23.312314 112.360655 -116.136035 -60.106688 -40.203662 -75.420799 -4.956114 108.618769 92.336272 -111.880506 74.610412 -26.288016 -113.351973 109.821044 -61.792880 -79.368885 -36.935837 -81.606461 52.675517 61.444407
was 14.898430 3.777441 -12.345941 10.042702 21.079190 5.528663 16.840375 25.048002 3.523521 0.550889 22.200448 5.176050 -26.365095 -25.235717 -32.216777 -19.408021 -21.285527 11.303950 2.195826 -55.067266 -14.098570 -8.822049 -45.737771 -23.129045 0.690938 -28.036430 -3.035896 -0.228299 11.601498 -28.215232 -38.874597 -39.005384 -34.991681 -5.369751 -10.918886 6.204133 0.363424 -18.823546 52.177210 -1.736171 -0.465971 15.446839 8.467500 42.469851 2.466404 -5.405164 -6.402664 22.834490 -14.965151 -44.001589
director 228.601006 -280.475932 -309.767927 325.661846 5.195410 9.837799 -13.705083 -196.807467 -22.510599 51.608236 -239.141031 198.339432 -25.800420 78.419500 158.093937 -167.785224 -224.106274 82.492289 -7.845566 -160.159920 68.454210 -120.385291 222.287204 -129.978679 -70.210452 184.597931 241.638358 -46.356181 1.845723 16.088214 200.356955 -150.026177 -4.167964 -15.068666 -271.513392 6.678743 -160.888044 -43.080876 111.379948 -168.507562 100.113734 -187.483792 -152.762268 -126.276333 203.561713 -142.217355 228.801189 35.477200 232.193321 -74.869513
a -5.553113 5.921832 10.651098 6.271411 4.136849 -7.354749 6.643661 5.491504 7.847080 -19.945620 -14.104899 11.829382 -19.487174 -30.566004 -11.366707 14.843279 -26.139424 21.812841 -18.453311 -3.479888 -1.472001 -21.199910 -6.362774 -11.909843 18.570830 11.777595 0.760931 18.412528 16.487973 -24.438851 -1.029512 -39.869359 -3.299930 -2.437075 -10.287381 13.943713 3.200193 -11.600983 12.582173 -0.946086 -7.521872 15.605455 -6.473311 26.595574 -13.725287 4.260172 -9.236678 3.878494 -2.827692 -7.537784
firm 212.409513 -290.943787 -264.332855 276.648864 66.046164 8.222023 3.863321 -230.011636 33.240508 -6.102644 -217.104421 163.995659 43.735689 102.706882 143.207258 -234.682043 -276.546560 106.875605 12.399123 -197.655915 -2.090182 -67.705849 187.163897 -55.592990 0.194234 165.311102 291.394195 -111.089348 148.814091 12.624707 203.158649 -246.441814 58.201008 -55.444485 -352.582165 33.115303 -154.170326 -84.504594 80.774744 -234.169385 99.526845 -191.221955 -126.652663 -126.600672 213.656994 -101.809383 233.082277 58.300994 153.809596 14.493762
called -34.283820 35.114748 16.372538 -62.609502 -66.535003 -8.122430 7.219966 50.465519 -82.521592 35.298668 -26.245970 -44.874632 8.465844 -17.409331 -0.330787 -21.786527 9.561075 -24.302694 -15.985991 35.968992 -15.763353 27.557006 4.666675 -82.046495 -5.389719 -16.755686 -24.223377 -7.628836 26.754122 26.573404 9.742040 53.505046 -40.903174 -19.028126 55.205048 -28.200916 40.744974 -22.863493 -20.991227 17.352310 7.950017 80.582833 37.104474 41.407824 0.110875 12.517223 -42.495907 -6.437570 -69.972140 43.896455
Grunnings 34.777083 -40.411628 -210.880758 159.215899 -113.136364 -26.051494 -29.547110 -32.661526 -43.227839 4.285808 -111.958530 -6.564811 -2.730417 6.373444 70.127595 -91.690079 -98.566847 48.871388 -79.534857 -55.558982 9.949001 -36.636787 83.732996 -94.892494 -36.715852 41.472122 78.106002 -23.200131 36.683408 37.435670 71.693082 -63.712145 2.179145 -38.404926 -104.902685 8.647964 -27.527945 -55.949649 5.429288 -56.392458 71.245326 -28.308410 -89.978167 -80.496689 67.976299 -19.941149 95.320064 62.835318 157.133852 28.441067
which 7.233018 -14.910035 -9.337104 32.181834 8.236860 11.957472 21.777738 -12.197662 66.067533 -52.893943 25.280320 35.889172 -22.366177 -19.193635 -20.772308 -19.140395 -35.068984 -2.422445 11.250666 -27.059284 4.982968 -27.486880 -0.067855 19.478060 -0.311543 18.952695 -14.222853 3.283694 8.403833 -57.164309 -24.689080 -53.285800 -13.850709 -33.442767 -33.098852 -5.652090 23.221934 19.492813 55.856290 -6.946802 11.374809 -22.811474 6.234968 29.052354 35.852457 -2.589184 -32.541685 31.787693 -17.032652 -22.485837
made 13.256256 -4.566967 -23.440506 24.567053 2.454979 10.236753 10.772179 -6.069764 17.369835 -29.667101 -0.295993 20.943462 -40.899508 -13.800103 -27.190338 -11.259925 -17.102198 3.119636 -11.627067 -12.909983 21.117089 -9.184345 -2.429697 8.915121 -10.162226 -7.264916 13.120722 14.926660 11.097029 -25.348224 -13.514439 -24.777103 -6.978247 -10.915985 1.465499 -7.089422 -5.308668 -5.307726 42.297241 16.525530 21.459182 -0.417935 1.194483 16.533787 17.338338 6.266950 -29.061032 18.179853 -29.000967 -27.088244
drills 64.483799 -63.932241 -50.733957 119.683869 17.667514 7.240634 -49.917498 -72.906549 -79.454494 -2.485085 -118.588424 -60.476105 -6.540250 -54.371209 74.514868 -29.964944 -93.560589 86.279154 -64.538955 -53.943967 44.010342 -5.919030 -7.638909 7.646992 -66.973324 18.950404 50.705461 -20.104657 -2.931590 61.906736 47.222466 -15.420151 14.464994 -51.465422 -49.450157 -67.083530 -91.323214 -20.905125 -15.967761 -156.085583 -1.250048 26.158438 -54.670447 -12.689891 -16.967105 -25.393854 64.429872 -6.482222 116.353879 31.817623
He -1.367652 -14.948442 -0.920572 15.062769 9.074347 -8.761573 7.463416 -2.844761 8.736846 11.442815 -2.658375 2.049480 -10.988789 5.070115 -2.581010 -9.985630 -10.937048 3.964035 -11.975196 -1.088466 -8.299458 4.609891 6.028184 14.125074 1.163057 -18.342290 -4.613252 -1.385465 20.323101 3.856272 -14.613633 -15.462850 12.062569 -9.327579 7.282140 -6.050542 2.643538 19.094821 11.640314 -7.324585 -8.885977 15.660330 -5.258298 22.474894 18.687703 -0.236015 7.645929 12.287989 -10.550953 -0.398881
big -1.759520 46.714200 32.072173 -21.543956 -17.356318 3.631949 22.755698 32.279097 -8.017614 -10.135716 24.359736 -11.382803 -21.265340 -67.498001 -75.676567 -21.552733 -47.682024 -19.612057 2.145228 20.648881 8.293096 -22.162979 -14.196214 65.987425 8.840946 -37.766768 -82.952002 13.451607 -26.365921 -31.955983 -49.408668 -50.363057 -48.450720 -49.027552 25.315748 -3.116680 58.968992 17.460158 69.254786 11.780106 -9.453087 12.858584 14.675989 60.356825 -44.258848 20.981151 -101.131563 31.293711 -79.180832 12.059191
beefy 200.742072 -256.753224 -439.433021 316.513699 -259.907897 -105.234578 68.177618 -76.487025 -191.634613 269.515233 -314.259089 263.027108 4.924608 -30.484136 179.669135 -278.021540 -303.499402 -67.681404 12.254897 -128.509555 23.772461 -234.051730 454.231842 -196.836097 -90.667669 279.007540 35.916458 -21.243078 -144.657546 -11.830012 97.837414 -146.991974 -164.437967 -96.214845 -281.942472 107.358061 55.219592 -11.356839 287.383914 -64.535344 231.723694 -209.618043 -250.650965 -65.007115 128.149398 -158.117190 117.393664 95.966870 206.450305 15.233712
man 4.470474 5.277842 -44.615274 71.188356 -7.045330 -9.599077 -20.498231 3.376915 18.040682 -1.403116 2.316174 34.220084 -52.310877 8.715801 -7.375088 39.203969 21.832378 32.721655 -43.896799 -3.844906 22.205209 -24.762686 -37.161018 -52.265463 -19.537250 -7.361813 -41.563664 29.466452 -16.737299 -11.153292 4.955009 28.314946 -0.271982 15.414417 21.154252 -58.293171 -26.369700 23.438064 -0.979233 8.535472 4.077370 27.603688 -34.206455 5.029117 26.367133 -8.295253 -4.711315 -0.677877 72.426466 -52.910962
hardly 1.533748 -32.105797 -48.764320 10.680616 -29.884528 -20.640004 -6.745884 -18.842467 -0.181134 -4.779029 -44.391643 29.631697 23.228577 28.245023 -19.662996 -75.103989 -75.245634 43.086105 15.143350 -23.483400 -31.304127 5.964342 23.407807 -4.293757 31.929375 16.424618 -4.330293 -46.809918 90.417166 -2.146310 37.189170 -43.136022 6.792200 -20.341464 -79.779534 8.429545 5.530900 -33.379510 14.557356 -26.656631 23.732747 -26.380472 -22.866736 -13.685388 38.203022 -2.958526 22.293513 -5.168711 -2.302957 51.077675
any 0.238973 -6.789324 -37.675352 55.383694 -32.129999 1.763816 23.393979 -4.292574 130.276194 -74.013284 66.353089 63.941117 5.142382 33.180067 -49.171118 -40.669432 -70.469709 -37.436384 19.313526 0.860504 13.120084 -57.616287 20.543016 68.337668 2.194626 2.925733 -14.233207 10.757085 22.003675 -93.901856 -17.211374 -107.643361 -15.215557 -74.254048 -37.983646 -18.483233 60.968441 20.771851 75.224207 5.815171 -1.097399 -62.724537 -15.261577 -1.176132 64.305989 4.983571 -81.061734 80.373248 -27.875006 -6.433499
neck 8.671230 -31.866882 20.570997 18.229150 -41.865317 -22.191508 30.902011 -1.300149 -41.910110 44.834565 -12.481477 41.329023 20.319317 -52.539040 -11.732626 -36.671623 -70.366643 -34.244881 1.624643 -2.273378 -42.005188 -60.980666 35.723845 -57.042423 9.522938 43.610960 -95.874577 -17.495353 12.179811 -8.159209 31.201535 20.749217 -64.892881 -57.561711 -16.603818 -46.175722 16.396975 31.435742 30.732025 -39.893703 16.768882 -8.473780 -9.255278 70.112614 10.143769 -17.467464 -72.036778 5.169020 -38.768038 44.915964
although 1.675822 -20.447895 -25.528195 35.808872 -111.564611 -89.240248 12.674639 -9.113896 -76.866427 88.119490 -52.200167 45.814451 -17.613800 -82.552141 56.610907 -5.989368 -76.453197 -8.292747 18.062741 -31.072549 11.410084 -82.460711 74.157286 20.495918 -71.538077 96.377924 -157.456633 41.048559 -110.693016 -15.996674 -64.683823 61.439128 -86.967433 -69.068233 9.066527 -66.434866 6.026487 85.101075 40.947138 -59.115689 17.007294 -3.640085 -100.117226 39.812219 -69.682498 -55.644284 -39.499195 -50.774214 104.584735 33.475526
he 4.918022 -2.339245 -17.464731 3.360022 -4.468916 -36.677826 5.751740 -13.929754 -1.808593 17.842274 26.437709 -23.739709 0.579901 19.362880 21.099688 23.076101 -3.513375 -9.587369 -16.125334 -2.050374 -17.237926 10.369587 -6.033979 -4.816205 -9.700405 -0.873968 -2.471478 13.171540 18.015058 -8.676478 -36.003315 30.875826 23.707619 22.725849 15.693164 16.724397 -1.389382 1.133296 18.871313 10.148067 12.851322 -2.163144 1.874866 -15.706485 -4.053880 -1.816821 13.393821 -7.192411 34.072978 6.805297
did 13.440361 -1.643797 6.186442 27.633638 15.722605 32.161530 6.537498 21.741673 -8.649950 1.270056 -13.617967 -16.539577 -1.899537 -23.996862 -12.399907 -11.142578 -23.210910 -13.742159 -17.626302 8.684790 -5.935416 1.847827 -1.416904 -11.485543 -0.647007 -12.314246 19.945867 -5.867063 8.897767 -17.926529 11.857282 -39.469281 -11.039544 -29.900980 -6.199364 -8.026563 43.920655 -28.647151 31.547042 -20.591442 13.708725 31.087520 22.410315 39.588381 6.263511 16.489082 -30.192456 53.951713 -56.094719 22.559684
have 2.680752 34.951361 -51.911123 5.629058 -16.048054 29.587520 -2.816064 -21.141518 -9.259913 -6.896396 -0.675875 17.150608 -30.959229 -0.150646 -26.632475 22.745589 -7.235076 3.968020 -21.668733 2.694472 25.900442 10.895784 47.024727 33.285851 -11.704494 2.695174 15.878692 40.385407 -26.525250 -4.296647 0.724992 -35.036166 9.081747 19.499173 18.890715 17.849467 25.035567 -16.573098 8.991660 59.264264 26.146797 2.766082 -18.964189 -35.895320 -13.713786 24.985595 -26.003315 24.553374 -15.361255 -6.409342
large 7.729003 -5.737441 -25.623977 18.852914 -2.562298 8.236342 7.237205 -15.643825 13.270541 -20.385454 -8.199597 30.673944 -13.737797 -16.868916 -32.467974 -18.211694 -39.658234 14.069712 -9.780454 0.669502 5.433157 -24.395247 8.799072 -0.602748 6.753528 13.139854 -25.052782 7.878250 17.279697 -21.790354 12.314364 -34.506462 6.540396 -17.840966 -20.139128 -8.662084 7.627196 3.882084 29.729848 -1.173241 20.154174 7.868104 0.356238 15.636199 13.596002 -2.857047 -40.862911 12.072368 -32.317810 4.698572
mustache 123.612988 -164.406491 -234.391643 209.753227 -41.697284 -11.987467 -27.944188 -91.658061 -8.618834 7.486523 -204.342067 86.035836 -17.202772 21.119532 89.341084 -192.378289 -164.817488 92.060454 -34.590994 -97.492358 -7.631626 -65.274363 126.333578 -76.221523 -24.930380 41.565654 118.810911 -73.688763 59.312119 13.604909 101.329457 -154.515236 44.307714 -44.370235 -243.274579 59.407439 -51.350184 -52.842533 74.851931 -108.792252 93.261881 -104.237147 -102.035172 -64.265811 116.471151 -66.375452 159.836239 35.076257 164.710635 -8.152179
thin 7.832244 -6.260358 -60.791100 49.633913 -46.672807 -4.102045 -8.923173 8.489261 -35.899893 -8.108565 -81.701712 -27.219400 1.141763 -38.310826 22.959663 -76.539252 -59.053366 37.843759 -44.860065 -35.695072 -30.351698 -10.374602 19.427943 -44.034302 -2.745373 -15.614109 5.329242 -42.389179 55.447211 16.629499 33.329872 -37.581186 -5.886235 -50.469416 -69.751504 -4.443272 34.101832 -30.959042 22.546639 -35.209124 41.539928 20.037913 -15.976623 16.784292 22.674639 14.072490 0.615023 37.242287 6.620113 50.123751
blonde 209.474925 -288.882359 -375.362516 342.642844 -180.160149 -87.353612 10.867136 -139.989285 -206.716199 238.453977 -357.798909 192.512961 -21.004388 -36.653110 255.574280 -219.591280 -271.971846 12.600021 -29.179854 -144.461520 46.554099 -199.784670 366.688223 -165.718120 -140.530876 252.488051 61.447429 -19.684678 -141.257190 48.413227 112.489057 -80.211891 -85.650893 -97.560254 -255.844088 0.911879 -46.957681 12.632711 172.672994 -202.212775 171.417812 -131.158387 -256.148197 -60.880761 111.810832 -175.566826 180.061933 26.949395 306.825817 8.465227
had 6.919162 0.181914 -7.651004 16.556180 13.105633 -3.857505 3.032063 11.480850 6.331809 10.245883 6.617610 -8.665800 -10.552456 -2.026687 -15.408523 6.756746 -10.810370 -0.737574 -11.775562 -11.564458 2.519368 8.739729 -24.740465 -6.752379 -7.707399 -20.304691 -15.760879 -3.386383 25.465985 -6.317670 -14.302595 -5.690411 -10.035305 6.205879 13.581086 -2.805564 6.492670 -2.046972 38.640105 2.034473 2.306191 -4.341621 -17.503206 24.534120 5.947524 18.268923 -5.156932 12.737075 6.539664 -7.233450
nearly -22.966830 61.090248 -33.363341 26.557933 -52.085451 24.051426 10.204988 82.967411 -38.039327 -4.701538 -2.750935 -49.606177 -11.923850 -78.516326 -39.890585 -54.832198 -12.067020 -8.742960 -49.533370 1.653649 -23.244600 4.504065 0.312778 -24.506507 11.096348 -62.785228 -37.410611 -12.108718 14.580785 -15.148007 -36.876775 -43.385544 -47.894390 -38.820496 -5.689921 38.722029 90.062724 -27.284143 66.857206 38.006235 41.934076 47.933397 19.888988 63.812531 -8.252319 45.465165 -51.663557 84.219017 -80.156235 12.661358
twice 28.506456 -13.295467 -23.972654 32.975981 0.569295 13.606813 7.258937 -12.609601 -27.411047 16.408860 -23.206626 1.490500 0.370889 -35.237491 3.783292 -19.236660 -30.585289 16.076138 -11.422829 -14.973371 -5.693511 -14.746633 18.764227 -21.868890 -4.116811 20.317905 -0.317857 -9.848824 -5.409204 15.937858 19.998572 -2.200581 -14.124878 2.351397 -21.000551 17.121939 -9.277372 -0.655082 22.228729 -10.587320 21.972594 -6.494299 -5.584556 3.648686 -7.563544 -3.736364 11.586256 10.721798 -1.132107 6.444927
usual 105.916414 -127.986369 -124.128981 150.594574 -13.039991 2.883610 54.622312 -108.890931 42.179140 -1.982690 -9.158739 141.188813 33.298948 -4.354275 -36.063849 -147.157158 -226.939720 2.790350 33.388712 -98.137948 -11.556062 -102.533256 117.797898 -9.319385 26.053449 123.452789 14.921893 -52.165699 77.751373 -61.697414 78.772069 -148.565437 -84.829988 -96.368742 -171.647612 -1.396135 -46.004469 4.488369 131.938881 -101.345139 67.583771 -151.255230 -69.480834 2.662748 109.827778 -45.099610 -25.719350 81.514424 -14.911582 28.328829
amount 196.822773 -267.519431 -323.246940 275.434322 -84.200155 -52.429607 42.026561 -164.544649 -65.667357 138.251996 -216.857780 226.954480 15.325457 64.083019 144.596134 -215.755777 -248.089175 26.790171 29.517620 -165.408797 14.069081 -134.772619 287.632154 -135.985246 -53.421968 230.308341 132.380360 -51.824048 -11.781817 5.793467 137.164911 -121.622570 -69.259181 -46.971132 -270.437895 28.071605 -87.186269 -6.583934 152.460748 -134.765439 138.973459 -202.121357 -185.279473 -99.831065 180.972621 -146.809653 175.525432 33.968049 192.013355 -19.122439
came -16.204322 8.986077 -16.598222 33.382307 -18.328221 -0.006355 19.959142 9.929212 49.457506 -28.309961 57.548243 22.114253 -10.429350 13.352843 -49.444698 1.243237 -20.760916 -25.451953 -6.692341 7.361168 10.069765 -23.712464 -13.268385 24.790287 13.697227 -13.292661 -45.808913 18.893161 23.466516 -33.131787 -13.670155 -43.219683 -31.954767 -31.302017 -2.277571 -14.376420 37.646378 -2.363847 52.566400 8.869995 3.820317 -5.374556 -13.724401 27.479049 38.485710 10.855125 -58.812473 46.403054 -16.950819 -1.920438
useful 154.159841 -197.853916 -226.404541 207.117972 -134.261821 -25.998682 30.701536 -111.823883 -120.937975 126.996710 -228.431681 157.387995 -12.908738 -61.142890 131.178917 -192.166767 -247.084794 -6.903780 14.453129 -91.072147 46.266885 -156.710136 272.468328 -13.976630 -89.179653 171.110650 -10.977339 -23.221610 -110.970329 -17.580591 56.200247 -93.238251 -90.831985 -120.451541 -173.680547 6.142785 -15.354108 37.164746 171.855521 -149.068422 101.983597 -124.938580 -175.253122 -17.611244 65.752135 -120.163643 36.089522 28.847496 148.526022 25.240397
as 2.911160 12.442702 -10.545570 -6.749866 -12.813232 -20.877670 10.541404 3.798724 7.266616 -2.690188 17.679841 1.492516 -19.479436 -3.228353 -4.765593 -5.318746 -25.938674 -3.191198 3.395000 -13.601289 -0.544195 2.238847 -24.503664 -33.069795 15.435101 -29.909659 -14.698390 -3.075433 12.995233 -8.352430 -19.275680 -5.597235 -20.373751 7.048848 11.496977 -7.174831 3.505316 -8.785422 16.021670 -1.285379 -2.916481 -9.114095 5.367221 20.571273 13.403853 -15.875128 2.689198 -4.773919 6.962628 -13.363099
she -11.436462 10.899504 -35.661569 23.017228 -49.600687 5.920688 1.165920 28.407830 4.474711 -12.596066 3.137817 13.386649 -11.158274 7.348186 -15.408728 -33.188351 5.873179 22.726985 -16.766382 -3.121638 -27.976018 -2.569236 -12.559516 -18.654258 3.931142 -51.504445 -52.697529 -17.585775 28.339258 1.062027 0.978881 24.768629 -25.565189 -0.990421 -2.401007 -24.973684 15.301363 3.099989 -4.524442 5.530108 0.402040 23.821967 -16.282301 14.046178 48.856088 2.413218 -2.109021 7.043764 22.137669 -26.615565
spent 68.760899 -91.258096 -146.842107 122.134907 -112.062933 -41.847478 25.383531 -51.442946 -85.590137 87.100825 -76.958020 83.085921 17.564982 -50.607944 32.831364 -125.475087 -144.448913 10.855392 -27.955039 -51.873848 -16.670390 -100.408555 146.848143 -85.353149 -31.746824 126.583037 -71.127311 -26.624909 -7.590724 14.239334 48.458548 -12.887542 -90.327102 -79.629290 -96.766303 -12.576607 -25.917285 34.681372 79.933543 -80.148516 90.704873 -63.275476 -97.581950 -2.791962 52.284707 -52.385257 -1.637338 35.237181 77.788016 41.049918
so 19.495025 -8.130948 -10.715286 56.054617 17.672901 6.896031 11.424694 16.574888 30.169893 5.843583 36.924227 -5.897044 3.075525 -2.659504 -33.739316 -6.100647 -16.485366 -16.853615 -10.658332 -10.610437 -3.745716 5.153456 -17.472883 -24.206918 2.046846 -7.730736 -2.762128 3.017456 14.511536 -29.490556 -15.017189 -19.935742 -29.936957 -20.204439 8.708453 -18.400451 27.946471 -0.179447 48.823556 -1.794399 -5.552532 12.553232 19.134575 31.089388 43.648701 5.210420 -27.606694 51.993841 -28.710287 -13.317909
her -3.601893 2.816489 -13.836181 -1.544652 -19.912147 18.538036 14.475519 -7.692031 26.625348 -42.448250 0.529513 14.520261 -20.161461 -18.331367 -32.785548 -28.569362 -22.341329 3.595043 12.468075 -12.356629 5.987692 -13.719778 5.429761 26.016144 -0.425623 -3.321121 -22.608377 -6.668284 22.657764 -35.151993 -10.115060 -15.415102 -30.846085 -13.285623 -9.153158 30.611760 -1.530791 2.834721 34.231754 16.118671 -11.655956 -10.939473 -7.194718 6.062291 12.968343 1.846874 -22.479092 -0.583331 -23.446008 -14.324427
time -4.198177 2.837143 -20.209087 59.035878 -13.820497 -9.304262 11.295384 -0.235998 44.581338 -15.561478 24.954785 31.193352 -20.340660 6.598482 -47.441581 -13.967079 -28.051713 -2.538302 -11.431631 -10.218975 -1.201610 -8.007609 -20.043072 -6.891649 22.368736 -28.446098 -30.862459 0.627013 5.487544 -30.418404 -20.802415 -30.256493 -21.124230 -19.173391 -19.737803 -9.948783 14.261555 18.903814 26.792256 4.905989 -2.057999 4.363021 -5.511002 4.168569 39.102365 -22.132206 -29.369532 25.143951 -11.886058 -26.409589
craning 162.992493 -210.083443 -235.492941 244.474834 -2.534504 4.542844 -33.154199 -155.745501 -38.042114 29.592995 -204.552761 110.905741 -8.996311 41.120470 123.279394 -145.435857 -170.023289 96.653534 -33.035874 -108.994713 23.041230 -75.022821 146.796305 -122.955786 -33.045648 113.620882 183.921752 -59.928725 59.357274 55.563271 189.785005 -114.511995 36.354553 -4.866526 -236.187078 18.211114 -146.117058 -66.910917 28.943518 -156.355941 86.019447 -133.806057 -113.993749 -110.251864 139.360471 -87.008861 203.631429 21.077462 198.484137 -21.504475
over 10.118315 -17.259124 -9.673360 27.415019 4.427433 40.737028 28.599915 5.893788 15.448609 -22.333285 26.739442 28.940734 -23.406634 -22.445440 -40.369405 -41.139523 -8.152970 7.318672 -0.243682 -4.165408 3.061732 2.731872 -5.129972 2.049258 5.048814 -36.085068 -19.921629 -12.241603 39.858102 -24.361085 -19.313762 -17.219112 -48.887448 -44.873525 2.768445 -21.802687 4.366467 20.219707 26.038919 -7.388210 4.502802 24.083754 14.113891 58.305932 65.564350 12.489008 -33.977841 32.748354 -47.578001 -18.262958
garden -11.306637 -40.921564 -56.835219 17.301562 -127.240096 -85.950732 24.747288 -3.177575 -67.618572 92.744385 -68.358970 36.515928 15.235901 -51.702541 36.378500 -78.216306 -96.640916 -31.726175 15.216602 -14.713854 -18.214470 -60.967180 85.816206 -2.262522 -20.167834 68.033082 -140.994522 -14.071936 -22.021147 -6.603558 -45.783723 10.717887 -62.669797 -87.772639 -35.875642 -32.165511 50.701847 36.063943 46.579789 -59.053866 43.388057 -11.693420 -78.259570 37.793955 -17.651772 -34.581056 -38.981749 -18.873253 53.756913 84.806999
fences 190.372485 -275.999905 -261.785726 252.730057 -110.083460 -97.603140 78.476768 -188.503759 -153.528518 213.740161 -191.612866 208.802719 66.552481 -30.757359 116.147475 -240.209521 -341.784492 1.401981 27.379189 -167.606925 -25.703913 -175.980152 311.070549 -97.818049 -29.521125 295.571496 -14.158096 -63.939979 4.595159 29.504085 119.402336 -105.775686 -138.560490 -125.394168 -280.583434 -13.872356 -83.295652 29.207935 176.160589 -222.775226 160.653669 -195.984913 -208.342215 -26.723175 116.243084 -135.066811 76.440086 42.316657 134.639985 95.450495
spying 212.397766 -319.108115 -335.431613 334.307058 -139.488822 -113.204621 65.188920 -191.382902 -148.702685 242.312372 -287.244794 245.410999 18.271233 0.936940 199.947281 -223.123513 -353.244885 -0.718818 22.138557 -190.174824 26.906603 -180.392032 350.608425 -129.775203 -87.124627 319.080247 25.500301 -40.319640 -60.870145 7.477693 108.183578 -105.461796 -131.040807 -131.454780 -271.487603 -54.153338 -57.397849 33.291887 205.960699 -236.494778 165.364231 -170.019946 -249.885349 -31.044218 146.745112 -179.757702 123.118171 32.546134 227.052122 58.870536
on -0.971664 0.978936 7.044820 -6.389536 -11.466956 -12.389019 15.325975 -4.724664 -4.082698 2.443032 -13.472589 4.424373 -9.443661 19.910900 0.017586 -5.487701 -19.220917 -6.840116 -7.347570 17.153312 -4.968806 29.887411 4.343175 -3.802134 -28.468341 -1.559271 9.484316 4.448127 17.362159 -1.260540 -12.638573 17.283888 13.851106 -14.477499 7.596594 0.215590 10.689833 12.386843 7.340775 4.798133 -2.431696 -0.567775 15.410556 -3.335358 13.625890 -8.548026 -7.263762 -7.743528 -20.242351 19.261855
neighbors 236.748933 -348.229091 -259.397590 261.163682 -80.788858 -92.017412 65.817125 -158.674707 -168.304514 270.594324 -293.009018 276.756782 29.678951 -24.063966 208.246445 -229.456588 -305.651666 -23.736527 53.228792 -158.242722 -19.315217 -213.813970 376.011446 -137.954572 -69.988800 323.283597 14.839916 -40.191361 -77.204072 -6.604414 129.085640 -95.843947 -111.434180 -85.008279 -277.367469 -6.926218 -46.564502 31.170490 227.478116 -224.629787 172.497521 -197.718944 -211.960893 13.331400 117.003216 -167.768009 123.715355 4.773454 163.130760 31.400675
The 1.318279 10.893023 -47.954655 57.977051 -29.782904 37.386164 -0.953926 23.348804 49.677326 -39.008883 25.586353 27.290857 -33.620423 -22.964216 -48.319265 -51.049029 -29.327439 11.192702 -29.956458 -5.763375 5.980510 -25.680238 -13.168024 25.123111 -11.272848 -75.435446 -42.922919 -9.930621 -1.502943 -46.763702 -9.406912 -54.270787 -25.253485 -31.763455 -16.754570 10.019733 21.435707 3.552481 61.436725 21.592542 13.332946 -14.184753 -10.332576 34.033177 47.565124 12.125337 -31.256929 50.558539 -8.201122 -51.937022
Dursleys 23.600969 5.887982 -40.227929 72.678620 4.044555 -1.072332 8.934023 -11.920440 101.936298 -68.670725 44.787572 50.979335 -43.458923 0.496127 -60.387610 -9.049511 -45.615629 -2.227044 -1.592952 -10.414130 48.093176 -42.503339 -12.219437 55.026886 -17.244828 -0.882338 -12.261450 35.403093 -19.214962 -84.527191 -60.901754 -93.176685 -19.158496 -41.346811 -19.682253 -7.641215 48.303736 31.567822 100.385372 27.895693 11.001363 -34.908319 -2.235724 24.239375 25.463917 -7.102697 -73.474221 56.909485 -21.464083 -38.734389
small -17.444599 -9.905475 -24.618230 0.045840 -35.714557 6.646494 10.890368 -6.673159 12.822774 -27.572831 -43.098427 20.029309 -7.013940 -0.745002 -5.537180 -41.976379 -58.576719 26.779396 3.614765 1.105420 -12.264882 -4.217625 28.207676 7.467367 26.789929 19.073021 -31.233902 -17.616566 58.564203 -24.872474 10.474138 -14.996344 5.322799 -26.643411 -30.231728 3.768643 24.963141 -16.352028 25.222642 -22.963376 25.935324 12.326907 1.395826 11.096534 22.786436 1.951786 -32.329050 5.472459 -24.878525 38.938952
son 44.315812 -115.145247 -57.470441 37.964985 -100.893289 -74.257122 56.963359 -3.037292 -134.538837 172.981568 -123.190142 90.960461 39.427930 -92.753525 71.378895 -135.225441 -156.087360 -39.991839 41.336504 -50.810417 -72.176757 -101.966235 168.693342 -26.180692 -24.001669 135.375778 -148.625455 -40.568459 -36.493846 -1.623218 -11.833963 6.159675 -93.601954 -95.813518 -99.495797 -3.254359 63.303545 46.067376 132.390208 -96.507949 92.436444 -33.382586 -96.511741 88.734622 -16.420046 -47.956133 -26.582460 -8.665218 4.578949 93.472838
Dudley 4.001754 6.837999 -24.157714 3.884909 -19.363017 23.628230 6.463329 6.745309 20.740811 -26.488915 4.500328 13.317766 -9.992845 -2.271753 -17.965138 -27.885137 -11.203768 8.095238 1.128348 0.023572 1.024592 -6.822640 13.552995 20.055143 -13.596430 -3.801751 -16.303060 -5.143179 2.825542 -9.355091 -5.811554 -4.866465 -5.188730 -22.273306 -12.174731 -7.129467 7.105926 14.676387 12.755007 6.511268 0.607913 -2.358068 4.869061 3.315770 26.809435 1.457933 -26.161552 17.557605 -15.050419 -9.732737
their -10.687113 -0.747563 -11.618420 -14.232565 -18.625515 -7.523965 5.860180 -14.944743 7.815998 -8.145956 -18.502745 4.294407 -20.288406 11.411640 7.771987 -12.281114 -10.496150 6.013905 0.551013 3.729464 7.754435 -0.050291 15.306730 24.877389 17.097125 12.864414 -8.257023 8.595215 27.350425 -4.240394 -13.826834 -7.924198 25.158770 -4.087641 4.332189 9.937707 -1.500272 -3.023367 1.029452 -7.773371 10.800957 11.255570 -1.916987 6.080116 0.537434 -5.448753 -14.875044 -0.488102 -9.022452 10.105343
opinion 198.833743 -272.071267 -128.356765 228.752183 61.767685 -27.558477 15.018589 -175.049266 11.845448 82.401985 -168.222607 223.664921 -39.204366 29.074472 136.999800 -74.853520 -143.410866 39.979653 44.844158 -118.091461 37.801551 -130.177693 157.595321 -45.283642 -75.089846 181.697160 48.361799 12.805134 -50.717444 -33.484116 84.340853 -55.789812 -3.340627 -17.203717 -173.421660 -76.261269 -131.929227 63.123406 100.879255 -183.301272 52.655197 -151.026006 -123.495257 0.406704 113.642090 -143.178848 126.166522 -47.854146 184.500016 -81.913800
there 18.729312 21.748377 -37.782549 5.666838 -18.118327 12.986178 20.480963 0.207824 -8.796606 -15.341542 24.421545 12.963071 -32.697753 5.582342 -61.889314 3.928577 -26.808507 -14.915099 19.180605 -12.900932 29.589591 8.281703 3.420187 -24.621750 -4.742502 3.282017 32.730575 28.034383 2.670982 -27.078460 -7.911763 -26.261327 -63.027930 11.162515 32.428330 -4.897954 0.257496 -31.038400 44.559489 57.507916 16.036769 2.525322 25.848472 -5.831558 15.402075 8.125160 -32.940331 33.264389 -46.063143 -19.344765
no 1.041751 0.101038 -16.850948 42.286630 -7.567489 18.358064 -3.933460 8.263659 41.835465 -28.438577 2.064789 18.973363 -27.822071 -20.124275 -34.511406 -10.027657 -1.337709 31.729483 -16.605319 -13.428440 -1.774631 3.723899 -23.257486 7.440054 -3.768936 -25.806827 -55.840325 5.660954 25.190468 -32.016346 -17.497798 -0.591163 -12.324308 -11.222947 -1.589833 -34.997731 8.731015 15.462476 25.452850 -4.475929 13.868262 19.269343 0.643894 39.156100 35.983484 4.751667 -34.583498 22.852186 -3.134926 -29.751585
finer 152.078551 -193.793322 -259.204369 223.183614 -24.819910 14.864942 -20.908803 -129.558747 -44.357826 33.210012 -180.425307 113.768541 16.057737 55.045557 110.032412 -174.443675 -166.198884 71.872320 -21.912498 -110.289632 -0.734180 -68.197919 161.041332 -146.300438 -4.619935 94.708898 193.394729 -79.198862 67.510775 54.267711 197.373573 -126.901515 16.414166 0.866064 -253.693274 59.947370 -128.023638 -88.287720 33.307570 -119.415020 91.378231 -145.877514 -103.447669 -121.896232 160.697994 -84.072437 210.255464 39.338342 177.178279 -23.364115
boy -28.030086 -2.907680 -26.031479 20.612444 -30.773081 0.284949 -2.431668 3.313824 57.071761 -51.807383 28.628697 47.257687 -19.789068 8.325095 -44.793362 -32.793249 -32.233113 9.858838 -0.072854 6.124348 2.856555 -29.993340 -15.135947 62.776439 -3.723244 -41.268342 -81.610540 -1.452050 19.263137 -44.902144 -24.486049 -26.910535 -12.494166 -37.548395 -18.896346 -19.985817 24.452535 24.763275 40.806040 5.607684 -8.344754 -10.724713 -20.657089 22.121559 34.650273 14.138369 -43.867656 14.073123 18.442404 -10.660640
anywhere 152.324908 -209.493884 -207.068585 190.162435 -53.549110 -35.693243 32.626422 -76.569021 -58.719989 106.811807 -213.583679 150.237697 2.309492 -27.080549 122.901263 -195.825227 -199.953932 -1.275102 21.191624 -102.273190 -11.642823 -128.619044 224.470226 -64.273403 -44.467938 119.929766 62.289233 -56.795162 -20.431558 -15.065257 76.493910 -146.219953 -29.454563 -73.757063 -225.332254 59.336607 10.371382 -14.180788 166.614449 -116.059221 116.110710 -132.311023 -126.574208 -0.206487 84.515464 -90.165890 100.478944 37.130851 103.560006 3.485872
everything 25.545276 6.781693 -20.485939 55.387009 14.657038 -0.298926 2.472423 18.366305 7.877723 11.317370 1.956678 -11.322654 -11.481451 -0.203462 -33.185789 2.519106 -22.590648 -18.938045 -31.042585 -0.241798 9.293173 2.678033 -26.608362 -30.053222 -0.206841 -22.095408 11.984212 16.715714 19.212972 -15.122271 10.569051 -57.087592 -19.778082 -23.011697 5.499487 -24.158535 34.587119 -22.851205 42.723988 -7.199670 7.925090 11.563681 9.763469 39.666738 30.524840 14.234996 -29.279204 60.353904 -21.381389 -1.779699
wanted -24.393700 -26.426970 8.432224 -26.724391 -21.392253 -14.325370 10.246739 -21.675849 -39.793952 33.130839 -28.837097 -10.279651 18.788465 14.411134 -9.673040 -44.170473 -44.356763 25.571755 4.353102 -4.213406 -54.455581 29.754009 -16.218367 -42.731253 39.486892 4.251380 -44.619991 -34.463588 89.630716 35.514661 34.465511 35.793108 -11.295656 -16.159428 -22.984847 -49.890855 -7.590377 -22.247727 -39.665387 -49.922416 16.491954 36.286535 10.853713 23.062194 25.020549 -5.527696 -6.728014 -26.735874 -25.246521 71.096714
but 4.274151 14.104559 -29.572835 -11.958154 -37.930382 -12.736366 -5.094756 3.540811 -41.698566 36.172037 -31.314649 -20.943468 -18.547108 29.546048 11.618290 8.670622 8.329346 -4.986449 -37.078147 20.084612 9.967529 24.234852 14.860879 -37.095095 -31.726367 -25.421906 24.971998 25.814057 -1.219045 32.812808 2.932562 23.974671 30.082587 25.563572 41.183273 -5.016465 10.908157 -4.621612 -17.317474 27.199852 2.370776 21.283964 -14.081375 -23.920154 13.165254 -3.028483 16.707287 -0.113606 23.966688 -8.436022
also 39.675947 -7.256643 -19.645108 43.544648 20.572575 17.327654 -16.311481 17.838679 -32.410313 0.704698 -47.139531 -18.485534 -17.374513 -57.023736 3.190111 -27.660074 -29.723195 16.486203 -31.275523 5.880773 6.378658 -26.051415 6.560849 -9.711369 -22.838081 -26.175761 21.939267 -2.787535 -13.635906 8.682147 13.340145 -51.365583 5.686318 -4.297302 -25.607180 29.290888 14.819359 -27.091797 46.598381 -20.958749 28.350276 -7.006788 4.702675 22.476098 -18.028993 11.085941 3.977065 30.923460 -14.257393 -12.547765
secret -6.978553 -18.741139 25.974690 -9.743802 -40.902599 -46.230415 14.233849 7.080313 -41.659938 76.763350 -14.869670 34.156049 7.202821 -48.524967 9.517532 -6.587066 -35.846753 -19.396079 12.140971 12.930269 -23.770826 -65.504206 40.049408 35.637340 -20.992918 48.067231 -144.023335 11.439766 -48.069268 0.150036 -31.128801 33.850033 -33.521916 -49.022909 14.275428 -15.924512 44.320953 52.777103 45.874456 -19.052100 17.816742 -0.164014 -50.868398 66.771795 -67.311961 -16.876003 -72.064793 -34.301602 12.946479 36.931497
greatest 33.116293 -31.311277 -84.597345 98.837870 -141.035235 -33.152254 10.073097 33.443562 -121.863125 104.806691 -109.302514 47.859910 -42.983834 -128.527448 70.512673 -44.225786 -66.159951 -30.952286 -28.871437 -6.061831 26.779345 -117.345132 135.709754 -14.717395 -104.656843 66.355745 -160.878014 36.200808 -172.124992 -19.316684 -54.316409 48.822312 -104.369728 -75.729186 2.324635 -29.266170 70.709192 77.965834 117.690136 -28.292122 61.697401 17.273953 -93.780047 70.665822 -46.960318 -45.013378 -73.817697 16.637142 78.529279 -3.423543
fear -16.715454 9.168862 26.753765 -11.563025 -25.675127 -13.740382 0.980532 5.709587 -46.388554 -2.267797 12.884582 -44.095285 36.871146 -61.172731 -17.874047 -53.783152 -39.947007 26.430913 -31.557011 -11.531438 -61.923705 -17.437155 -16.089732 -10.143893 14.023377 -0.383151 -57.377353 -34.386140 63.750237 31.001134 20.849210 6.819058 -19.634423 -48.358226 -28.802310 -27.450543 -0.265549 0.111599 -21.382782 -56.221889 24.193713 16.144441 -1.755807 37.449125 -19.412567 29.604028 -46.437081 15.246896 -37.163365 68.577714
somebody 113.073122 -143.103583 -127.252552 151.461957 11.519328 17.638663 -16.624129 -86.475528 -56.322174 40.104507 -117.944870 74.444109 -11.506192 -8.346687 71.370089 -81.411987 -78.462957 57.632251 -29.205604 -53.093091 -8.535145 -60.880181 79.230081 -119.376800 -14.670490 62.843823 71.522323 -35.281618 35.271298 54.180169 131.627198 -37.603461 0.229535 5.086936 -128.982763 0.105755 -110.364085 -33.790198 11.322758 -101.605054 57.099389 -68.634622 -60.463655 -27.406397 84.697758 -59.408925 124.535784 -2.181507 127.864526 -33.531074
would 1.602343 12.885626 -29.307600 16.234951 -11.639123 -37.752915 24.869273 2.894183 26.190002 22.524438 64.152592 9.094155 12.148252 49.037201 -57.703233 -8.732996 -42.470573 -36.848620 -8.092958 0.488639 -4.074472 2.777725 -17.886938 -21.000916 10.001091 -7.845399 -20.301482 10.439400 55.779126 -23.235124 -20.047032 -46.263487 -46.176954 -26.129280 21.015503 -20.983814 30.698889 -16.679667 41.857775 20.657388 2.752525 -6.406423 2.313522 2.276701 43.465506 4.416967 -45.097517 46.554545 -19.025384 24.983725
discover 183.440817 -259.942023 -306.672141 258.753649 -59.154697 -20.792402 21.957042 -158.397959 -72.439267 102.290653 -237.181102 172.611809 25.470178 88.108533 156.381289 -224.691351 -239.711160 55.365569 19.866230 -157.199390 9.072897 -91.576694 244.989911 -144.633079 -30.692052 180.275401 197.127890 -84.176846 43.380911 36.189960 185.923566 -138.463172 -37.488886 -46.718669 -276.130707 35.314848 -108.079658 -54.286526 98.921367 -159.859837 106.270904 -161.440399 -164.980518 -115.365651 193.271682 -133.182202 213.763913 24.625993 184.711880 -1.584918
it 15.173578 -2.643677 -21.431751 1.317410 1.949759 7.239499 3.163561 14.123785 -3.212454 -2.486897 19.412164 -2.326341 0.608331 -10.123528 -17.979852 -29.965923 -1.580211 9.340831 -1.460587 -17.630053 3.578266 4.542484 -17.617972 6.042424 -16.722907 -30.507144 -8.405071 -13.362479 9.937107 -12.973716 -21.164772 -2.749720 -30.292657 2.171291 15.236736 17.325546 -17.725262 16.059763 44.360564 5.597563 -7.818934 -9.959000 -11.559630 20.208216 24.180123 20.287655 13.121041 10.394432 -9.911147 -33.701084
think -4.276008 3.291934 -28.886627 -24.476215 -37.635531 -1.068897 -0.273752 5.058057 -4.671207 -8.380744 -22.770729 15.681638 -14.745906 9.678955 -4.992379 -23.979692 -1.824192 3.108613 26.198565 0.882833 7.915313 14.002021 -2.637012 11.453418 -5.701413 -31.327251 -13.955061 0.854977 1.736622 -7.552622 -15.009725 3.861224 -11.006983 -3.939102 7.316003 1.776421 2.593646 -10.303937 -9.579896 11.348556 -7.735239 5.196444 -9.719985 -6.649082 12.642975 -7.788679 14.033643 -17.628774 22.669882 -13.055000
could 3.904248 -3.057343 -3.652097 1.702602 -4.164267 8.364189 22.901625 0.241097 22.401147 -24.781645 12.415508 -1.368911 -2.913480 8.906700 4.840855 -18.077899 -17.221245 -1.196677 20.215823 -30.236310 -28.905815 10.053038 7.255299 -11.274471 -6.062542 26.108538 17.332355 -17.180872 21.860866 -29.635863 -29.176056 19.445764 -16.424711 -6.405860 4.278121 -15.360023 31.513185 2.565939 19.296237 -2.764363 9.277161 11.609391 31.864579 3.608534 25.233450 -5.903750 -25.367270 6.399953 -41.160509 9.119019
bear 197.106420 -260.022500 -231.121247 272.911238 31.581413 0.225037 -18.179152 -184.900170 -35.938203 29.554170 -257.732702 78.216414 27.099995 32.771081 169.198770 -223.324640 -251.409735 119.409147 -32.679236 -163.598469 -6.439239 -59.010357 152.656642 -84.955379 -34.663476 124.989123 239.392423 -110.063243 102.179105 51.195191 186.846000 -185.580461 61.730694 -67.854460 -307.812388 19.855473 -143.390050 -75.726050 48.385200 -256.833294 90.322289 -146.217820 -128.939003 -96.824134 142.495442 -102.973122 226.434563 32.405868 189.674144 29.819111
if 8.810536 6.684072 -10.801847 -10.639265 -9.335370 -9.437557 3.517466 -1.397785 -10.061700 6.326448 4.313878 -2.379721 -21.485213 12.481816 -8.604488 -15.602365 -7.479780 3.814764 -4.522754 7.550703 -5.014446 -5.774722 -1.935133 -3.893099 -16.776453 -27.823272 4.236006 20.386668 -0.543154 1.167247 -9.903083 -14.842601 10.130906 2.643305 18.607856 -20.048834 5.818541 -6.775769 -1.016683 -3.223786 12.664262 8.677838 1.667494 2.018546 2.071370 -4.311572 -13.173280 -5.477712 -5.727634 -4.811297
anyone -3.321292 -9.225592 8.921434 28.774790 -7.042970 -25.432739 -24.664495 -0.364684 48.193183 -25.147192 -38.075759 23.969875 -55.147130 -18.559507 28.569383 42.399816 7.261379 30.490384 -11.290728 10.329277 4.286731 -19.533796 -51.897261 18.273064 -14.842323 -40.541525 -84.050625 33.430593 -8.393887 -23.821426 -33.248099 15.163668 41.175645 2.570743 10.585167 -57.482158 5.588298 31.385879 -16.694268 -27.949831 -14.796871 30.849035 -25.012851 36.325152 -15.355705 -18.315411 1.752181 -53.206185 87.052287 -26.318955
found -1.089725 -12.723767 -5.629498 36.186215 7.829136 -6.947961 19.827604 2.212128 52.425101 -22.665344 20.454636 11.966927 -3.082844 -16.457842 -21.006582 -24.731203 -33.500422 -3.473399 -13.862751 -15.616497 -34.497719 -21.835539 0.064037 2.642280 -4.705935 4.932510 -23.779387 -1.089260 40.737820 -37.599041 -21.809426 -35.522654 -9.646300 -32.419789 -26.726656 -11.720775 25.410707 18.542317 31.339693 -12.629220 33.094769 1.588470 -5.449260 34.183354 21.500504 17.766188 -31.342423 36.012999 -20.881911 8.580296
out 0.036487 -3.221552 -18.239779 -18.893055 -22.696948 -19.375691 -9.406910 -13.679392 0.706167 -33.971190 -27.057152 28.530879 -24.466652 -0.270566 -26.496715 4.740626 -15.995951 26.348384 -0.279375 21.321747 16.582384 -6.008049 -2.519306 11.338528 -0.807683 -11.275525 -29.465298 28.664720 59.401635 -7.722069 -9.391067 1.566665 -10.815619 -11.881698 -0.376781 -13.012382 6.930471 -16.152074 9.217417 17.932051 2.502710 20.196078 -9.312511 33.921871 10.695399 16.984957 -17.222106 -9.897522 0.880489 19.088188
about -9.960389 2.787564 -20.719197 1.542017 -20.200136 4.995979 -1.450366 16.634618 8.853760 11.047682 15.166658 10.254931 -12.856326 33.391147 -9.601566 -21.222466 3.033074 -4.391770 2.003700 2.077502 -3.839474 5.899526 -10.538669 12.624663 -14.376475 -20.386599 -17.368228 9.296394 16.918299 -6.848183 -4.248874 -38.874827 -7.284023 -18.430043 3.838026 -19.811318 17.678197 -30.843072 29.469774 -8.567640 7.649985 23.619675 -11.442342 21.342483 19.861392 -1.495804 -15.939526 17.555492 1.075662 -3.985094
Potters 32.010947 -13.972363 -28.613603 50.189537 -12.772523 3.788531 -23.605589 -18.924028 28.463651 -46.720168 -28.696032 42.287805 -35.784210 -47.173075 -28.383141 -33.708808 -47.267060 32.085345 -13.711795 -2.935446 7.587916 -59.031666 -1.262587 -1.054209 3.447100 -18.132700 -30.086166 -4.188711 10.059822 -31.908009 29.995352 -53.585348 -0.476248 -16.132933 -56.281783 -3.710696 -21.804322 6.941677 22.751807 -22.214041 2.641347 -35.505953 -22.114172 11.273358 6.952053 -11.091668 -8.902783 7.503280 31.800127 -25.718039
sister -17.051838 24.651036 44.076868 -40.024851 -20.586687 -3.329064 6.710980 29.383581 -29.656595 7.776950 -14.790428 -22.364296 -6.166103 -56.025859 -19.851580 -7.690300 -31.589074 -13.265005 6.135422 23.755231 5.307060 -13.509936 7.256548 62.595566 -6.370467 1.359143 -62.291628 2.968786 -21.139379 -13.081986 -43.396866 -12.390587 -25.968647 -40.889680 24.695986 10.638622 51.898985 7.720331 48.048318 2.141481 -4.691731 23.131738 3.020977 52.079217 -64.143096 26.638614 -73.600870 1.340588 -57.676871 43.877960
hadnt 10.957067 -9.355649 -57.715524 31.778342 -17.493170 -12.736467 19.867244 -24.123382 60.221236 -29.272225 49.163605 57.849252 -7.330422 27.540059 -68.121837 -41.347384 -65.196920 -23.996893 18.324389 -18.145080 16.967802 -41.292291 28.694028 23.695333 -0.270020 24.850924 15.326515 17.660182 22.471413 -64.006654 -2.705371 -89.009793 -34.481683 -27.860304 -41.347402 1.576681 12.686638 -4.505772 78.047178 29.305189 15.015902 -65.826431 -10.143511 -5.879113 52.180735 6.372294 -36.850454 54.872317 -27.904447 -7.692396
met -25.951554 10.062587 -27.794280 -2.474097 -45.770033 -6.157375 16.123648 32.567675 36.065403 -24.642827 25.708014 10.064701 0.827901 -0.364384 -8.713651 -59.130236 -26.224319 -4.870336 3.710784 -7.265424 -34.678241 -20.658921 4.318994 25.886119 -10.705735 -31.927178 -61.852513 -18.186805 26.220244 -44.777306 -39.425230 -32.102535 -10.535192 -56.827875 -17.843100 12.281757 53.993324 13.059742 43.360799 -2.972502 13.262129 -3.694474 -13.068133 41.284847 18.619750 3.814062 -42.102668 25.233491 -9.709595 9.617643
for 1.499017 4.667614 -13.560993 28.530531 -44.741435 37.474455 12.790143 6.471082 -15.002609 -49.099854 -62.297796 -13.874370 -46.039265 -33.349885 1.502027 -2.538169 3.468679 36.373522 -37.774226 2.386518 -31.448333 5.750825 19.271187 -51.360935 -17.534560 -0.266664 6.561659 -3.653292 18.229607 6.845678 11.641891 64.479181 12.808687 -1.784903 17.404591 -7.015274 26.153576 6.263875 -7.661058 33.143979 34.694177 48.727029 35.952775 -1.622890 13.637218 8.819140 -32.906693 -1.013381 -32.244499 4.297027
several 9.528158 -20.703788 -34.034994 35.621675 -17.951672 9.975437 -7.480141 11.249226 -1.631840 -7.391134 -47.061332 3.559761 7.672782 -7.392935 17.728447 -59.025594 -49.763901 0.870993 -6.084929 -23.548779 -10.227860 -8.053561 23.996514 1.254396 6.800700 -16.476790 10.294779 -34.703002 32.283439 -21.366130 20.215928 -56.046668 1.027586 -38.675244 -49.133564 9.730770 32.702089 -29.079096 42.445486 -29.352070 16.489825 1.864941 -16.711803 21.261362 21.472442 5.610775 -5.175772 30.555369 -10.105658 25.651772
years 11.925851 18.871015 -31.189850 22.763388 -14.652385 7.156397 -20.426785 36.365836 -35.219564 -17.290540 -0.151926 -3.728167 -16.894983 -49.895088 -30.987320 -34.216028 22.236194 28.467229 -31.365968 -8.195929 -17.933506 -8.794349 -22.716055 -54.726459 -15.538625 -25.991913 -10.566927 -1.150661 10.492123 8.546567 25.070867 7.273132 -19.188669 -6.632077 -15.983935 -13.079526 4.823975 -12.649083 1.854740 7.920396 25.924980 31.771058 3.762966 33.651496 16.135103 14.791251 -11.604367 33.913165 -10.832767 -18.837101
fact 25.116493 -3.607137 -22.182128 53.860063 -2.876930 22.933129 -7.937420 31.995992 -60.622201 -3.921007 -50.156645 -48.573284 0.603483 -51.061336 9.760915 -53.353672 -19.637552 5.704663 -47.077027 -19.865395 -21.444858 2.718407 -22.782120 -90.977286 -0.608232 -50.145554 29.679977 -34.079394 15.933467 25.894725 35.378402 -18.587638 -25.379445 -29.005219 -40.221865 1.905840 12.590441 -41.490966 14.021262 -32.256415 11.106295 51.555310 18.193143 39.273058 17.038022 4.371626 10.021422 42.708466 -13.476911 5.792932
pretended 135.235817 -191.158023 -277.939025 223.875697 -80.843228 -32.319941 -10.941999 -110.711256 -74.130545 83.365074 -219.199814 104.779110 15.435603 44.751277 126.146799 -202.123685 -207.383211 40.560442 -27.157315 -103.323906 -0.901455 -75.901310 188.712174 -151.504618 -22.758456 107.174781 153.260001 -72.567570 58.424885 40.134470 158.512700 -137.996658 -8.435604 -55.353664 -237.414640 44.177969 -71.844168 -83.442941 68.978172 -133.508523 105.864251 -111.903768 -129.986561 -91.084448 146.056885 -89.673319 183.006683 48.265109 174.581732 26.019961
goodfornothing 30.364286 -51.246089 -87.357133 60.787898 -49.379081 12.418626 -33.098067 -41.735891 -64.099617 -14.312852 -113.130587 -10.052274 -22.676615 -53.858841 57.187364 -83.181430 -35.778128 99.516931 -35.435725 -26.695223 -12.494383 -29.189477 50.519920 2.797092 -42.809716 7.344219 -7.447563 -40.319151 1.759070 59.299115 24.667369 19.346155 34.942135 -12.239942 -86.062271 34.423051 -56.999651 8.325134 -19.610556 -60.991087 42.950045 -10.050493 -51.735342 -43.720060 -7.168696 -21.375118 66.180687 -32.377372 100.552406 9.231617
husband 219.511102 -284.476713 -274.283231 292.622298 11.249023 -23.312100 48.110011 -191.641220 -10.914286 90.782401 -172.464691 223.633425 33.775009 72.306099 119.247384 -193.706319 -263.688033 25.458940 23.795706 -165.271457 24.729348 -131.821290 255.638838 -84.084057 -37.321970 234.902314 178.778707 -43.109210 22.969306 -16.985891 155.610310 -191.317834 -41.729026 -51.855765 -291.590776 21.386604 -98.564293 -26.327324 175.518586 -170.129220 122.838199 -217.859226 -156.816202 -80.377793 187.018671 -122.759795 152.935556 73.818878 140.543127 -21.674492
unDursleyish 75.423440 -82.286493 -69.365451 98.928978 21.847555 -4.008854 21.517827 -104.409894 28.685097 -13.126203 -30.093166 54.525394 -0.878596 23.304401 22.639603 -46.542630 -121.384658 17.866645 26.830810 -82.225412 44.004614 -25.605847 47.861850 25.905552 -11.344854 85.382889 87.185348 -10.462839 14.162328 -14.845975 29.780554 -78.580621 -31.835834 -49.945874 -76.003254 -32.805016 -63.791075 4.985582 39.774719 -82.620866 1.933463 -63.356765 -51.467575 -40.086430 55.263528 -46.440777 35.134690 21.146011 40.574796 8.598228
possible 32.634370 -3.421723 -4.949092 37.556801 19.236256 19.922282 -6.627310 -29.860084 -13.160646 -27.775618 -10.806644 -8.483935 -14.253465 -57.011252 1.171469 -12.062005 -37.288612 32.708518 -17.512677 -20.374375 15.689511 -28.396504 7.883993 1.344834 -22.914930 26.630332 15.063136 0.329485 -11.365332 7.682616 20.290724 -8.053526 -10.646918 -17.025062 -17.354521 -18.001287 -31.545263 7.253588 3.807119 -31.552018 11.164676 -3.592955 -2.035391 5.462051 -18.135815 -2.407647 -19.849553 15.494448 -6.096230 -1.263860
shuddered -6.526620 5.792542 -72.358764 51.267713 -169.269784 -74.353624 14.600034 44.635058 -140.581681 125.212002 -73.046115 -1.205672 -13.197196 -122.051567 51.316877 -32.471070 -54.454929 -37.379186 -38.633602 12.933378 -9.042736 -93.271797 97.877674 -67.833875 -63.500575 62.467483 -160.847226 24.975244 -112.304889 27.088341 -40.955022 66.091240 -103.910049 -67.728547 22.435883 -25.493969 60.200992 53.423054 44.638007 -19.995892 60.331990 24.631087 -88.996994 48.285422 -64.099966 -25.492862 -46.726297 1.951407 82.791225 49.743659
what 4.460659 4.194667 -23.583093 22.402309 -6.682840 -4.466598 1.428894 -0.231463 15.137722 -10.134780 12.357560 11.959650 -4.928649 7.992931 -37.674627 -9.090312 -22.534793 4.339846 -3.480007 6.273527 2.357190 -5.573977 -9.551744 7.987586 3.236383 -11.371338 -22.799649 4.350881 14.562061 -23.551563 -17.314433 -9.031721 -9.142165 -4.148191 2.139888 1.742099 10.093179 2.808698 23.427067 7.212543 1.778374 -4.907364 2.600084 0.420906 18.217404 2.985364 -15.285091 8.428074 -0.148357 -10.955917
arrived 19.900389 -25.941631 -109.015413 125.514208 -44.505917 -0.173338 4.683246 14.586016 46.218029 -15.114179 -0.235609 49.392545 -1.394533 4.407464 -9.423390 -71.910110 -34.360812 25.291877 -51.272265 -30.131152 -44.950946 -54.517068 22.036742 -84.770460 -0.239968 -10.445105 -32.386034 -26.077639 48.081440 -18.874697 43.435565 -50.082292 -23.593552 -42.295591 -74.372032 -3.987404 19.320339 4.218194 37.584712 -12.043237 46.689150 -27.149222 -42.858060 6.682472 93.701048 -5.632138 7.798425 65.378220 51.264964 -28.008143
street -28.142743 34.444678 -4.534309 13.383609 -61.814542 2.811569 -3.606463 47.259232 -37.229276 -1.466749 -15.950570 -41.174645 -4.520175 -76.274377 -34.867279 -33.377039 -28.374257 -4.483654 -44.532664 18.120676 -20.747864 -4.844964 -21.259245 -15.649376 7.544770 -47.995174 -81.058643 -7.502561 24.366032 -5.096720 -0.035356 -8.828846 -34.829970 -57.015353 0.976387 -26.758980 58.125741 -19.236393 20.248038 -15.972565 14.869183 61.778001 -0.477543 68.904174 -16.532041 31.296276 -68.948559 43.196539 -34.894244 50.655622
knew -5.446043 5.230657 -33.746496 24.525098 -44.116838 9.492212 18.131293 -9.901570 78.232887 -75.384177 33.892754 48.161947 -49.967006 1.371856 -62.615195 -55.976669 -44.050205 19.196262 20.552805 -10.905344 -1.194435 -26.584796 5.564399 46.380425 -4.434945 -22.816859 -41.100535 4.433081 11.795560 -84.505261 -51.613623 -46.360277 -4.991687 -51.940413 -22.021968 -11.453553 24.560976 40.183757 39.448601 26.486521 17.743182 -26.210124 5.193780 11.978657 39.944127 -18.145198 -59.152743 32.606282 -29.078428 -19.468929
too -9.693364 13.910984 -59.909267 33.649481 -51.233182 -19.081802 -28.386262 16.805163 -38.875765 24.160761 -55.717726 -6.605978 -70.941608 10.544783 14.558858 34.270819 47.880672 23.129043 -50.350056 26.037395 32.275453 31.545813 -21.278092 -51.970312 -13.264877 -57.021847 -23.951317 37.356292 -22.567925 28.933983 -7.825986 40.813406 36.843490 35.904976 37.714585 -25.251063 -1.762335 -19.843780 -20.272396 12.976183 24.810395 74.345066 -3.307453 -9.099770 14.207711 -9.379809 19.217404 -21.225605 78.413893 -28.707719
never -22.636271 6.117526 -47.354600 -1.976989 -44.538227 -17.908166 29.083981 -1.525582 45.233653 -17.959659 49.409630 28.402495 -4.054178 50.526977 -40.350241 -40.342937 -21.866715 -0.690854 24.375080 -30.708651 -20.643902 0.299818 17.351834 33.977479 -1.618088 -12.246049 -20.136325 -0.060380 35.599663 -38.922865 -44.039240 -24.688349 -27.248482 -18.699768 -20.229720 -25.958450 51.371126 7.820500 30.460895 21.323584 16.700236 -8.125971 -14.710981 -3.056637 64.590898 -8.176437 -33.353662 21.832957 -13.873847 -1.506086
even 1.025033 -7.899975 -7.857357 16.781836 -0.535431 14.337864 20.781873 6.264670 5.513455 -10.120762 8.936234 -13.999105 11.740878 15.588651 -8.521686 -11.806104 -31.011194 -35.091145 13.301651 -25.232366 7.730475 2.139687 5.430981 3.823938 1.266958 3.805664 36.209837 13.353780 -7.063222 -29.134111 -16.007535 -42.436990 -30.304526 -22.680331 -6.538291 3.279898 21.420099 -19.246160 36.064048 3.203984 -23.918202 7.156657 5.179100 -1.398019 14.906766 -2.887832 -13.357130 28.401533 -25.013465 7.049940
seen -1.563294 -18.120814 -15.711165 52.226898 -16.883966 -11.181995 -38.924879 -1.158285 44.124637 -37.682848 -17.748741 24.614143 -48.444725 -22.604889 -3.203269 10.310110 13.561346 31.700034 -22.503961 2.988228 -1.489268 -39.426070 -44.051541 -13.825449 -17.253091 -50.639039 -84.527306 5.605062 5.465915 -17.963748 -2.203348 21.068118 12.589715 -10.851828 -17.253560 -41.860761 -9.931949 22.115234 -20.639690 -29.931433 -11.287988 2.654430 -21.091493 33.692171 25.007260 -12.940598 -0.139941 -26.507212 94.721671 -46.431171
him -5.794362 13.175947 -15.723985 -13.841511 -8.531527 -16.410516 14.291339 -2.963674 5.562460 5.611917 11.527157 -8.849700 -5.168344 3.276755 19.954109 1.418163 -1.401857 12.900719 -2.776141 -24.131251 -11.211110 11.904448 -3.291316 -3.300685 -12.806417 19.811702 5.355854 6.721466 8.149072 -15.248935 -28.661844 31.152436 11.673941 29.960293 0.267130 3.930289 -3.938050 -5.214168 25.570721 8.908893 2.971555 1.707785 2.352105 -11.965446 1.264130 8.849748 24.185843 -5.939183 7.055763 -8.500832
This 42.935737 -20.216164 -44.306791 18.748035 -15.006485 13.597034 29.851153 -16.404717 -19.983526 -11.960331 -30.339594 33.439593 -25.375006 -45.698576 -17.360129 -64.374535 -72.271290 -1.289347 7.745597 -27.239568 8.343878 -22.262085 25.109615 -37.424372 18.224934 1.743239 42.887253 -9.410136 13.012456 -13.811612 22.914362 -73.728920 -31.947429 -28.304595 -51.251834 24.276549 -8.550793 -25.071260 35.032690 -11.282576 17.650144 -25.366641 -0.479237 3.561084 14.668709 -15.164524 5.179993 22.701421 -25.780366 -4.501550
another -10.554194 -26.109701 -19.859125 38.383602 -45.691344 -16.433607 -50.886222 13.748754 -7.282120 -1.050607 -96.199498 20.803468 -63.387503 -14.572440 66.881497 -3.914689 32.765445 74.718346 -31.047067 3.979865 -20.767143 -18.511056 -26.927284 -34.770260 -24.080634 -46.574453 -74.688583 0.885927 -7.989201 8.723759 4.653936 55.558080 56.969858 12.590962 -22.445674 -26.558363 -24.544019 26.132986 -43.203087 -40.993451 5.694408 43.499829 -50.289487 5.735011 -4.975548 -33.228224 57.999281 -85.071891 132.265715 -35.818981
good 3.580273 1.384913 1.428795 35.574819 1.044657 37.569052 11.517786 -1.096644 65.720994 -47.633259 23.350685 29.806004 -19.605980 -26.390197 -29.556854 -19.265003 -29.034381 -15.540130 4.272135 -18.936913 -19.909849 -18.231149 13.012402 32.287668 -16.015433 -16.014977 -1.686258 -14.477661 -2.763897 -58.815549 -19.481687 -29.370334 -38.549466 -43.106946 -3.016803 13.162712 20.350857 21.622025 44.496836 12.517664 -4.823433 -3.554178 -3.957199 32.655744 16.126620 8.151509 -31.023153 37.806000 -27.688658 -16.772188
reason -9.627014 20.727108 -41.121775 52.601374 -42.645173 6.128073 -9.325037 -8.939990 47.589124 -44.220342 21.471468 42.236961 -81.972737 -20.202002 -43.273368 31.411363 2.116662 25.737052 -17.065343 6.646531 35.952181 -36.761131 -34.598450 -2.536932 -14.952301 -40.720493 -78.963716 41.905803 -26.463240 -29.537048 -26.786128 15.006581 -15.590924 3.816652 30.911803 -33.257478 -2.091072 36.762786 6.662759 32.805736 -3.709238 17.007457 -17.570525 0.881900 14.857258 -17.519663 -36.909053 -17.510514 48.505314 -54.899972
keeping 69.885839 -73.569288 -10.655743 95.856272 38.327355 23.699157 -24.919352 -23.709649 -47.647161 12.661151 -81.736027 10.358965 6.754243 -64.459682 46.567116 -50.345779 -49.215127 35.338158 -38.877571 -17.717637 -18.818401 -54.849474 40.374215 -47.230612 -26.121573 33.260002 18.777643 -28.198228 4.012084 14.423756 77.178540 -19.349800 -0.647069 -19.303948 -73.564212 -1.163266 -44.628567 -3.646774 34.087641 -87.397762 30.046596 -23.321758 -13.324161 28.607942 8.700411 -13.686338 27.954829 20.880194 21.366482 -15.033798
away -2.662673 -8.441241 4.515423 19.130217 0.622649 -4.922204 18.283927 -0.659184 40.573666 -9.839186 33.830222 29.093751 -5.340296 14.992573 -40.067668 -7.176575 -41.326079 -16.141313 4.743372 4.427945 12.587626 1.896312 -25.108010 7.606800 14.845371 -11.244880 -33.314325 1.850607 30.095986 -29.285598 -6.314901 -28.893140 -42.056628 -30.965183 10.388973 -27.490551 20.739577 -0.350716 43.560751 -6.604709 -15.473152 -18.827584 -1.430479 22.579412 42.228511 -6.026309 -41.500695 15.602495 -27.522426 2.090110
want 19.271688 -32.468704 -30.667650 16.410249 -29.938287 35.565630 40.859406 -32.771750 -5.879209 -7.071543 1.395809 65.588218 -9.140433 -9.252809 -39.262481 -78.188316 -72.699159 1.286170 43.760567 -24.438594 -16.560900 -16.456045 26.719542 -3.830719 20.794364 -15.664879 -26.302128 -22.982678 24.893832 -17.440418 30.999726 -16.970373 -59.294071 -42.915344 -40.231135 -13.544688 -20.068310 7.573017 16.795209 -18.953214 4.217936 -12.390792 -3.368679 7.024193 69.008181 -21.913952 -21.440334 2.399929 -40.602961 -8.819473
mixing 218.551066 -272.697324 -245.453030 282.808453 -8.444329 -40.291241 8.855601 -176.092698 -103.483098 153.388444 -213.409591 198.092935 -1.509325 29.699278 144.369972 -126.449227 -204.683737 51.724320 -8.808413 -129.330405 31.927962 -135.580669 230.177568 -154.792996 -69.789126 225.352241 115.293031 -20.531647 -34.238001 50.794083 170.524765 -64.407435 -48.211056 -11.341347 -219.818950 -28.828360 -144.661841 2.124987 107.842730 -173.429838 113.844253 -162.170366 -166.092257 -68.609830 133.935498 -137.655164 177.835009 -1.421013 210.885568 -36.890579
child 101.008952 -130.129945 -58.464634 105.715434 50.772306 -4.111709 0.472739 -110.441212 -24.112949 35.269134 -81.575183 63.872485 17.262818 11.760172 49.993872 -62.237851 -112.661933 56.021941 8.908680 -77.098971 5.802695 -38.573822 70.397775 -11.440586 -17.397392 102.451273 68.592162 -37.771037 31.950292 23.034978 76.420608 -45.189702 -1.032100 -19.665051 -103.357210 -23.206135 -92.798614 6.181524 22.618671 -120.084651 28.350790 -78.527504 -52.372608 -33.773238 52.804444 -49.047371 71.843588 -10.542729 55.111356 10.867778
like 1.104048 11.056111 1.537895 -2.026909 2.545711 0.251186 25.946255 -3.167830 34.982150 -22.604549 14.662837 12.316733 -1.174753 8.484286 -2.050137 -8.399480 -37.471080 -15.250059 10.386102 -18.540738 -1.790436 -13.711501 11.057477 21.398076 12.266794 17.384815 17.685412 3.301097 2.446130 -39.327230 -16.499741 -55.604565 -22.786319 -24.639492 -1.956767 17.045597 30.871470 -2.660117 37.659164 6.864201 -5.733231 -7.216209 1.209151 7.071478 1.679564 -4.348716 -18.661044 16.489244 -23.104092 -2.567031
When -17.289987 -5.145996 -4.779468 59.197104 -39.158602 6.034074 -60.278410 57.996832 -35.580683 -10.487440 -132.643880 -31.035879 -67.628135 -74.063938 69.221963 24.003787 45.014184 64.713743 -83.791872 27.591177 -31.236304 -10.856420 -56.388922 -111.402518 -35.412609 -73.888641 -88.085117 -0.736900 3.568473 20.761465 23.000540 86.084207 55.502654 3.960075 3.524878 -46.371957 12.275542 -0.859887 -42.530896 -43.931057 13.607567 106.159038 -11.575914 70.371383 -13.411380 -10.526345 25.318083 -50.648573 106.802288 -29.120782
woke 14.641849 -32.747356 18.115289 36.668876 3.531467 -37.214083 -18.262760 -9.036982 -62.856340 63.008018 -63.102421 -16.073721 5.564411 -36.996927 20.236637 1.335764 -56.838869 15.201431 -39.611489 3.921860 -15.958480 -16.172748 -10.142665 -44.873371 -0.464363 29.406750 -51.467326 -2.251651 29.283694 31.078545 41.481784 -3.818842 1.634731 -35.759769 -19.812786 -53.508261 -15.749998 -13.958641 -0.082237 -86.892631 11.975352 32.443323 -27.408032 54.291746 -23.274192 -0.921187 0.460194 -15.589139 27.960769 58.029339
up -9.840634 -2.715915 -3.705416 -15.822802 -1.140611 -8.488639 5.120903 -11.698516 -19.607762 12.312613 -31.011535 8.908881 -7.230313 16.534874 -13.506439 -7.183473 -4.230630 1.670165 -9.976474 0.596722 6.414912 23.702095 5.865439 18.735538 1.614734 -3.513060 3.475255 19.548509 15.069430 5.773500 -10.139840 -12.370027 18.218502 1.108828 9.445125 -0.569982 -12.393036 -9.057055 18.613914 0.272353 2.538214 33.918443 -7.812628 10.336794 -4.907456 8.790306 -12.391956 1.908922 -22.851742 5.860099
dull 70.949943 -85.362746 -140.418134 109.873133 -32.297601 4.702378 5.120841 -66.355920 -60.545178 22.420561 -73.617454 31.868399 54.543239 -3.654024 37.938874 -131.282413 -137.686371 32.026173 -29.731986 -64.979290 -32.445826 -42.776811 96.492723 -94.238517 28.816520 71.682813 97.267251 -72.104240 86.974001 49.589884 137.395610 -92.654448 -30.242051 -35.001519 -156.230395 41.194256 -67.973816 -70.153353 18.439755 -82.145051 69.871802 -77.326029 -55.870227 -59.566494 79.238180 -17.796207 82.770430 59.305374 49.693646 46.696211
gray 2.775237 -11.021891 -1.075740 36.279279 -14.948856 19.075746 -30.569957 -8.261204 -0.471117 -28.487713 -42.407930 12.205988 -28.204962 -43.556869 4.714281 -22.280971 -6.210556 56.014364 -33.486667 15.065732 -8.737310 -36.748725 -6.270088 -1.657431 -11.419768 -16.875779 -72.902896 -11.471626 13.598174 6.870132 23.190565 27.452111 17.856457 -14.651559 -15.174801 -15.936847 -22.412149 32.013626 -3.158440 -33.983832 16.556144 8.065919 -7.947601 25.554278 -1.328973 -4.030000 -21.937575 -15.406236 25.000775 -15.341203
Tuesday 86.255487 -102.096945 -128.640215 116.898717 -14.839154 2.486303 -21.140430 -83.198342 -72.001920 26.138041 -115.254013 33.501226 12.254843 19.482291 62.330863 -99.317204 -108.753791 59.146308 -19.458796 -66.265566 -6.552706 -35.458060 75.854531 -128.211661 -2.983709 65.270842 128.364405 -55.655691 59.530415 66.787108 148.761534 -40.738725 -22.808360 -4.761821 -124.165864 2.277807 -109.062438 -55.640435 -16.692036 -88.972627 36.740710 -59.488739 -55.434472 -69.982185 86.942898 -51.340082 128.724066 -0.440815 93.827599 5.941502
our -16.632974 72.423453 -110.146512 51.182999 -98.916569 33.112243 -11.613844 61.482080 60.210769 -98.579423 2.265591 11.367046 -62.991990 -41.911082 -84.081022 -43.452085 -23.868849 4.255893 -37.140114 29.984146 44.201486 -37.028120 15.598412 33.168624 -17.521605 -71.931331 -38.678053 32.096733 -28.237379 -66.848927 -33.299848 -102.432021 -25.480675 -38.652219 -10.726550 39.785929 95.496311 -14.067001 86.757309 94.212715 26.984563 -9.543197 -5.553113 -11.242617 29.055395 37.380222 -80.150997 92.152663 -5.774713 -38.497618
story 19.310947 -6.649908 -43.399647 42.431797 -60.345777 -6.007782 40.175733 68.168227 -131.073383 75.360666 -78.656972 -34.929257 39.783509 -122.242316 25.079036 -116.826838 -102.807548 -43.068068 -41.529407 -50.031976 -61.659230 -45.366694 66.655664 -79.583798 8.686503 8.094214 -7.786974 -44.757665 -1.636284 2.346982 20.444902 -70.044085 -89.357161 -76.963914 -97.566150 38.077328 88.559420 -44.895943 104.107073 -33.461165 60.437984 32.123914 -15.730288 90.364519 -24.625393 25.072976 -18.767984 99.378728 -64.679846 66.815713
starts 112.885779 -147.855985 -136.785292 148.902555 -110.308662 -64.977828 29.473200 -95.397096 -158.580535 145.065724 -169.323461 111.479562 -12.546867 -88.719770 101.590261 -119.907654 -187.188312 35.445929 4.912352 -94.138254 19.118560 -138.621589 190.256922 -36.628532 -99.652337 184.084966 -92.431613 -3.078612 -110.841759 18.385450 18.858933 34.827300 -117.739635 -98.508766 -89.627721 -57.951390 -51.499346 86.818469 102.951126 -143.708213 82.744311 -60.974843 -152.089237 18.403593 -2.393488 -112.277026 9.953083 -38.654260 125.499256 30.352397
nothing 27.554586 1.673393 -34.570410 61.769071 -24.183386 13.662375 -2.192451 -23.202977 105.232622 -90.739537 7.709989 70.297082 -76.344832 -19.756945 -43.682212 7.978106 -34.632617 13.977826 7.444061 5.122767 65.588601 -38.055758 1.077000 62.222781 -23.348939 -4.387732 -45.331522 50.194145 -49.377667 -104.764770 -53.660220 -54.287905 6.049992 -19.607072 2.133683 -12.960483 7.479878 53.954679 74.051006 24.865240 14.554065 -31.099135 -7.217330 2.889686 23.573962 -20.882158 -65.750424 14.027133 13.467746 -62.761666
cloudy 200.000324 -291.045470 -342.850023 320.622382 -129.813613 -77.324977 20.888801 -173.850139 -133.944307 205.432446 -236.573364 231.923982 20.663739 -2.203844 156.004791 -221.556678 -259.069131 36.893876 -30.174872 -118.396212 -23.011926 -207.973793 338.244005 -172.234632 -64.187276 263.239795 2.420502 -44.806610 -12.041157 55.497655 175.422622 -77.588965 -72.240603 -61.013344 -290.259032 4.508283 -95.826826 21.419781 141.891904 -183.454610 200.673065 -203.012128 -224.358115 -70.917880 165.480233 -140.800825 145.742770 41.642483 247.726237 21.976147
sky 37.896696 -27.216358 16.331906 50.801068 -25.601791 2.460801 -20.622376 -19.913917 -99.828389 50.217902 -115.043484 10.881017 -65.822375 -121.404667 76.381686 44.959813 -12.117717 45.309486 -29.360420 -13.882253 38.954304 -54.211989 21.775864 -16.852152 -67.967687 44.102292 -88.997998 33.305066 -116.168728 30.743254 -11.455971 100.685800 -27.253456 -12.728243 45.764515 -61.455797 -49.942272 62.763668 -8.610983 -70.568481 -0.773346 68.164638 -56.372462 47.240755 -82.958862 -49.428720 0.501343 -73.369622 93.481397 -17.980115
outside -3.740030 7.832805 20.063622 29.769065 -10.385771 4.667601 -7.007029 12.689740 42.275738 -67.907121 -13.231557 13.426206 -47.632203 -64.993604 -27.127052 -8.180233 -3.202421 22.532428 -10.134478 11.298380 10.086025 -32.358285 -21.812852 41.586712 -30.063994 -31.461075 -82.297391 20.042135 -20.127633 -64.124015 -56.603671 0.881916 12.950925 -39.643528 -4.520248 -29.460112 42.218661 49.763599 46.125209 2.651051 9.171410 28.455495 28.946046 64.471194 -14.172612 3.803581 -84.736086 3.776463 -25.613682 -19.371581
suggest 81.974238 -154.285441 -112.592864 137.913890 -123.180021 -102.167860 5.358516 -76.656420 -176.030559 184.891723 -184.519618 105.873605 -23.781060 -99.475361 144.036043 -49.248986 -131.665003 40.797994 -9.465393 -62.516103 0.151887 -121.924793 150.958283 -78.195676 -98.979507 177.694674 -173.051967 21.332946 -98.380818 51.884980 18.821401 111.758474 -80.082348 -55.593528 -66.857138 -107.232846 -69.551734 82.233918 41.892371 -171.213014 82.447311 -20.623847 -169.964483 35.528765 -24.518771 -108.058429 51.712744 -90.537595 220.806368 36.814888
things -6.434177 11.895900 -40.919493 60.098618 -32.939494 -8.772350 -24.638209 14.566842 -12.327577 0.063208 8.125046 3.104268 -35.674300 -23.543625 -27.187642 11.960398 35.935781 49.582381 -68.893962 20.589905 -32.984606 -31.235116 -36.582092 -91.428663 -8.328675 -45.972894 -99.240475 16.088340 33.425069 39.613671 37.720429 73.099952 3.400795 14.776978 9.785418 -60.887284 -27.964877 22.935259 -51.121790 2.042186 23.505464 46.623166 -1.504120 20.836413 36.177009 -8.153905 -19.072032 -7.040698 56.638597 -31.867813
soon 24.455115 -22.847261 -24.353778 36.961341 -2.168655 10.781201 11.770715 -13.007520 15.148907 -16.716880 -27.250047 12.982645 5.039820 -26.886738 13.884898 -40.197896 -47.390623 1.612686 1.696375 -19.539214 -3.374126 -19.200498 30.840883 4.121745 2.293863 14.144831 22.394843 -10.198110 16.690207 -13.778822 11.080988 -47.857537 -4.804920 -34.151759 -40.722595 7.357218 13.261233 -11.327732 22.521585 -23.418357 21.402892 -12.716617 -6.401459 1.154750 7.452268 -1.825657 -8.722638 26.861541 -16.673504 12.114610
happening 179.851279 -221.385679 -163.212527 191.292523 53.448193 20.083733 9.619664 -209.782907 -24.844982 9.656201 -88.823581 170.899006 44.761026 37.453104 28.037876 -163.319486 -215.160069 90.068078 25.085188 -133.897738 -11.605576 -102.180478 149.008048 -86.306211 18.678072 190.301086 129.804590 -83.564995 117.461787 27.932722 206.273973 -98.204200 -44.999467 -23.864600 -244.878844 3.461105 -213.258907 -22.667938 43.048955 -160.789566 77.302397 -202.256292 -81.462846 -87.946560 158.079643 -80.112965 121.684923 18.513150 79.389609 -9.787516
all -5.085142 10.761306 -39.833546 0.055635 -41.776956 2.848370 6.164225 -0.146126 22.075364 -38.129557 7.258515 27.215184 -32.491110 -9.915768 -37.894783 -16.200017 -16.625755 6.563047 11.062678 -4.693187 7.426301 -7.518684 -11.891553 -4.027678 1.531732 -8.815601 -29.534462 10.663784 36.248333 -40.559491 -15.174645 1.820981 -26.297213 -11.154673 13.044890 -3.205901 0.800131 -6.195035 18.821973 21.472938 9.956431 7.924157 0.199338 14.139585 22.108696 1.866617 -32.459201 14.257843 -14.296659 -16.442369
country 211.314433 -262.189738 -251.020533 283.932614 5.754157 1.086177 0.560292 -176.952078 -53.446271 75.762315 -197.432602 186.553433 7.362111 28.148077 102.012980 -188.918428 -211.922686 88.654324 -16.583688 -134.582108 4.439336 -130.342678 217.389706 -123.204317 -37.816811 185.109157 127.032910 -66.534114 39.344746 36.251800 187.269932 -114.349211 -20.334858 -24.492244 -275.925720 19.541028 -150.492794 -15.345553 111.722302 -166.459051 122.196095 -189.151935 -135.492119 -80.222991 164.918257 -109.353557 162.319408 30.613112 165.997113 -35.317303
hummed 197.829496 -283.527604 -305.032959 288.329805 -119.375284 -85.775437 57.047998 -154.736243 -160.787250 231.041227 -223.099602 209.021593 80.635332 2.286580 127.101565 -266.678306 -345.625356 -4.052863 0.953663 -151.082657 -39.829269 -172.047634 324.224660 -180.180841 -26.382405 273.828642 32.785743 -85.720948 41.088592 34.177590 192.225385 -134.601749 -132.738189 -121.671255 -294.123059 -10.960172 -61.254575 -22.634490 175.477503 -215.124289 173.652261 -188.437462 -209.895629 -28.730687 162.263518 -127.102204 106.301907 75.829512 143.535065 92.320643
picked 101.562308 -126.454940 -133.723386 138.887432 -26.638668 -1.256937 15.143567 -65.352805 -26.311441 53.293975 -149.079779 84.922422 -1.184350 6.924370 61.975383 -138.429225 -164.847963 22.419062 13.970971 -81.171047 16.944709 -71.882533 138.767778 -13.622767 -37.380722 89.386969 83.199898 -42.243220 -4.339117 -20.689826 56.645498 -119.384538 -38.826255 -68.315406 -128.614625 28.354351 -4.543465 -7.968405 123.142516 -82.624733 44.226072 -83.656612 -91.758557 -14.458307 63.168676 -55.671327 59.885124 31.607463 43.108510 7.344508
his 16.530423 4.136290 10.658720 23.259540 19.576030 -1.688074 16.628097 6.041155 4.983973 -16.481313 -16.589430 9.411658 -10.479504 -27.908360 -18.367805 -21.894783 -24.597787 10.808333 -23.190494 -12.366099 16.433778 4.236419 -4.031522 12.294907 0.220048 -17.045419 13.022168 -1.520365 26.573148 -7.059436 -35.473380 -12.849018 10.590807 -26.235139 -20.983108 7.987486 3.250353 8.882021 46.896365 6.849873 -2.749352 -5.973504 11.200180 49.305088 4.648434 2.195734 -33.903532 19.553808 -48.720479 -4.812894
most 7.457597 13.338253 -2.450049 58.732255 -21.974237 -1.904046 -28.182151 9.054803 72.439010 -72.466293 -15.025710 30.941651 -72.412868 -59.511547 -40.867248 7.800469 1.608430 27.352695 -29.866526 28.975112 30.801198 -50.971790 -35.262932 51.449989 -32.956544 -56.647738 -103.391072 38.788930 -41.963522 -73.118127 -55.543142 -21.468846 23.144013 -33.032083 4.457914 -33.486041 29.549136 55.535275 44.059580 4.691849 3.423938 11.961212 -9.050613 40.458453 -9.776921 -7.230941 -72.619025 5.892477 35.317555 -54.528621
boring 77.683415 -108.386031 -84.199871 111.506215 -117.964546 -63.917839 28.634440 -55.222060 -165.854384 149.547974 -148.131163 72.479323 -7.956381 -120.912307 111.982102 -68.914346 -140.290054 9.538155 3.638692 -56.835827 19.046561 -122.830154 163.746355 -17.362115 -101.815047 169.640228 -141.079548 10.758885 -139.970140 28.975045 -20.079994 79.606734 -115.550711 -90.093434 -39.438143 -66.306805 -24.816486 101.424145 78.676742 -130.737896 63.986975 -23.102025 -141.128837 39.037276 -44.878416 -83.782731 -12.042974 -39.990085 130.262281 42.390646
tie 62.084120 -28.582265 -312.669954 204.389233 -327.151623 -90.684315 77.460828 -13.026454 -211.658670 170.206794 -121.185089 62.033454 -3.437576 -144.738466 68.101325 -166.430903 -248.791913 -92.698322 -44.104618 -79.182784 76.925661 -175.528312 290.435026 -77.374083 -122.124131 183.895013 -94.870906 30.621639 -209.027354 1.104721 -47.289641 -47.711423 -259.801238 -180.566351 -57.455378 -6.345356 97.567452 47.630981 187.667874 -31.681849 130.621214 -45.515488 -195.325753 -28.240554 3.479132 -80.381779 -76.772557 135.221256 135.198975 84.829850
work -5.460036 -18.796448 23.672146 4.114720 -6.809164 -12.829192 3.633688 -5.713387 47.969927 -40.198848 13.861469 30.602979 10.646510 -2.396712 -24.231691 -27.111135 -42.062323 0.647260 21.024965 -10.157966 -9.725800 -14.200110 -19.027775 33.632192 21.219165 2.084012 -50.416646 -16.063901 44.890747 -44.818397 -3.303857 -33.323446 -18.544159 -40.405532 -33.675770 -21.834274 9.153204 2.870401 34.712746 -31.707197 -12.337846 -20.980647 -24.811048 38.663279 13.306618 6.378438 -43.558197 2.217951 -15.972455 23.974396
gossiped 192.225694 -276.287921 -329.800191 296.478261 -64.266532 -21.150271 5.233520 -173.852875 -66.577863 91.694253 -253.914119 180.643061 27.982079 54.180725 147.997559 -253.985511 -251.370485 78.720354 -9.472865 -153.099112 -8.198467 -112.702536 258.470966 -132.283797 -34.968331 171.412151 157.585486 -94.966192 60.522131 39.333021 184.176745 -149.896419 -7.096903 -60.964824 -318.812007 39.626002 -99.488227 -47.881014 112.064337 -184.730320 144.217348 -177.608464 -170.218213 -112.334203 196.106689 -126.387664 195.218338 44.671835 199.403281 11.433408
happily -2.107698 0.658248 -68.623410 34.320893 -63.581534 -21.378000 -3.920064 -2.728806 -29.986930 4.005605 -13.689028 -9.565852 17.090547 -22.471322 -2.341513 -68.651327 -53.231132 17.877322 -32.191299 -15.640700 -36.842782 -29.690321 31.640643 -64.634191 6.946607 14.094763 -19.617605 -34.677044 58.538286 27.240806 43.135753 -19.720812 -23.626591 -31.971360 -47.423425 13.201087 -12.690638 -23.068853 -11.445303 -16.958807 42.760308 -24.578353 -24.387042 -11.805552 24.352220 2.918087 4.461271 25.386311 26.258080 38.289747
wrestled 64.411267 -106.104835 -127.234793 131.852193 -188.127578 -90.609699 30.406025 -29.991924 -209.153241 211.338648 -152.190874 74.319107 -9.038245 -121.120022 123.924177 -71.065386 -129.704142 -36.625116 -23.880461 -41.798715 14.142115 -127.988100 185.214456 -99.566642 -96.707067 166.173383 -165.779859 24.820925 -149.101639 40.852982 -2.690110 91.209159 -151.812217 -97.838669 -23.045646 -78.318227 -8.693958 83.876603 75.343034 -121.141245 75.187608 -3.576482 -161.375334 43.482915 -24.127784 -92.597242 -9.110506 -24.698858 157.313104 56.030657
screaming 194.638174 -245.862765 -196.045546 223.978285 -53.681998 -43.554050 27.445953 -125.343115 -170.329165 181.885824 -239.363036 171.207104 1.700570 -47.432425 144.233135 -164.253708 -218.032521 31.400985 17.550284 -116.530960 14.821419 -149.745077 238.312905 -109.950446 -78.390203 207.431709 22.420486 -27.443113 -79.626653 34.634462 113.506609 -41.966567 -93.413626 -55.861713 -201.888835 -6.161592 -88.464267 25.197992 149.128029 -174.230233 105.681728 -129.470103 -166.194622 -0.920336 70.877350 -138.173793 121.902002 -20.969144 155.018942 -1.502357
