6841 10
Harry -2.565869214410529 0.1933318019227981 -1.8867841549089563 0.43698196980760773 -0.875074369993337 2.0085016551691677 1.2334281514858119 0.9239776678630314 1.9696645339727774 0.47718089765871535 
and -1.3565493902257693 -0.9567989261375957 -1.2026871608983218 1.8116955107964252 -0.7148271630925508 2.929422877635993 1.1806950949253017 1.5453589083982677 2.147232661403267 -0.36607294376119737 
Potter -0.854769534163865 -0.11135414645694242 -0.5718781307611207 -0.21816294860464938 -2.1657113045959533 0.21974548766684884 0.8096401761643057 0.21790501970633075 1.5649525975619685 1.2771530315014208 
the -1.8377945001632598 -2.0605083244192484 -1.0316470634966506 2.3954537331956907 0.5652101105591274 1.7890681403192308 1.8979250342623668 0.822937757026063 2.274756919264542 -0.2675030359271393 
Sorcerer 1.2260575054910259 -5.216618745862641 -1.0770005971308114 1.2678650405355056 -1.6144977921900896 -1.234620508059127 1.5472990945731457 -1.4906327081431825 0.7997036445938883 3.02619306990043 
's -1.9374909920920271 -0.15376841445172293 -0.8243455054663327 2.1544359869899194 -0.994044673365742 0.4228320074683315 2.156441499714445 1.1422113911416494 0.7345969182004558 1.2728916424970638 
Stone -0.8719424867213003 -1.0608227433445803 0.0655040240460093 1.1187308774891647 -0.3606597410696385 -0.18679061756212484 0.8000079038152663 -0.26475013928518615 0.6905915211764189 0.4790451944540302 
CHAPTER -0.4343393947976172 -0.6320358521098952 -1.0429745403930608 -1.2400488713598747 0.9195939787314326 -0.44997052114872466 -0.4039637946943548 0.7085998266284501 1.078761013238704 0.5233422402911115 
ONE -0.30011155521467464 -0.06894646404470792 0.5429777211273616 -0.09770958831429633 0.21368094207413646 0.4938016998984871 0.21618388105016098 0.10505876959161749 0.2301444659341153 -0.2209143465984035 
THE 0.3079975113802457 -0.7691595808289836 -1.1291669192131628 -0.9665832068017974 0.5772361120339989 0.8433004540249511 -0.9761759741503091 1.4309629367963947 1.4536635648163436 0.026400360394179832 
BOY -0.17897543903904545 0.09528683256726361 0.2300971260068458 0.34216568031480266 -0.43134707917623166 0.6471755173630158 -0.8189737254101792 0.059221994521260285 -0.3184019578740137 -0.36311863833218566 
WHO 0.5411440626811522 0.14130666870630593 0.1604380304340153 -0.12675541652721617 -0.19440155655041297 -0.03186827619299248 0.4111459470845921 0.3114298945930509 -0.43794847526159425 0.10849401440780376 
LIVED 0.5805771219800078 -0.32061949353353736 0.08629497946246237 0.3421035350783301 0.008274797259281486 -0.22561197661326213 0.2640336793126642 -0.10886412425007051 0.06570994364430699 -0.928057158435436 
Mr. 0.32204062720538557 0.48739776428139053 1.0691458666627216 0.933905568797336 -2.103948552912372 -0.5516151523838573 1.8131128191710384 1.6789046661745268 2.0828831034992112 2.101696009226599 
Mrs. 1.1534857775861378 -0.7497070454069001 -1.0374019045776033 0.8208126271903984 -1.2730456414625828 0.03032756213592369 0.5606216595061629 1.335748973267812 1.0480777603368532 1.542665488569161 
Dursley 0.6081705695627565 -0.014627498899270425 -0.5199476839338264 0.4967399984573806 -1.1546835444351609 -0.12545033296359714 1.0901914417947363 1.1319542376632445 1.1192108374403076 1.429544282778668 
, -2.3556909373324784 -0.8939074297634645 -1.0047011732429296 3.1500450183472664 -2.2748137008887377 2.8704710451025512 2.136202432851553 0.23002354858650118 1.6086342870944725 0.12009705223771999 
of -1.4691561852908324 -2.161713587737398 -0.36782939074124144 3.088507048003698 0.883218672416657 0.6536232442113636 1.2444623030649913 1.3481259388566968 0.6765761496416912 -0.1823197033773315 
number 0.27733916383720264 -1.4846596556077318 0.501006824886921 0.8299252967468166 -1.122344669797583 -0.47286850104971034 -0.6654726506004244 0.5651035303470505 0.6267707814413173 -0.3862420453174187 
four -0.3949505927100089 -0.7818554973028158 0.3026384213055956 0.47691296738483285 -0.7071367365352049 0.15116305339147285 -0.041659054299880705 1.1473451974139877 0.9011457314406466 -0.3062826996400566 
Privet -0.19003701146712706 -1.2355683263774158 0.3551964842344505 1.9960610317507572 -0.6711652917817955 -0.5343435106939692 0.7326255403136295 0.4850596328980473 -0.38105344175716493 0.15156766062469496 
Drive 0.3559764512583167 -0.08498899564113 0.3117203356333329 0.6355800474391591 -0.8487491289239172 -0.5710669096054755 0.3016169981252119 0.6951352958141928 0.026464423027692238 0.38522466802275235 
were -0.7464184962671052 0.9940186792696859 -0.7636688920186057 1.7812551086441224 0.3489307290194286 1.5763982214407088 1.3857286806139346 1.6076609906664299 0.433108720583109 -0.21385096677698867 
proud 0.1573838358427015 -0.14910275108254634 0.13754056252840138 0.9025884882032443 -0.8018569574893452 0.03378446850726713 0.004072389193361517 -0.19480640900694385 -0.41603897258029926 -0.028049133823202954 
to -2.15837066787844 0.3401991661067741 0.012084384441682694 2.1040006542090857 1.0770289296164828 2.574055505622985 1.8731420756747075 0.4768073662260848 1.2166068476886374 -1.5955588326394181 
say -1.1918889215875361 1.099124667770198 0.15217951016366 0.5877307627596459 -0.43630749176196865 0.8947402519662215 0.6246282225173438 -0.6717183420884857 0.0467603814947479 -0.5550066623345349 
that -1.5259013940402006 0.010049705201268487 -0.9885681706503413 2.1123521310704407 -0.714320830477361 1.3828441085909178 1.2404360709009108 0.44464127931457786 0.2513046686028392 0.13194140632425888 
they -0.5408957716862829 1.066371774322213 -0.9795719696884658 1.6867634676333343 -0.7066725237181121 2.384265594224952 0.99574527542479 0.773042017613015 0.3757990391252807 -0.3371728995268495 
perfectly -0.058383882247738106 -0.21553353247735985 0.5090518190563434 0.22671726989188865 -0.3367943895238765 0.2901320083536101 -0.4395861166204974 0.157982776442381 0.6270403480033399 -0.31650781615893553 
normal 0.14031446479144866 -0.18098775869702138 -0.5733946281670388 0.1987414689153211 -0.35989978322198657 1.2102624847017396 -0.5755394465586126 -0.0557503900407935 0.1831659383302576 -0.6544238024057175 
thank 0.06697917981586068 0.7273863722966467 -0.2525659313756287 0.7059100484589731 -0.7014473717670372 0.6244989928697966 0.13131460285510038 -0.2563928004413766 -0.25663984340357754 0.2628590834396388 
you -2.3951993866063077 0.8018183970803427 0.514404668743372 1.9068004654530082 -1.078440594149618 1.4726371887669345 1.89735483314074 -1.027845794227356 0.2689226626841722 -0.6268558799414163 
very -0.9085682402698488 -0.8383405840657301 -1.2888417219796517 2.0210709003933345 0.3248035736197024 0.37283442599658323 0.18944016330000008 0.8463962894930666 -0.4531580155276538 0.2763852222141919 
much -0.23793017361245156 0.4042333071128213 -1.1777985492171348 0.9237657391439027 0.12581616321961533 1.5056048887315185 0.060218872380862876 0.19072901039260917 0.04515660517278809 -0.44602611243461754 
. -3.508005069634349 -0.19894946664868923 -1.7406139364879187 1.2691437095510687 0.31149974149548604 0.952823058501919 2.4780126085232914 1.38350816903727 1.7709190914710462 1.089910478924945 
They -1.734088015466886 1.1136959799334434 -1.1952172730776145 0.2507506242577604 0.6472536843732292 0.34088495401350855 1.102190722944479 1.013126834869699 0.8414523981736628 0.7276946479658649 
last -0.9226705045220019 -1.7000654886367021 -1.7438325614073131 0.7952926411620852 0.7913680195578018 0.5447513753540383 -0.014650885012834958 -0.6025374281012258 0.4767613339233111 0.35758408485137044 
people -0.7342707720639664 -0.8640418994295065 -0.04588519530999677 1.6384169311679413 0.1273903427181149 0.11652424126387512 0.5215581153572268 0.5680347715584203 0.11181957108759485 0.050107412927338425 
'd -1.4392039660252272 2.6014156261993593 -0.40814454627228103 0.8230800491133703 -0.7647596184928196 2.171567872607037 0.6576423976995792 0.9571001223133573 0.023807699290961853 -0.7677093717381382 
expect -0.4543573405217311 -0.06654868917216142 0.08512913709637879 0.4846732512925934 -0.4055927428146969 0.8039586766324145 -0.028848660124929815 -0.7140611956510594 0.08097397915093102 -0.49134204527439834 
be -1.4118646929234149 1.3974405317061485 1.309191870307255 1.8034140005113932 0.383690391625305 1.2953202366199577 1.7308679603654922 0.9754558443101657 0.44295527508717103 -1.2688026298328818 
involved 0.0238212234349553 0.05731704027736982 -0.08157236858846445 0.12604268180270717 -0.38753561088883137 0.1341221228033363 -0.03725024323317708 -0.11515462987282013 -0.026586048108965754 0.058015205938545214 
in -1.6446990492010158 -1.4270952056532127 -0.10181581896526654 2.1328089067649305 -0.06565943547954689 0.8347052734292697 1.2788158925054893 1.5620522611237466 1.3882779086679897 -0.28966449458407256 
anything -1.1765934736001054 0.5635236043169033 -0.09390699694616617 1.4673960080135804 -0.3665591872780289 0.45950885429588123 0.5091019994887772 -0.5436574647900293 -0.801284682507093 -0.3056777467885952 
strange 0.020084086901886317 -0.41187929082889563 -0.0036293069564523467 0.5094566276680931 -0.2702150032173165 0.2608947058788311 0.0392253721734842 0.7493212197173271 0.4173588712805839 -0.018225417769103816 
or -0.09469649507724179 -0.32630259646651055 0.2773499033163531 1.4338653712628477 -1.3773560444326955 0.8555639320148483 0.424502892930275 -0.14862641586897588 0.2859498505262683 -0.2446006372307311 
mysterious 0.09877547813217587 -0.1874324397692369 0.08334117724062458 0.1714201555858457 -0.16786005697799083 -0.22688926466885756 -0.11167277955115221 0.5299747673079194 0.06979143115746486 0.19124560531038082 
because -0.1817773442827248 0.19170658621473743 -0.8704836808205006 1.265619898591485 -0.8445268019946773 1.1432849725645948 0.3227273214383289 0.38519769669900383 0.16979454657792126 0.03620013693678087 
just -0.9832502685244326 0.6175345456385091 -0.4526188193791791 1.1938370503325704 -0.4237953555852191 1.0150064176775135 0.737144820767573 0.898285629251178 0.21258697568902596 -0.10591894743346444 
did -1.6500028429486755 2.461624226592021 -1.1884058518660396 0.38365135983959 -0.09907796728361615 2.2314780110132 0.9850364582839712 0.210246692878241 0.34581008825374987 -0.4202352157905908 
n't -2.3484828411607275 3.015449745804003 -0.5433936282157656 1.1509233076862024 -0.3464746678256814 2.25885313344639 1.6132460210316233 -0.2717352225894981 -0.13141496693896493 -0.6125794001528655 
hold 0.0631650305177005 -0.2843533187687099 0.09926897789921225 0.33147239925472566 0.5654723481769244 0.4578119436971814 0.013982980160636996 0.26383595322735415 0.27103647056594626 -0.4969773285109129 
with -1.111458943756311 -0.6130404017921139 0.047221166558007635 1.7912043624899132 -0.2534534908934232 0.9254004386238757 0.869440917304254 0.9959838080149568 0.756310855640664 -0.3138259228610407 
such -0.3240270437418966 -0.5001851683773871 -0.3112794638398822 1.0570885253010576 0.37854972040400603 -0.09004316675935846 -0.28607076387376673 1.0435188184152968 -0.5850912660379974 -0.2318767013848777 
nonsense 0.0023436206699993176 -0.02501522307544686 0.013931613054007252 0.013482881496781111 -0.012282805714604165 -0.08534302460963752 0.07848872889298816 -0.0022325782416214735 0.015973085866370466 -0.07958629950892959 
was -1.9885932357861855 0.7906631085721376 -2.4289313746638643 2.570910205858743 0.362548748098783 1.561795755413947 1.5563715471245254 1.6583934220139143 -0.16675703084341928 0.4535568161546428 
director 0.13391764326147595 -0.17859983664906032 -0.4151079191128094 0.07171140437814158 0.33887580681436785 -0.13041323482910522 -0.4047394812342612 -0.11494003021817623 0.04648433185101046 -0.09405429533580043 
a -2.0602249179517047 -0.9597463170224052 -1.0850709592572507 3.321548025916266 0.2222042729108838 1.1631413794904024 0.9029850974266334 1.7241281981336858 -0.6177821967978493 -0.33908156588350524 
firm -0.10930249430196262 -0.28615748847899214 0.0455931599629964 0.3002168244865237 -0.10879846452514477 0.11068111967706815 -0.08332448435441532 -0.03713502840235422 0.006222574754914223 -0.25442105153695066 
called -0.979332968894441 -0.17492387776985907 -0.6352299386937393 0.4275903699087124 -0.8514554268427752 0.3926956199615847 0.11258387265174763 -0.12133598427378355 0.4116737063362288 0.3174223805491812 
Grunnings -0.43176654167436923 -0.22457054608493865 -0.2133953699465483 -0.1946239395222481 -0.28885714325591544 -0.16481776034462117 -0.5422064042903483 0.3069051738492871 -0.0959248239078651 0.00809947457343204 
which -1.080119611609975 0.18601069768649992 -1.017044974924664 1.1244371268019784 -0.25283110612284565 0.033230869405952324 0.8259562914284525 0.5485960842342349 0.22200046234980197 0.8271488885774696 
made -0.36242723493441803 -0.5326410799768966 -0.3331059702575532 0.9323372588913271 0.06719177097247875 0.5067417284360403 0.4330767420007906 0.8880669566192889 0.6117751983498906 -0.01285217431885663 
drills -0.06850103053608682 0.055038868202146235 0.3147061787624474 0.15612839283623137 0.2823180489682687 -0.17416068749168806 0.6465300845380441 0.26764012972518925 0.23330350814351153 -0.4194663982455964 
He -3.105843503265721 1.290832711877931 -1.5847096737282924 -0.1046698551081946 1.2611585364190305 0.46122294832782634 1.2343739690909257 1.6038277784434105 1.0004426798119828 0.4070124394796013 
big -0.253115910598834 -0.4918797988924988 -0.33058018326720556 1.165953440640568 -0.3113182039644245 0.1817547807136885 0.008583883374386148 0.27871055418739615 -0.14162236004299855 0.013179444652948055 
beefy -0.06816500320437847 0.06836207278350079 0.10774339888845566 -0.17274313312354161 -0.23161624187731406 0.6279457205850641 -0.46155314246870066 -0.13336320264206497 -0.1680118326133395 0.016830322790988617 
man -0.14758676804254384 -1.456192678122343 -1.02172280881092 1.3689530135392953 0.01079500042272745 -0.0551433917339533 -0.2811916860875743 0.39448746915637384 -0.2982127390678 0.36753028677593724 
hardly -0.33753248121830365 0.32236275150634147 -1.2188615292454623 -0.0690670755378832 -0.3296707518836788 0.6618688326832844 -0.280010530202908 0.23561347332138968 -0.11969432098341971 0.2208811295110927 
any -0.6304079264459468 -0.238542226820049 -0.76438075057215 1.9078086302451411 0.6238874368759231 0.42718906584370103 0.029925014136594263 0.2575386529167007 -0.9759334793094103 -0.27745385824800695 
neck 0.06944660238291415 -0.4663068152036616 0.4497300878140754 0.47723370417276756 -0.2916690005720191 0.1337837410403641 0.5202638180375833 1.0112718906476812 0.983829871083426 0.06465727161071178 
although 0.327701912604309 -0.22258601087738966 -1.1839342278101166 1.2398254661417925 -1.735908999857687 -0.006495630643348516 -0.21076817229599992 0.004773341241173517 -1.6121546437831464 0.7841020084072425 
he -1.9355057579981776 1.075662047482236 -1.815024272363015 1.5206510137782145 -1.524301470227027 2.705061339386858 0.9102336079626403 0.7382928069928468 0.41227104813641563 -0.19030520017234975 
have -1.4285658320232169 2.0362391515862126 0.4402084016094356 1.7319214637677676 -0.2654138759306166 1.1302073044848986 1.1659741638304935 0.9653223828269812 -0.38121703640436344 -0.583465379554408 
large -0.13206662941821848 -1.1879778502583058 -0.4362282807975902 2.0616178918534573 -0.2656356205356725 -0.5756602422314694 -0.7787317912606967 2.0314419110832604 -0.7522721021402645 -0.0040977035474118045 
mustache -0.052012431392553043 0.17128726471706274 0.3712270325594866 -0.05702476988883802 0.08819246524154566 0.21787238802571365 0.1530255242255117 0.47127281177799496 0.48255704182832454 -0.25288366238978466 
thin 1.6351537885445997 -1.4036709720143203 -1.271037169952237 0.9852771960476229 -1.4753431865945439 0.677071449603239 -1.2219968257778762 0.3644976624575391 0.3213264295937461 -0.5132662579165409 
blonde -0.4711305843505432 -0.44892741337363573 -0.019800276538515044 0.06968195045337844 -0.2358708720718236 0.25559091751001767 0.032356493258730024 -0.12147522663198033 0.5381752287947693 -0.20585307631110675 
had -1.8202628647980008 1.2333238678965903 -2.162601353521385 1.4661602691611026 0.3037087357898135 2.121890639691022 0.7930702285571953 1.7848031775013564 0.07608327083134707 -0.060431097562488656 
nearly -0.39585400390011155 -0.47207570991177816 -0.1999644986582079 0.7844548061819876 0.037190098230762025 0.12391258686277579 0.15127927295186067 0.49244794572056216 0.06026348518300087 -0.015140182402278206 
twice -0.09758861908927058 -0.12271764180224462 -0.19324200186916352 0.4346031679594543 -0.21775430072881571 -0.08089838571637342 0.18246623738114426 0.45011432151701863 0.11788481074534841 0.37482288935142294 
usual 0.3749674595859757 -0.26963563251243744 -1.1214347061976584 0.9428785969454428 -0.5959940392537443 0.17930157432434696 0.13443304611893614 0.7002940292141836 -0.0873483914598098 0.7953664920721596 
amount 0.3685955542429474 -0.40546645076302845 0.14507987657389831 -0.1371734911923746 0.3188021140735575 -0.29521584277646545 0.030469511642950833 -0.2871751160233125 -0.16817068802202836 0.0692603208943624 
came -0.5478560343185614 -0.6738667093170705 -0.43126917302362666 0.6511209631475401 0.43300047027357735 0.5847564442996882 0.35363098062905773 0.9757327818468537 0.8413456411309124 -0.25499633021028895 
useful -0.0031768207044763465 0.0010622214860107056 -0.003196410151541005 0.023143637624166456 0.005302926153232119 0.0004363594680621072 -0.0002968822454994715 -0.011783765245454086 -0.04002842943241287 0.016984024354834835 
as 0.02006545560300252 0.24961610404292067 -2.5078989693580596 1.654047268603599 -0.9855298536984212 2.619619101230728 -0.08473984326765788 1.0285481904542462 0.2578008185334282 -0.05145274704233313 
she -1.1906969598937844 0.44510561335309656 -1.7250997080986206 0.55105803305315 -1.3221323782865395 1.3895852495626806 0.17710095688994112 0.11036371195340408 0.37018987703582207 0.34629229985028076 
spent -0.1926609042670602 -0.3702858185849053 -0.1917794929898027 0.5292352551505548 0.1777178056565304 0.145831245306846 -0.1321428305565748 0.5162680815597833 -0.18197332507428984 -0.09702721012203558 
so -0.56986337095297 0.5922099510385681 -1.1016040326529302 1.5171930753154292 -0.6130480745048809 1.4651293746048726 0.42887046117189 0.42937856642010436 -0.08522970200771096 -0.15167818584492146 
her -0.6516594804750737 -0.35716205118437494 -0.1993905632525751 0.6895405013754411 -0.43774670743578853 0.8429046084891088 0.6406038539455112 1.1048937087499904 1.5515711339338525 -0.14109219796471784 
time -1.3331744297726786 -0.8658970364054173 -0.27637445036535097 1.313389210176879 0.3683127576039804 0.6005551101469921 0.4931860322240469 0.19710879092655792 0.5016672174158412 -0.42912389063317663 
craning 0.25269170054095674 0.07116336680547605 -0.20602884965914348 0.14598909501132673 -0.10769336708676636 0.43969363157427604 -0.10493543860087096 0.30993317490398914 -0.45053123429038866 -0.17319131754306225 
over -0.5660861214081994 -0.7140303991280442 -0.33078626654049026 0.5656503415710149 0.3266513954501339 0.9804469641994171 0.6081469424493732 0.8187732839845766 1.6073070481298637 -0.30102485462394657 
garden 0.6066668172389582 -1.043911657662485 -1.0684905627296106 -0.27956028219110857 0.4537583437783936 0.105805778189647 -0.2702751905698784 -0.20339798969124184 0.9214608818318772 0.4532484188145194 
fences -0.7044269594761524 0.020182925340340524 0.4927215564801628 -0.18993021869063462 -0.03034450692104633 -0.08458580120468295 0.1367819510500939 0.21003410854988233 0.016100505084128275 0.7312196348465667 
spying -0.05343882035647202 0.07518675860266702 0.15229120674301164 0.3057228566306456 -0.47517503598660815 -0.19088273063061403 0.27206987164269125 -0.023307487298901558 -0.15527332469351815 0.4766572350709871 
on -1.2579336506580907 -0.72692148690819 0.0022945597955210673 1.4507396235645507 0.4204924905684807 0.7657895338528655 1.735844689922757 1.291963342291265 1.8567032794333618 -0.10590004031169903 
neighbors -0.10792635066978308 -0.3592473968224568 0.04073233305305782 -0.0955674165177994 -0.5872782589939973 0.2530716630310156 -0.02968696620705813 0.10797960312373531 0.09564213481769045 -0.3129416357776601 
The -2.5309760829308052 -0.04903729161336673 -1.4647026983146765 -0.12924550628433035 1.1634222542473494 -0.8459685042123559 1.0630945200662685 0.5893973954724884 0.8396312669163672 1.2607299392094962 
Dursleys -1.5348797049585852 -0.99366670614548 -0.8169512614061407 0.9008413584324634 1.0351146376295848 0.21248305922724184 0.5573248862704907 -0.5952298124102334 0.07406182631421321 0.1388221172571819 
small -0.8682584475887061 -1.2595252190919646 -0.21354843674077362 1.7031056426798181 -1.1055342452215835 -0.48103364867682563 -0.7470418079180041 1.007026076997425 -0.8283283162273123 0.2566150478881838 
son -0.9076034742211125 -1.1734240258722173 -0.5007535957579126 0.2564016183218465 -0.14432116350140342 0.014481355507943154 -0.4567980331044424 -0.1926802702390846 0.1596085878450349 0.06484631870430227 
Dudley -0.7377378457016553 -0.08872622276026756 -0.9907818863112938 0.6178417552853915 -0.3605317664169012 0.8059118275681525 0.4244001644207106 1.168424323137388 1.0072448731743073 0.24814979560540446 
their -0.23599367817495856 -0.7707509283811064 0.006617164079236404 1.0827588752636408 0.31001230647896016 1.3638445459623991 0.33737393881882016 1.2105944954483772 1.574768180711918 -0.5383394572967657 
opinion -0.8787708759780422 -1.1174628637413877 1.0970320784117247 0.801006110938583 -0.5080806026518487 -0.8678422011429922 -0.10508776542844395 0.187010797717992 1.1177181720365348 0.6961926241662946 
there -1.2876643435494204 0.13350033915403547 -1.0374828007336052 1.890293226516718 -0.6833866998125516 0.3902915959740624 1.0070931843406323 0.5702693373749511 -0.18980613877997135 0.5346309941206844 
no -0.6290930737510549 -0.1257154991898103 -1.070536903070677 2.3638032295963405 -0.7469114908040513 0.011647452156706206 0.5417330218729662 0.6283467475790746 -1.0203519672496637 0.6233615732911756 
finer -0.22963675049063198 0.28605433512486356 0.13093391411834004 -0.30327135716901565 0.16957854862159435 0.13269064872224878 0.23105084311144813 -0.02780026297894652 0.04454797398616683 -0.003748600750955018 
boy -1.0196288091569823 -1.3626192076325065 -0.8454164279597439 0.8433913086736095 -0.48221396328781574 0.36789784052582225 0.25989280058247355 0.06816471889662704 0.8528308367254906 0.41529234461949405 
anywhere -0.5633126540786932 -0.3673930459315139 0.16630436559769668 0.5526742291431417 -0.08367991686458622 -0.06374375470038843 0.07528433909670568 -0.7059190080321289 -0.11005180351874438 0.021634216130253583 
everything -0.43040512807340403 0.23972710783562234 -0.6624085688138802 0.598088115500811 0.2759211922841646 0.15856680020199676 0.10309720964894428 0.7831806750068837 -0.17184720029649816 0.12075296102299654 
wanted -0.8081690654216059 1.0433730375816868 -0.6060386044968229 0.42944279550031594 -0.051304458943333825 1.0126243089601021 0.21929856621386135 0.18454216411025157 -0.16808952118510667 -0.5720476244627573 
but -0.9528993830176005 0.44637219030349073 -1.0982867720279228 1.6381977147515274 -1.4304084945971867 1.6033140501591083 0.8582180319717068 -0.013731152411484593 0.4482087424700844 0.14785836410428474 
also -0.7743460298811371 -0.07722333133316982 -0.36178013885408117 0.18653530237946414 -0.06897976358016523 -0.20578137736183522 -0.011335578943488106 0.35878439895002234 -0.25705299696846257 0.00249961007831917 
secret -0.568130921067673 -0.24998856261355568 -0.15510649171329413 1.1078172753063324 -0.2689643596069685 -0.15941279105012696 -0.06609448926879663 -0.18727481588889994 -0.7687062447466407 -0.04090355400758672 
greatest -0.0765470279435792 -0.09337400842003937 0.34443817331795706 0.7846176050361273 0.08831572191909166 -0.5868728179218576 0.44951003341622686 -0.351489862101471 0.3609835837856924 -0.19214738007942034 
fear -0.31469353936995514 -1.0320546379500746 -0.262448534420137 0.3430185333062524 0.8020073060396518 -0.7826328642243483 0.08452635297008582 0.2779193039470121 -0.18444975979618267 0.3448600896303965 
somebody -0.03250588302364166 0.007998697589934003 -0.003432565687064428 -0.028353719191932372 0.03051989245956365 -0.02536745286431579 0.07666087722977895 -0.06801472448781143 0.06996459315545261 -0.06818659753425582 
would -1.003172413632739 1.7241059826824099 0.37461094520216043 1.0359063911604034 -0.6943422096654126 1.3332352799399478 1.1065858976277336 0.21205779174895148 0.2104849571450394 -0.47773905373179226 
discover -0.2050581115575368 -0.0505613809596822 0.2209269807051173 -0.15907373282576767 -0.8640162303826135 0.12188879940538451 -0.2435237594804323 -0.5387430737126602 0.20965126462190511 -0.07911580189078984 
it -2.0820395269119274 0.27495341641715415 -0.9944933826801525 2.1777136986071675 -0.46602460488939024 1.4660422196981606 1.5627220822217662 0.5250212104579087 0.44635310142475104 -0.04929244875261768 
think -1.304255002052327 1.037371681123909 0.560303890818552 1.8895784480809081 -0.6541047929588304 0.4978526434420544 1.1410417270887105 -0.3848643522438383 -0.6711873291620791 -0.41752009574044086 
could -1.5100477466232056 2.2817056224943153 -1.0882471566289673 0.557705275932139 -0.23774826299468713 2.243192214679985 0.8719604100482632 0.40155088253920307 0.24999106663714132 -0.5158839261162282 
bear -1.1408673158298712 0.30113460029560296 -0.3616745967080618 -0.523930849543334 1.6876704516727483 0.29714586898078954 -0.16936224061021898 0.4424379756795851 -0.12321812115739222 -0.5017951610300014 
if -0.8116020554027062 0.9430430717317391 -0.6712245925216906 1.6337492651788588 -1.0424879346301832 1.629397560705082 0.725942978401374 -0.47578975798984713 -0.4246875423601175 -0.36891217718706104 
anyone -0.6855607623900066 0.3982469012487738 0.018262414737636123 1.0534824144296908 0.04663730175417823 0.28395136514868946 0.40290663430233753 -0.573678625371 -0.8340002284203702 -0.28432061937587205 
found -0.6274131792419204 0.19450983889328582 -0.087591352326085 0.8484223120614375 -0.16316044001924607 1.1527506907408802 0.27724895954923073 0.9436850233589709 0.16667634124210357 -0.5958363059133415 
out -1.328771306084034 -0.9237460606047796 -0.010531446535935629 1.668327364431647 0.8703786939311382 0.9437253630088149 0.787677981788897 1.5121188086741135 0.8833556455820676 -0.6200844006465813 
about -1.3490801739014127 -0.24063202544764165 -0.28294848764710534 1.6053453030449414 -0.10515879636287115 0.955738521105655 1.0576025548015173 -0.553294709129069 0.3643313957131616 -0.3728267916125053 
Potters 0.3290627424359989 -0.25973347735968 -1.2390502027334833 0.3944319672683876 0.9179275321375155 0.2158376372963458 0.6989892596551563 -0.7973818360081087 0.3891606274632891 1.0218500031795943 
sister 0.40440104316184794 -0.019964290321505984 -0.022523333080716162 1.0122735799271854 -0.984081747791795 0.2850253209935916 0.21317988990820597 0.6524398621474341 0.13127784959385752 0.013958641899168817 
met -0.9878538578163538 -0.08054928013164997 0.2326403694360133 0.33553045998016323 0.09342220995895967 0.015057704675546 0.434003323824917 0.01731987504331381 0.06185026673385413 -0.25757897986986844 
for -1.435275750288532 -1.0976032658038843 -0.29503205551670514 1.7295423014236972 0.16602984084771763 0.8966226669607854 0.9516671704157629 0.07275095418098343 0.7462751106202504 -0.25703220231813595 
several -0.46892807575462414 -0.1266784841860025 -0.2838793491993281 -0.027755068435439654 0.15129444189102112 0.44369860628000546 -0.095536038855155 -0.654074565497503 0.22545800906396762 -0.15065191736735423 
years -2.0862912115513357 -1.4020997710258198 -0.25571221300424674 0.3220941603951387 0.8404308380143095 0.07110412036400823 0.013081372249255596 -0.4428698544657666 0.4582524028021634 -0.4231257683221983 
; -0.7246942560348477 -0.32053472547453343 -0.8095861562858379 1.0902554646614866 0.03647313592608528 0.8598647717398138 0.3582699153562703 0.7823013669858926 0.4311341371723062 -0.11588446508732075 
fact -0.5154360260673407 0.3114874461462225 1.2546998599234236 0.3361787665923196 0.08165364014452631 0.3034368441519023 0.9125045142638035 0.8434968245959882 1.4692626742358252 -0.4273969824343946 
pretended -0.5382654731444377 0.5522298271980086 -0.7146430636249136 0.13104589295232272 -0.6149731713121107 -0.19743977899742995 0.09023392906775951 -0.3177574168251463 -0.7372014375512923 0.08309009041084395 
good-for-nothing 0.6804395859108707 0.03312636901974561 -0.27983967707246643 -0.06592564082569051 0.09070901155775729 -0.10868575184034435 0.5438830701740258 -0.5129152574439745 0.5114146003164863 -0.30743407585607463 
husband 0.529994049810846 0.05847410227593618 -0.06139777633098391 0.18427561429978492 -0.287152353957632 -0.18407194041927313 0.21440945748413112 0.02743458179771935 -0.7517087324709295 -0.07652392538747438 
unDursleyish 0.367351632980142 -0.3029237356673731 -0.3377002308462764 -0.39596245592177753 -0.2531309010411915 0.9058471236500043 -0.2446361858489362 -0.030719319988653657 0.4090730726435145 0.4121782203036295 
possible 0.331427995230023 0.6249739261871697 -1.4503316112651308 -0.5297942970235705 0.03508630933641514 1.2341835596103528 -0.48999923761520675 0.877235467370909 0.37966710525922215 -0.020327263189562295 
shuddered -0.3659243692454939 0.4839301351690406 -0.030053292610907487 -0.721857895251869 -0.3337639711389073 -0.34471338095367654 0.31324380600533674 0.006514209447417263 0.38969825879839837 0.32724309998622836 
what -1.612656565646859 0.9642931581792531 -0.6116894066894489 1.3979351305381014 -0.5308249055020853 0.922722688118245 1.2083318595891137 -0.04202898823362687 -0.16278704352409049 0.013261274002639205 
arrived -0.08066123168363032 -0.296044154557885 0.14850994958899172 0.6545919712321397 1.0365905680269223 0.4759806287102175 0.8248158890811093 0.9121215551982066 0.875684355910888 -0.2657646034965038 
street -0.1020613844494492 -0.7620235088317175 0.6868507556781384 0.22159430478488315 0.06113190477264989 -0.18572368786056695 0.7551715351126286 0.905144152284791 1.6307613773786798 -0.05935972313540523 
knew -0.8559597056657922 1.1699559973685243 -0.7309102325800811 0.7099720191139555 -0.7465566804424559 0.712763666308603 0.38045894083481624 0.35291409328951306 -0.22043787835618486 0.3018501904976514 
too -0.5439274386423306 0.05936724437833485 -0.5971162892728434 1.3367102213252093 -0.7130189495260277 0.8946447356140931 0.5888968050765443 0.29490093477713636 0.37642770661718405 0.12259512662434571 
never -1.5780900102368023 1.7980379491761131 -0.7315585290922868 0.659732209843743 -0.1516198811468596 0.9613159437789747 0.2587751686239339 0.5010780097876851 -1.0496310567707938 -0.33922706293766874 
even -0.22251919452813573 0.43181170439711974 -0.7108909773425858 1.299723836253064 -0.6666844999989758 1.3794479127782497 0.04031380896996506 -0.052382465107185736 -0.39279355065093213 -0.4292750797297924 
seen -1.181046139538687 0.7631473271731439 -0.6723810381815142 0.5872516482728286 -0.153732740388576 0.9348313800313897 -0.1582566675746903 0.6750000235011393 -0.6574950593260918 -0.4755095785393856 
him -2.1570802545444643 -0.11539665307559124 -0.4575745288432036 1.008287081571067 0.5024652068569704 1.2659352317086996 1.3394071508179757 0.3298587928627187 1.459002959667904 -0.4110468184549657 
This -2.846157834927281 0.14550861474336352 -1.0452193070885905 0.8562941651761782 1.2015705932097147 -1.501016960756246 0.8571699544231028 -0.7651461304685683 -1.340528953708991 1.0204288697107156 
another -0.8736253150218098 -0.2921306770048016 -0.10496065444569558 0.8295971912508953 -0.14315007598637491 0.11331407930094128 0.4871494228330921 -0.22906444829908898 0.12612135835067934 0.1724659444719489 
good -1.2290660611042665 -0.8577799755730897 -0.6044924970498992 1.9831551906219191 0.0037385862153500662 -0.2355507140003542 0.16947511159689116 -0.17372026575802196 -1.0733259809339555 0.0060354549235012225 
reason -0.473054938179919 -1.013464194664797 0.26839506984640366 1.6217639384223583 -0.011207125723586314 -0.3393733136448113 0.43874634091320175 -0.15520578843439095 -0.6883256360093389 0.025349738329514704 
keeping -0.23361109821440185 -0.28483300167156855 -0.09196317534499451 0.5285949146156627 -0.4073563713805173 0.050202920766651886 -0.049421769142682245 -0.10531910783529112 -0.1600538482890575 0.056549790433639224 
away -0.7259264936568754 -0.6967557115706201 -0.3343297647647998 0.3408567815645329 0.3235999289098739 0.1527555875349776 0.866360485580072 0.4859297743135514 1.383399038958284 0.26117513671174136 
want -1.5137936832033865 1.1354621527195086 0.8000852180263137 0.8471963329697274 0.29161617252577043 0.4260315501072848 0.8890523077935126 -0.9589614875876757 0.021118002337786157 -0.7491627460878666 
mixing 0.06634866067923603 -0.05383019395757423 -0.11250641230556377 0.5675266383239739 -0.5400826497397208 0.25526699635258077 -0.02866127999655599 -0.23283637357697815 -0.24107458552891958 0.19679760232116192 
child 0.5526990917144519 0.27525917691226587 0.21786297591118559 0.36775710094056235 0.15134536448575917 0.22283008067627044 0.11928749504575431 0.06393448638330666 -0.0935943821545014 -0.3135578541854662 
like -1.2190382590622537 -0.15923108335248104 -1.1860099223356355 1.6091719737675305 -0.10484308440393339 1.0852771424382834 0.15020659657931912 0.6163188240381057 -0.3841658181512745 -0.186087036385685 
When -0.9440830497622762 0.6462592832688838 -0.9031070835872049 0.10344941695433224 -0.390382304239109 0.5954065973117144 0.40792584699155093 0.05154794912305116 0.3644751099871658 0.1726302927250676 
woke -0.23576811687285149 0.3243598156159813 0.16669948629806042 -0.7192580662131571 -0.4382307998947624 0.5914056235774393 0.1133060862445514 -0.017054048298074123 0.9828273545191222 -0.23835664519179592 
up -1.409817869572866 -0.6693232041579854 -0.3814995490987908 0.9877635855631085 -0.19680304090687767 1.5447810592810316 0.7227966531475454 0.4520051595207505 1.6411756424492954 -0.5995211622108625 
dull -0.2682955970544587 -0.5583438518260193 -0.34281282283990444 -0.06407214123230823 -0.4916114302109354 0.01648856432968599 -0.37684463679324093 -0.15031434561113188 0.1273962465951184 0.11015162676704383 
gray 0.36588756925688126 0.07189083681086586 -0.27386517741137356 0.5194211103062757 -0.5747029692250145 0.9066091601960327 -0.26745899933478606 0.19163507054198525 -0.06182233723863759 -0.4024175526917992 
Tuesday 0.569586259607991 -0.7652044717548379 0.09627276781407956 0.5103687304789539 -0.680774533981371 0.13650370386135763 0.18810974449685944 0.12674681257159295 0.6595863643970271 0.4931684443242618 
our -0.520441338242561 -0.6702533889841813 0.36272169382847697 0.791798659653407 0.3089896537676388 0.10774308887970813 0.3524343768143551 0.07606007803894822 0.46930368598926786 -0.45906819751518874 
story -0.48624395219185834 -0.70993542651748 -0.11365696418412374 0.23828408046819222 0.238786572608964 0.04904881099516536 0.06700660817479953 -0.9851588418550586 0.23866079549301172 -0.08009126264942917 
starts -0.04343889198843675 0.027249972959471028 0.14904192137510958 0.07630414094287695 0.04968855664204375 -0.0598329708723722 0.06523792835775437 -0.08495753624219304 0.0008994881161806488 0.0016989604696187807 
nothing -0.3350215087438723 0.07669186899030733 -0.3335699461224676 1.1947758517256741 -0.34542288620203393 0.2590443902939093 0.6078981763917809 -0.21426746032617255 -0.1065910586242337 0.03892109735093974 
cloudy -0.1186919790257061 -0.4638171196602839 -0.365746076240984 0.03627400803239499 -0.641409789624926 -0.03783794440014907 -0.46069491430604165 -0.02300825882794416 0.19263903848112574 -0.22355360525066478 
sky -0.035948051497997964 -1.1669587975521647 -0.7297718609749886 0.40931404209074795 0.9144926538840401 -0.3847491283613028 0.3817329595583201 0.400193577342049 0.4416749235447524 0.578038673484664 
outside -0.23881442068852118 -0.7966703535591149 -0.07436450819081106 0.654478787438622 0.14802003629168564 -0.12070115962975081 0.44990537085888754 -0.1444705214523711 0.6603806677245851 0.15694313994293005 
suggest -0.8839778155773687 -0.10468542830701015 0.826114741521354 0.25256808639260775 0.05088173739772994 -0.4384150300451328 0.5352018965739526 -0.4977438198366477 0.45072714523443813 0.4181032742267954 
things -0.6362702174752777 -0.7437828628116265 0.3517275531588471 0.8957504992409671 0.04694282060610892 0.22873494394676092 0.40548130637092294 -0.3081699268695337 0.29300046985917827 -0.2863640324954315 
soon -0.12333081780779664 0.2711989712744747 -0.6690303540024324 0.30012893557707315 -0.18096720550887269 0.7769286504181094 -0.03179960541892658 -0.0869833032981435 -0.40038186396438563 -0.12183749523390477 
happening -0.20653882409994911 0.061889771055872816 -0.4238155200773958 0.061750636605051826 0.2544264383676671 -0.28285132927740586 0.20175226752736747 0.14928945045058648 -0.12158991445665802 0.3047409309201428 
all -1.583854078654996 -0.7416033267049047 -0.19853543931897047 1.4037510022222675 0.5247608129715501 1.1639778386476363 1.3233497930967437 -0.3180019824494998 1.3908103739521485 -0.49977800329812005 
country 0.5360528477984043 -0.3917637360733281 -0.49186838649730835 -0.5946899325767112 0.4827315830618377 0.2559339825102285 0.03142889928040565 0.8666472548206773 1.051266478639038 0.13668729884930464 
hummed 5.330176500310119e-05 -0.20870242551572693 -0.13878536673961356 0.03066790421999109 0.1103142434154151 -0.02414153740092803 0.04997623704014093 0.030980366004583003 0.27402403742063164 0.1222476615508497 
picked -1.0048247318680215 -0.7987463234639074 -0.03183610706880943 -0.11699546488693048 0.4003573263175221 0.5059910500091809 0.34906819314870646 -0.31851224482899887 0.7883474745396503 -0.42655916139044703 
his -0.8849725350613146 -0.19521448184680867 0.536686675944414 0.8986695473195636 -0.33178595794176 1.5799616402878707 1.3843724357125335 2.963813429769428 2.9389412937047292 -0.32663464354816174 
most 0.059677707434188626 -0.7630178519105104 -0.14480319700407632 1.3198543262464975 0.03665421932378467 0.10360535007097826 0.06710664406408151 0.6747996335844078 -0.19983495455770803 -0.11421570726052238 
boring 0.24095399342055684 -0.5856183288523876 -0.05952142065431901 0.6763552284054419 -0.49595334440380107 -0.13025926441367086 -0.6090144373825648 0.28299492904215 -0.39963969024140794 0.07120724141794749 
tie 0.3447979098128865 -0.4422400062226758 0.4234078399849265 0.2522681292711858 0.5189733231698423 -0.04552285147649336 0.11343040715984165 0.4969186542313095 0.44049650317764605 -0.04959164183905912 
work -0.07750238748585155 0.39847959671922345 -0.3858591625042255 0.5903608379047977 0.1366510686997455 0.5114538009897339 0.35917010189013837 0.852141730643792 0.10542342337667177 -0.045789759222315346 
gossiped -0.012927607621104266 -0.2911570314402838 -0.18396761348483992 0.19528944397868314 0.005101164229416075 0.5245353566610262 0.08305745339209519 0.2234505108384094 0.15409096820932316 0.02526076446973298 
happily 0.49562381104478315 -0.11494306817117278 -0.33757118145379783 -0.041429868068982176 0.03467068824748014 0.3276451360192 -0.36782448374253063 0.4627300666805819 0.21205219380331206 0.06600667455618292 
wrestled -0.36220226379342485 0.07437378293480157 0.2624621215421804 0.13217070335557063 0.06949323186302175 -0.17435961445041884 -0.2223641561131457 0.5617795128657584 0.43894667313905605 -0.11751964678885951 
screaming -0.019390206432502027 -0.0011932182490478147 -0.05775976875300468 -0.06460677103044547 -0.10625660031794099 0.032049059572375554 -0.13962604614586882 0.15051649757567565 0.006070167956885366 -0.0490195068580586 
into -0.33298145645733895 -1.260654066221348 -0.1666292271764439 1.4385163857002343 0.30299872503480874 0.9176106948556824 0.5480245396364513 1.0194573863638916 0.9295602592629789 -0.5022483641693787 
high 0.2668663706719772 -1.6544117816005024 -0.04217517051282984 1.450434926038156 -0.9964019014418979 -0.1246909479377461 0.15018840583275825 0.08130983531586258 0.4658892764632204 0.37993208611329443 
chair 0.667004537169546 -1.1866206103995238 -0.35875546085343757 0.4092608994373703 -0.170359308731861 0.3829824867241827 -0.20783890641765337 -0.371805711490865 0.567976123436035 -0.11889577339126518 
None -0.11080159639017556 -0.45807330218734515 -0.3479873795305913 0.21386581980739583 0.25422571059779836 -0.04162363836481278 0.34036086542529054 -0.2402656915119108 -0.2322149022597023 -0.20096835833113288 
them -1.57606320279512 -0.7551681809628548 -0.4896339967021375 1.2855068543506059 0.5652656505139437 0.8392009078455248 1.0952387985297871 0.38858879169946614 1.1952034697259055 -0.14954833554289715 
noticed -0.7344796167084218 0.4712694671612916 -0.9013946644022082 0.3402741517032515 -0.4185385676241854 0.6378335743885075 0.1275453694449051 0.39476148913503073 -0.2033899991511463 0.3090066378289264 
tawny -0.028772714910544228 -0.31757046809765704 -0.36801064123831545 -0.16045515073019417 0.44235028258904374 -0.05057204471531167 -0.1956078948109687 0.14550340599874126 0.653884568101354 -0.26518219385198466 
owl -1.42040553590081 -1.163836870950663 -0.0745744018400897 1.0564447910584644 -0.012563263242018993 -0.2896886152198948 -0.06835458155264301 -0.9581936512758165 -0.3937274492497095 0.02646473500806301 
flutter -0.3140528728037715 -1.1289712878071723 0.018131844721494206 -0.14871825932352867 -0.42551872900894083 0.13047094515857569 -0.7783393415954369 -0.24103349326931087 0.6752780654729397 0.22786211218842017 
past -1.4445905482210213 0.16042048601593456 0.5056434480414311 0.1669796880807783 0.8230499662531379 0.9268058093449443 0.8095416214277869 -1.4704304599099123 0.9212935410677163 -1.0349535899427056 
window -0.9109779910640756 -0.8678958464364063 -0.3919764898888821 0.3948910210717552 1.0395580956089452 -0.026983320868489757 0.423269004940783 -0.13478835354033233 0.8233559971170513 -0.13128685347684566 
At -1.032365791083029 -1.5916270855267096 -2.4258740827527827 0.6617090828009037 0.5664653371426355 0.00800914315507073 -0.2839803213423238 0.13307449485372097 -0.11163139807436795 0.9530615787214569 
half -1.0634323539560806 -0.8691323567524729 0.09838504333271322 0.6213975325477576 -0.6100701665426138 0.07577511502812195 -0.040106066793926906 -1.0553821382428399 0.3196940729315264 0.05008776644765253 
eight 0.18158395485892984 0.04714982615496677 0.19386682872603336 0.23597830304597744 -0.3458366871688074 0.2774886004048878 -0.06491543425674152 -0.17772900122136218 0.002645340571068383 -0.12599572798525116 
briefcase 0.2908709435460178 0.195025105011335 -0.2936574520264962 0.12244441571850861 0.14902597293385908 0.1722657204017045 0.16122928500789624 0.48733369714625396 0.03991815365227447 0.41653534970431366 
pecked 0.10844988690964097 -0.05671918331827647 -0.0399693019768787 -0.20757116654665506 -0.13719203507838804 0.21564844420749799 0.11139888191529793 0.009705629591295313 -0.31739931026037227 0.13668579351287885 
cheek -0.3096213403222955 -0.3127520708800238 0.018865492564542494 0.44014885264088677 0.4139158204859852 -0.5931032960325657 0.538090422524586 1.5747593080079916 0.36377076718780366 0.6082520252699317 
tried -1.0379733727529552 0.40701435077506887 -0.05509384064579645 -0.5529157374513407 1.1521030016178038 1.5406132670717065 0.5530586010953543 0.5523453706012851 1.7877869148564551 -1.2982985386136585 
kiss -0.24726084010151198 0.9357678107251312 -0.08594595763478682 -0.2057156882920217 0.014580677289875124 0.513757630016131 0.25820420115376813 -0.28684227520737715 -0.33333911716917364 -0.3107874141373112 
good-bye -0.8738767009176152 0.7732487774565174 -0.20703029239761928 -0.6998405663047822 0.9825431239044964 0.4957859150698656 0.16376370561641868 -0.42574913637210565 0.064924181860197 -0.5218505484067578 
missed -0.15027584366731667 0.1365036809974095 -0.5018040067023366 -0.3859522054089587 -0.922092366064728 -0.06820537513062871 -0.4111247709490547 -0.1453994558222106 0.2645316442709834 0.19853320535477015 
now -0.8912451810647066 0.003444765294036367 -0.9206244526718037 0.9190504224458645 -0.950938745920529 0.7026958481265322 0.53389972036141 0.15500292912031044 0.3826962304222318 0.38808454244086554 
having -0.24596455009797563 -0.22118014592812374 -0.42347506580020355 0.6254107036256493 -0.3193532605776416 0.27611026689035467 -0.050984658804295424 -0.14861735611626548 -0.11393352538651341 -0.0798293216981074 
tantrum -0.6081091463828078 -0.15393413530002364 -0.04524002604992969 0.3319888199824634 -0.24112302774375466 -0.3383867546264332 0.1112954691855486 -0.2521310005494683 -0.2006590595858752 0.29405668146596475 
throwing -0.135319955951557 0.07664383486861936 -0.04209056122052518 0.05381236057055239 -0.37545819190775853 0.003233587424583295 0.3184481222826308 0.6393478811143876 0.48384008941440587 0.33789360098428606 
cereal -0.09701571498516348 0.2069194011440354 0.05534145980680426 0.4916202479812617 0.6233619564284193 0.08019081011994164 -0.5722145901126419 0.20038379372010826 -0.5941763118430569 -0.43229475884987134 
at -1.545578523724394 -0.9684117826835645 -2.1325581651611065 0.6323867853322929 1.245446058974924 2.5145044598178536 0.5690929004805301 -0.49162402001228467 1.4783350717560881 -0.6721326468782495 
walls 0.33811560199664825 -1.1656454868491701 -0.4164923034926155 -0.11976740297042263 -0.12316488992384073 0.17635247858203715 -0.18864661758056656 1.1703774175787 1.4307946574174963 0.2457493211795802 
`` -3.8489307829065442 0.9247635510850359 -0.09735945519370667 0.6232053201833254 -1.517736779092915 -0.42611196360365744 3.05227230676925 -0.1992981640823264 2.010837440003132 1.7181704592038742 
Little -0.8839962413795468 0.1362258508674248 0.4014752114341965 -0.06512648591885911 0.5530113444336975 -0.6602563187561623 0.044106534449861096 0.7107489574527706 0.18911643726176092 -0.17573792634381097 
tyke -1.0864567171321429 0.626476663155584 0.7544361402656877 0.09518806325381098 0.14814709019278063 -0.6533170984451857 -0.6137885002191305 0.4015636456138453 0.20475888157561653 0.12797085898385852 
'' -3.604851052978467 0.08392492198423745 -2.1908413208064843 0.08684660908844552 -2.2012403039470803 0.7258259931462051 1.5031104565315871 -0.3524132011828718 1.5307867693844293 1.3734717685321765 
chortled -0.3686434302929542 -0.007307685156554888 0.1475395389987161 0.0035359982238413468 -0.1785720074561149 -0.004683496291216942 0.1069651788855937 -0.317464420801803 -0.11750581339386655 -0.048151834475071806 
left -0.7191986474400967 -0.25777839460184754 -0.4018369960665049 0.4809493217421106 -0.09376107763913018 1.150111048605404 0.27893556156985205 0.31807460292902834 0.9791974689920655 -0.382536894071752 
house -0.8277566505079437 -1.9170252894886157 0.4206169238534544 0.8519601207885261 0.21444320774678774 -0.18001689141481628 0.7215632073162851 -0.12218008391763713 1.4864843459831094 -0.09111313581108244 
got -1.3315075826244562 0.9259592538977652 1.2141889807058153 1.7172250854524123 -0.41671893131032334 0.29463607436838785 1.5119076404643805 1.2061489285592863 0.19034715803949542 -0.2522833527452496 
car -0.048623190829660205 -1.1131530637686242 -0.1634306646512304 0.830042227065879 -0.4968053165889546 0.19603505180181022 -0.03132846664766156 0.5587389954784413 0.5762167337691619 -0.0347282597830528 
backed 0.2199465274303304 -0.6324460971156302 -0.9233053153875377 -0.7323844316505062 0.12827956294647053 0.30030531420624695 -0.025306108781823294 -0.2752935288792481 0.8906711214893255 -0.02333690427484822 
drive 0.04116506213902524 -0.01090829627298906 -0.21820703648071604 0.11960870119487785 0.41215050224986227 0.033403726142720275 0.11213488337963542 0.013338488473674123 0.08580333383439559 -0.1141121616104532 
It -2.4379274093541876 1.10743351776299 -1.7647280007743054 1.1525212501771451 0.9917855082823973 -1.1780289030114703 1.6317476119145637 1.4392455695953763 -0.43087767950609546 1.7573674511254684 
corner -0.235214795830043 -1.8465321161114066 0.29772425159971483 1.4590943364627853 0.6381575518990372 -0.6319223751514634 1.1056480581625776 -0.1405321470190526 0.2971704669022889 0.3409722068830431 
first -1.6204301242565633 -1.5467626964045702 -0.27823011144285226 0.9993041182741205 0.7800867152322236 0.24311898938743862 0.30468132493005373 0.007704396886706898 0.8878678319645018 -0.2996190728696116 
sign -0.2715124303723035 -1.4353825236961455 -0.2372190424240234 1.0853154341531281 -0.6245301365946205 -0.17980265872490492 -0.09446937979127212 -0.7202085735245051 0.03595073990169166 0.3694356024873615 
something -1.172314769333674 0.06897251969240324 -0.3272433709450871 1.3458189385700212 -0.46932978457232205 0.6974130223266336 0.7450172068786032 -0.3038716519385148 -0.0504926022791736 -0.23782691514474036 
peculiar -0.012131452227710227 0.20060638002552683 0.6087919927530309 0.6999286025562302 0.323477034075923 0.23020644304118565 -0.0844326982466635 -0.06734723070107576 -0.6484031626052522 -0.6518594704811514 
-- -1.8339498538339716 0.03061928903618052 -0.5755481127240336 2.0695067195109673 -1.5036077520179503 1.2595815880785879 1.4413665735545682 -0.17237219422720562 0.5063532578915826 0.18869590010111392 
cat -0.058443548716079874 -1.0617837671993833 -1.2179167547907697 0.5325358706141151 0.8023133836407804 0.367802493598802 -0.3081431276901576 0.3941102987729121 0.13564279966774384 0.08574998082457402 
reading -0.20537263013034476 0.032635803005351655 0.07012765965548878 0.29038387890478845 0.0019896625345447224 -0.1380415214935159 -0.13031779407737726 0.0750358533214946 -0.28348808862791414 -0.10456337118915697 
map -0.11524511095445125 -0.38694520202702976 -0.3531028851916905 1.229158605502671 0.22675198104851077 0.1155683262760285 -0.5699189481797727 -0.19633711851178953 -1.4389875947600639 -0.27469801863052556 
For -0.5893776651065932 -0.32026612046254366 -0.4221693905703548 1.0813889265781416 0.1828961361277891 -1.3769407496299941 0.6378602546244991 0.8872645869362807 -0.4464563607673829 1.225148183815947 
second -0.3473525263831949 -1.1924008796847883 -0.25664689086750264 1.3720973714674163 -0.48985982066244016 0.6182771688461544 -0.09114635074248723 -0.1744442108280844 0.0822767300326957 -0.3271484752996128 
realize -0.029849008000485705 0.9084337748383624 -0.0902083395452836 -0.12595741555085016 -0.22921285019500376 0.9030515108853552 0.043091127842981386 0.3315454276432722 -0.031167492760152876 -0.2557984511871823 
then -0.6288907026578816 -0.4775941724127849 -0.4685687811361974 0.7519666024545086 -1.394059631009121 1.1346015552169229 0.3865716751663881 0.031830902877751234 0.9880851902125951 0.10256651045991771 
jerked -0.8776699185267438 0.5558778523347346 1.6238021887528373 0.6639607770261584 -0.6723525934969015 -0.9845612973786797 1.2909123713173247 -0.10446953689657326 0.18061323789302647 0.341740306105407 
head -0.34883087377655486 -0.33570252713934373 0.30874883389916374 0.34796980604008093 -0.5117846451980465 0.2843582593744045 0.8330120352810748 2.0851805517510167 1.9106603407006362 0.13422455684776086 
around -0.7824875859544042 -0.833446978730163 -0.35817302975618254 0.4454244451846816 0.38082152026843796 0.9306641430170954 0.4924300319358829 0.8652645643580402 1.4453827536335622 -0.32642175904644627 
look -1.492293388530006 -0.1302423890037827 -0.8843091532807832 0.8263989968034589 0.6665653078042928 1.2761833752022567 0.20914920132799208 -0.7625393791454856 0.2969026750473009 -0.6844707569580143 
again -1.294665067587712 0.009792722952332189 -0.2918426622699577 0.06760222177115771 -0.11948791394925959 0.26783748949482294 0.8589384908627521 0.3012913796566258 1.318648545368328 0.25855708281086753 
There -2.01078306102291 0.3813377790503904 -1.733090296368982 1.2174958979836499 1.2274424102691426 -1.7770593512827624 1.0342409877895622 1.2874115565690156 -0.9236901510582227 1.5060224262745505 
tabby -0.18320249393091192 -1.5847323014228074 -1.9007339835815915 -0.1661807237419614 -0.29996527175451004 -0.6952520392444558 -0.5884738586113084 0.34219024361731926 -0.2431464353620583 1.4420650502871426 
standing 0.09634143207388501 0.019528730903876003 -0.8472703554095578 1.2730536656012252 0.31845887681388924 0.5651165007531673 0.4936744315447149 0.49031301593216703 -0.18587215049157965 -0.0018078737091689612 
sight -0.9533006485958192 -0.942192454895468 -0.2407413911631372 0.5608356463597504 0.8007016221364657 -0.7298279403060374 0.2603766230833667 1.5600415313582425 0.46400989597694864 0.37784936808208075 
What -2.4612517096813784 0.8563145128054112 -0.3986177645585921 0.42649763439779376 -0.37376775329316086 -0.2690029789108762 1.4291831580972394 -1.007398770157351 0.1895139446950262 0.6768074021747015 
been -0.8666733176380423 1.5638750507821082 -0.7239427829165913 1.7350789356952037 0.9506982329029631 1.6531854925469243 0.5337214137352403 1.8370281574435117 -0.8673791578055549 -0.781080764703557 
thinking -0.11215110220105488 -0.41111874392346287 -0.022916069134682977 1.079396273460274 0.41128022483646687 0.5121947007379865 0.12084145334721064 -0.7159471265424815 -0.3651869645968833 -0.619929063627265 
? -2.9369002579915797 0.2766536562313075 -1.0925228847480202 0.6907063023358457 -1.2281822466728647 0.7324459607616386 1.3805996073525468 -0.5589978173729767 0.860024299175185 0.6263714096499416 
must -0.7237981876563206 1.3237599378344629 0.7863799595300054 0.9867415922637739 -0.1472946523720178 0.09996002309416939 1.097303976004654 1.0025428374801817 0.028475007749854175 0.10986239420515963 
trick 0.031170872139004463 -0.4194295211741637 0.08696296939492172 0.39692438650189116 -0.3110710152502707 -0.03010724604429503 -0.40056669680569407 0.21777768875400885 -0.5839029041105666 0.07076323966139951 
light 0.23880150364926586 -2.149104043382449 -0.9831487387016076 0.5485349967691507 0.052635192090256716 0.0945380670307705 -0.3663083311929224 0.2314443057793748 0.7150539188668111 0.3908327131894408 
blinked -0.4940236562290907 -0.2756594383664503 -0.198418833987438 -0.5455152176241221 0.393907315516421 -0.18809655440298279 0.1500701205262466 0.39022134525153385 0.8525052931203062 -0.06890360291235986 
stared -0.8531222099250262 0.1022175749279 -1.1899525528530082 -0.49388266630676925 0.8042093674146201 1.0113756146267905 0.15129133195196542 0.37063804105221343 1.1843163051585575 -0.2337779393258413 
back -1.1432563344850073 -0.6470711794577002 0.36225912347760064 0.6633105611029692 0.6263085012949947 1.1624137355206245 1.13514841960109 0.9623641640749196 2.1091863591416216 -0.8123500676963158 
As -0.5149399795808451 0.11316808974887388 -0.6949779149927977 0.4600601976401535 -0.002407031501393486 0.9198694566735919 0.471981382395651 0.28266835798286233 0.7875099301157721 -0.004174365076381581 
drove -0.6960541738545751 0.3282796523085909 -0.3215804738133503 -0.30535304790566226 -0.2798404936619191 -0.106534807317419 0.13348015265723906 -0.0844606219136349 0.2139935622875901 0.31915790902311364 
road 0.49748849430998243 -0.9998388183861873 -0.408595884332767 -0.2164782461427561 -0.769275190085613 0.5400343927646996 0.011997849379278558 -0.4560459935229366 1.0372030191431185 0.35520328963855047 
watched -0.5736938670749776 -0.19991012836727837 -0.9992071650762838 -0.57556204469421 0.12173945925401974 0.8088373343616728 -0.2939165836466668 -0.0012198022444789292 0.8293142607291105 -0.05060792072012105 
mirror -0.9507869977852784 -1.4091826609315903 -0.4270547998165902 0.844173394289431 0.5123786989725868 0.17340000338085557 0.4874748729946353 -0.008262262960370803 0.7922781079050664 -0.06133842437372252 
said -2.3526014218670435 -0.7851736648840391 -2.359509180227294 -0.5204436032586168 -2.9634139613558266 1.414464114108443 0.3187483999805081 -0.6470289961866549 2.2624507262506244 1.1166549321225343 
looking -0.887256796111805 -0.8463213846902284 -1.3362151665855806 0.7640142765970608 0.8789088741684418 1.334739675882124 0.2079188694383042 -0.2060204513466543 0.7152095655868055 -0.4763119744253509 
cats -0.13666090440649326 -0.1187691700248948 -0.030565320158828374 0.504546197115459 -0.22292583434224988 -0.15113564916903946 -0.055505893121672076 0.5009257092427836 -0.26861934216005334 0.05130793257528335 
read -0.8755327475285163 -0.1454804186732847 0.5252427036379356 0.6252559220963981 0.2670908916808601 0.21920325427597012 0.7739230490767645 0.10515164032017216 0.7388234343061737 -0.34619539876270206 
maps 0.03279086875665563 0.24806580647291068 -0.13640886648321562 0.4033655629014705 0.1647870090297835 -0.27478584194263805 -0.42325693132524145 0.32392059877233137 0.1342337200724164 0.3805117645182544 
signs 0.426442205265334 0.44534464771142 -0.4435541569934507 0.2572141391821643 -0.49015422767887407 -0.35345852554556323 0.16550539708387418 -0.3768826985370453 0.09991335801114465 -0.5492773406069636 
gave -0.679600409642277 -0.49495823927744975 -0.4473482748096825 0.9172131722278775 0.4502429514451476 0.4739760988807382 0.011057191672588174 0.8118181115753442 -0.006814825633661897 -0.23795058082087758 
himself -0.9928556702380192 0.19962914131191103 -0.06457700901440548 0.34068937736853594 0.1805828846736481 0.6480930995523053 0.5487624167689482 0.4592135106692058 0.8196241055928274 -0.3643877805764629 
little -0.8290365733442753 -0.9210736813830805 -0.4837203140491827 1.3756497824594245 0.7002027820611351 0.08598679476042946 -0.07716917476676466 0.657431972700429 -0.41706833672733773 -0.19128891240055323 
shake -0.9005087035578503 -0.0318763866898108 0.8670182815190943 -0.07783429710654688 2.20669299976524 -0.5627996032340421 0.7041392361086769 -0.005851137916166788 1.0462731089032935 -0.705204593872161 
put -0.9201544834224766 -0.13289284638244087 -0.16070728276961982 0.3118704168311541 0.6680505774330132 0.5665974302676761 0.4200994233874249 0.6757862029170679 0.6837052313171627 -0.4161740753587655 
mind -0.23749863786733058 0.20354577485713726 0.5960252395636877 0.5296460485134717 -0.9573112558022685 0.28880405453416624 0.8905006317522755 0.8662947405055201 1.235719134057032 0.20158082263511826 
toward -0.3925733919663372 -0.6672226027740209 -0.5580981605980261 0.7404472875317519 0.7327784272909242 0.683186668171043 0.519912037794849 -0.25817858886007994 0.9487004404409274 -0.24044324697278674 
town -0.013333708166758322 -0.3887326388701867 -0.08879367727634219 0.1999791738377782 -0.06628578731327833 0.03527715386775037 0.021935534737816453 -0.23840901992562719 0.12880837138054027 0.07659494566381511 
thought -0.8782994270119222 0.6783311866813801 -0.46568975576409716 0.9581140594190921 -1.1265589995867626 1.002302197025288 0.48220415244617465 0.5124888353835074 0.10830481589133265 0.11930213066785994 
except -0.7260096779205074 -0.47680817052489244 -0.8621786003119216 0.5055736658049345 -0.3589918953257578 0.048168304111625454 -0.012593315929050775 -0.025262279588031282 0.031038205270045804 0.45506640947119115 
order 0.059254349783993604 -0.4242753388964967 0.3660334560698671 0.17056773913924966 -0.4038029812368391 -0.334919100183506 0.172411991781724 -0.03254683591466681 0.29952877543940626 -0.3025366581073613 
hoping -0.9927166894431593 1.2552963106322697 -0.7759876286167482 -0.25852513887214024 0.00020807318796382812 0.3958921045460849 0.33522036141401534 -0.2944238700436428 0.2376631168833619 0.004541441041532646 
get -1.5169044845309196 -0.14989714811372276 1.2706990352983545 1.5593741094667233 1.1833827334616598 1.2516051515537092 1.0823752479420021 -0.348059386631438 0.569835460512817 -1.8082506070137083 
day -0.7886802630573412 -1.3695375820548825 -0.5001606002395618 0.5078441090324866 0.18872165480832415 0.41496698964073214 0.3479970913599092 -0.13585426463277178 1.093666664346165 0.00375447538001218 
But -1.8764832571561243 0.744851567250744 -0.6241240286342183 0.1321816571855544 -0.7757474667882203 -0.2560337658334577 1.133975142134643 -0.16868866295641524 0.5626607493708304 1.0636609848126861 
edge 0.2411451069389865 -1.440370918953691 3.020210858625568 0.8181714956373224 1.5071926812098773 -1.924188345769068 1.723086765658393 0.7263122951370188 1.4204134420888042 -0.40933472506117585 
driven 0.2440389443093792 -0.12019761632115096 -0.06987055656207712 0.09421952142027626 -0.009312756689566794 0.1002646203222161 -0.15996376902623338 0.07353837765590987 -0.03769890701789959 -0.11696885198057697 
by -0.41212393774021483 -0.8580970162571234 -0.1744856890630321 1.0847569047592147 0.017304896526044528 0.7388102397543869 0.5025666609565915 0.666043685890198 0.9884652622856142 -0.26824680325054806 
else -1.0791090206875746 0.01768794625666696 -0.3281859469210859 1.2958117616260694 -0.1029605633398166 -0.09843393597406931 0.5101803241446246 -0.9053296569350341 -1.1005276362756353 0.12942000604870965 
sat -0.7003903341200011 0.06089389748999864 0.13436383974010746 -1.2628481722323364 -0.09092836577229761 1.4600663787966142 0.4936354728151461 0.2385713546114192 2.429539117642398 -0.724271262212073 
morning -0.7153748844553103 -1.4943719154316075 -0.18271947895604068 0.3437697997789228 0.7306049938772274 -0.023187412055736607 0.6085349695632658 -0.557122452922178 1.0332989426508516 -0.09394087579820251 
traffic -0.1316557832196998 0.24772168677802311 -0.21269871162112375 -0.20509419310719346 0.27009846098906887 -0.14713326859337006 0.10991461776885966 0.2880331624594776 -0.02850844867874089 0.0032685552003050705 
jam 0.307064549153288 -0.44071476269893106 0.18598117676314463 0.11873383739094262 -0.35491866397135174 0.14312745264793694 0.2969702138808761 -0.49604269817587865 0.18798118308390296 -0.15869744530704807 
help -0.7885497548882033 0.5498752368990917 0.11929291395065443 0.27957493867574285 -0.25716431311276033 0.9813557139756209 0.24399081269286552 -0.7687080700115795 0.19644252704719445 -0.7164689758146237 
noticing 0.2633389451882865 -0.3828294539084428 -0.617489853706429 0.9999820185463185 0.7667828424207639 0.0751235888645453 0.16561577963720187 1.412217344692033 -0.09318827192772862 0.06636218972052613 
seemed -1.054595625517499 1.166228402671531 0.8216468614779078 1.4993181771462845 0.8636953325885992 0.8491447338149258 1.0790737755219648 0.6215956560661685 -0.10460663421955782 -0.9796254460676537 
lot -0.24206455069508248 -1.4971772642942622 -0.3769809509618689 2.1382739787112577 0.546175643328027 -0.445646312955041 -0.039645783286008984 1.2625967285056314 -0.844463303310506 -0.012997007349112338 
strangely -0.18194159331723955 0.609181198172843 0.215349547526653 0.2879233278964366 0.1735493247891202 0.25882636359120853 0.018841038147055227 0.31976108696115424 -0.38895690087801843 -0.434679408776089 
dressed 0.021692891962511035 -0.5458016652509207 0.5541472702274179 0.3524467232634615 -0.7202154337430964 0.3036158937133873 0.22447073144424126 0.2107553279375145 0.31003408471574484 -0.7759355662361445 
People -0.4689193155860448 0.1895489020678368 -0.24095925824437173 0.10823593661134784 -0.1850718368522615 -0.4224822127238492 0.3701413139519732 0.34128404868777334 0.3119630650024078 0.24855957189033895 
cloaks -0.31377601686839396 -1.3129864545925591 0.10000037817522306 0.8707750792639433 0.023993543389133454 -0.2793386140365437 -0.6023947301660322 1.282778344463214 -0.7909925600540775 -0.1501110008437705 
who -0.7415940649985968 -0.05882577078193332 -1.26314601321385 1.3635595085382017 -0.5396635201039488 1.2798539527989783 0.4821801684871424 0.21251968962558918 0.01036546103935937 0.09240954610026093 
funny -0.0543757930779937 -0.5463507882354898 -0.12581328506631761 1.3068214057224325 -0.9553512849709085 -0.9556308666820319 0.06196186891025804 1.3767021328366855 -0.5709122720504579 0.5731064035660134 
clothes 0.24069270840665297 -0.41773844914358726 -0.9190022256486459 -0.11015719128595594 -0.33327539798538225 0.7376387863636776 -0.6163605760096758 -0.061991164648605185 0.5346068757296605 0.14751924927521037 
getups -0.4242556933506358 -0.16906504712757847 0.2080286250673652 0.14284593893599834 0.26589800031088034 -0.46594950599915275 -0.17371648313637666 0.22428044072067427 0.041420346587310475 0.08415073322530262 
saw -0.6175479299597273 -0.28238944269390837 -0.30365616327798933 0.7026420243107444 -0.6714908093872345 1.0905584444297731 0.3923988587595567 0.2168174722772244 0.648078209103492 -0.23756360104411928 
young -0.1638020896521608 -0.6670078497253726 -1.1522089797837896 0.8577346624915803 -0.1432642569070942 -0.2912714533975416 -0.26475358889865647 -0.1476762231596078 -0.9820416085695332 0.7989464396847943 
! -2.601328001468616 0.09569401803452256 -0.9463608129817607 0.11793750164262991 -1.265807895707884 0.299907805044138 1.032994356598969 0.0004776345459551329 1.0962902705265432 0.9143642227499897 
supposed -0.4102237284401993 0.28393758322129276 0.29738142821758884 0.5937056317938233 0.941240739483935 0.534680130160337 0.5800050110947148 0.25130100240061837 0.06694732525657542 -0.8762782913567193 
this -1.5809730956515093 -0.6626859757027226 -1.0223491308140094 1.4917421930421981 -0.35502054564267693 0.48761851833418873 0.695051663150779 -0.38931580538631794 0.026404437444208118 0.30014031359370097 
some -0.4179939932881488 -1.1187430631172341 0.5507994775487317 1.5716020157689443 -0.07666345106663233 -0.22690959292104146 0.5464572939188482 0.5301450511550906 0.20720424651277586 -0.049627317746860244 
stupid -0.24670503435047303 0.27243464744843515 -0.41803194653941333 0.22664539153208046 -0.26782735615998143 0.40514021088370017 -0.03818328592234682 0.39751369581184226 -0.0025656271355931903 0.0023364732289038754 
new -0.40416995873155426 -0.25552778168030993 0.45454628680746667 0.6355347096110134 -0.29805508270059866 0.12642688294093157 0.3625362699326804 0.9483329948045829 0.5913106726691727 -0.2189088075710235 
fashion 0.3951972829315956 -0.6673105516177963 -0.5998786969349454 -0.25712409663550395 -0.01993843287902236 -0.18154897478685295 0.16210624995619605 0.319714788636226 0.2237615411680588 0.07327768479856898 
drummed 0.19601346283580579 -0.3415594593570726 0.02451794601627378 0.33158409536230815 0.9376277797369864 -0.17332742862633418 0.14189767103776035 -0.18200700281284557 0.3910611971425733 -0.24179227890361163 
fingers 0.49776388402172994 -0.968478006698431 -0.3904829759580109 -0.3289819640416427 -0.21167260920110237 -0.16556174845358712 -0.03732241150716417 1.7950850222915662 1.2940522726697066 0.5085333061775232 
steering 0.25959119287755555 0.1421607449437161 0.02049255063464847 0.06404889932724758 -0.1784065856618199 -0.0011757844443433026 0.17307298899267137 -0.0834660671886409 0.20252454471994985 0.31445872971784755 
wheel -0.3658769151439297 -0.42920621889548183 0.3917244512103043 0.048435394804091994 -0.5209023141336957 0.03604323929050739 0.2855493435227619 -0.0015669833733505494 -0.4778174217407394 0.22346270269357618 
eyes -0.25599703105947197 -0.3227251947479059 0.2660706185763678 0.5865280000893778 -0.13586198186159967 0.238467843677742 1.1433872844036133 1.8917013648134366 1.805009016878805 0.1845824682748652 
fell 0.021240550034896638 -0.7536294410733835 -1.196306078996383 -0.42657069320601815 0.08227869899510921 0.9841750774624533 -0.23961463905961788 1.5305153732894035 1.4874639379891286 0.09231471811866884 
huddle 0.4866070263820388 -0.6064759557156665 0.0292938225946706 0.5877990312491282 -0.5740583740936205 0.19048995757134235 0.09580424175837943 0.10016661507805183 -0.3747250389439092 -0.1741761322666202 
these -0.9090505520525181 -1.473288313815166 -0.5295171395906124 0.822625066355949 -0.12217766800409438 -0.4940222818110823 -0.09359761676923085 -0.8961985370121454 0.18913951928163986 0.4496634769494237 
weirdos -0.4194343005144801 0.3391620087418315 0.4818266700801443 0.07398395544736319 0.012682314023242715 -0.06611098149600556 0.1871178405491032 -0.3303096550116279 -0.12413679960795052 0.005504502301977625 
quite -0.11229559028788876 0.16839284385080336 -0.3903206256190829 1.1612044459769364 -0.45516317246550797 0.5363020317800056 0.26044116493625136 0.14271994482451475 -0.2540825926637549 0.12906534446260645 
close -0.1522081419388572 -0.5127268689819329 -0.5260232112809253 0.3599435260250532 0.400145368391164 0.6499268522796071 0.1700958345255705 -0.349451927524413 0.5801247343270839 -0.3142299677806643 
whispering -0.24281116984608492 0.728144696549176 -0.12189193649221096 -0.03769790918490307 0.5235570653617435 -0.07393043254270759 0.3755440846613949 0.28737812727403134 -0.41517144395646427 0.2974560936530579 
excitedly -0.43791295336010727 0.6494380120906815 -0.39355241046365463 0.23470301404198127 0.6945601658495403 -0.45405623777725 0.18799726166305752 0.7199773850491675 -0.3602762226181011 0.7898670483595498 
together -0.3677062377023082 0.30050058446371686 -0.294023758088285 0.06931987553079241 -0.32945672219352157 0.487850966337038 0.3672361355249563 0.2423678767660052 0.6701376934715795 0.13716401016540852 
enraged -0.1771103370341102 0.1397938454398796 0.0997895654006566 -0.17554169737928418 0.41324305145747553 -0.3075137369343968 0.08869309809832993 0.2801815087647499 0.10856815717829162 0.04683969369761061 
see -1.4233698622472732 1.2309989810889914 0.3847063907765078 0.7188706966737046 -0.30698609560148776 1.587490275714273 1.0266955137217852 -0.3943696015725516 0.5804098700584823 -0.9923421691695228 
couple 0.1938539217330975 -1.1107660379554498 0.1942333364469913 1.434866781414525 0.35818454750094925 -0.02169243789318542 -0.36480997636020907 0.5394139337257975 -0.7426210040164555 -0.4453760514982643 
why -0.22304254908818816 0.9590794882465168 -0.435504591189098 1.0758168571659104 -1.411396117361564 0.36280422748167274 0.5393055609899188 -0.0005071404441692184 -0.5095738297245087 0.7985305890951961 
older -0.3871578757489854 0.3445515068581314 -0.40069842234402386 0.14548874949495344 0.06649095014606154 -0.3139746830598455 0.11973021510739745 0.4143823499103775 -0.3939162460548591 0.5526635446482223 
than 0.27361634245295263 -0.3541433892372874 -1.149545880696968 1.8093504723956246 -0.3378911705347136 1.3408143691425312 -0.29191162029995726 -0.06908409925635461 -0.7436124586322483 -0.3132608411221055 
wearing -0.44805996766966 0.014936491495984805 -0.7307245527729204 0.7346124924118684 -0.13018254971646293 -0.6867416189493745 0.28266686695933885 1.109045826975243 -0.47942929021766156 0.7870140623890322 
an -1.9743413303110007 -0.9131478636033686 0.14605628615928262 2.0858257955389785 -0.5149491127671609 0.088604922643304 0.595714739975218 -1.6219179184230743 -0.7421351122223905 -0.19433671266936497 
emerald-green -0.1085458586626762 0.000186445019348426 0.37553609243893515 0.2580366393817851 0.2357303363753101 0.3189912717754171 0.11423879422481635 0.24330668544813078 0.06769831678434032 -0.4332547346321679 
cloak -0.17125802135689125 -1.401990936363764 0.11270441759709808 0.6377037718363736 -0.44744479926992764 0.3856045374303899 0.4197100877031224 0.4620909521283094 1.5162463134045467 0.004291043563844299 
nerve 0.30877188440068043 -0.46532963250879444 -0.2563806787677586 0.055087676113018916 0.1581792879985529 -0.16123775278752167 0.17384729439828595 0.9015114265897543 0.44289068776021867 0.3290712578730638 
struck -0.1882729980755754 0.397870715518224 -0.4715087089831043 0.2533952661103505 0.09685592345574474 0.04909995078514226 0.10014517668015382 0.3419082982487414 -0.43904201184587544 0.2817217777193948 
probably -0.15610040169619938 -0.1944162548174272 -0.5545283844540113 0.46667126481616766 -0.6812588396820682 0.2307594550761994 -0.15067722638925063 -0.21166187097624162 -0.14441377463296545 0.3246530824850538 
silly -0.06928642602215737 0.006672555948186783 -0.10518608457873463 0.066242951827219 0.20991632470845933 -0.09500702825809035 0.062438045706567774 0.05580198980825887 -0.07738717067744383 0.1648302366060737 
stunt 0.6039839108926932 0.05978132228091824 -0.19180308042763303 0.6159168526536738 0.28774887622160755 0.06328620451226077 -0.1274588001920828 -0.2574190689131608 -0.20068536781748425 0.10449948201250794 
obviously -0.047052917390575086 0.25806083933230145 -0.2719632764456867 0.07036055999849496 0.12996377032555484 0.23673597543976774 0.02751619407425382 0.23412020397006567 -0.12788643810500677 -0.05254596860074218 
collecting -0.1457904259459258 0.010178687737124922 0.011586715977120965 -0.05050400949032394 -0.07596934194263542 -0.060380886466248285 0.234455178899226 0.03651637755713212 0.17111161191171861 -0.16088868073176188 
... -2.0876152750550063 0.05279706554931728 -0.5093924354486683 0.5123256255951585 -0.9173867415907606 0.6147702908328655 0.7391432381776724 -0.9905010623764621 0.2854655730734722 -0.07077601627781532 
yes -0.5562045167264092 -0.26886382894905675 0.6814263603895131 0.3458276689955788 -1.8275159559126615 0.36124417817687976 0.3046439640255949 -1.3054819400149436 0.8184615825365629 0.16129612528589427 
moved -0.46328025659191874 -0.14257329404712354 -0.4978354834404554 -0.2072881737305674 0.405302066455769 0.508509050695688 0.07812534868759652 0.18308494702215702 0.7041588840402024 -0.14594097701235448 
few -1.7295010716537256 -0.9164675610345314 -0.7025584802016556 1.4139210395556987 1.1347530576758333 0.2788485580338021 -0.9312357415822765 0.93265884867065 -0.9532360893880202 -0.61361312595027 
minutes -1.559784231341192 -2.512471406898623 -0.6166533039809439 0.12185530233342667 0.8584560267668421 1.075356485808941 -0.961023349723504 -1.2186624680712839 0.9668485906365495 -0.8477076993516699 
later -0.4741795084859194 -1.1991697287828536 -0.4011911786735374 1.4555434347443386 -0.4974967052930786 1.250885489286922 -0.5399765568133521 -0.7294511411826392 -0.240576134737607 -0.7872387209695115 
parking 0.2617108830127008 -0.08075336956376668 -0.2722237057958955 0.009504026770266773 -0.2023112509499268 -0.02942300033300557 0.020727785983883418 0.11107038030929221 -0.049038826950162186 0.4620803521414919 
always -0.6135887848916878 0.7059911035185932 0.008352259904831634 0.6134904411338913 -0.028903289991734263 0.1960259129680554 0.4921935430756392 0.31873303329387503 -0.08683886284812554 0.09788893628544876 
office -0.17546724173554795 -0.7547741853657779 0.20809008190672829 -0.012497854261563274 0.14138458205064192 -0.4853193090491532 0.08138649135796605 0.21328680584892135 0.7042113525363024 0.008180791668280063 
ninth 0.00848723966723406 -0.1477439471013348 -0.2556499357425855 -0.27515732116648955 -0.03356928153894437 0.27865618507619516 -0.4241991919609098 0.0013993630985665584 0.3660596148708833 -0.17488438923476216 
floor -0.44478606728768505 -0.5838048036295477 0.5068391952804101 0.1814774444491017 0.9571805261277817 -0.1342938973264765 1.1699206592115199 1.0496968647479616 1.955771053548526 -0.03321061617854108 
If -1.8772373726251668 1.4206706289540936 -0.10552293488043445 0.15744859758877217 0.4418836683647157 -0.5819468305730959 0.9499059892934955 0.5252947020017047 -0.14540512360181126 0.3036585911500409 
might -0.37002171991205013 1.6769023962676555 0.25583939646289583 0.8794833594473019 -0.42446493003889446 0.9251608482681418 0.5291627011705224 0.7747838995285068 -0.5351161852208486 -0.42812262893900455 
harder -0.26419473842197316 0.2502601175667056 -0.3892064905769924 0.22838021495843944 0.5812946979296887 -0.0008309631436057563 0.017739168477927003 0.5464185461640462 -0.057571788499540866 -0.1585429282054272 
concentrate 0.3437605313126353 0.5158047150667797 -0.15335454625565825 0.6993081485812415 0.996837468964129 -0.04577243272191289 0.47950843824940664 1.6655731543392314 0.5434687561808468 -0.488552183073478 
owls -0.38717204584768095 -0.03341623792404842 0.3834063088288986 0.3472106716532235 0.5176066069552332 -0.11515075285908252 0.5927261914037633 0.6025545035834317 0.5836767367732206 -0.18999578712000129 
swoop -0.2517344944532369 0.5611006093277975 -0.2712748407602781 0.003873577655964161 -0.36492041917243456 -0.04719410185508907 -0.2995134352163828 0.12492312535296876 0.3777465081337917 -0.11230417282302578 
ing -0.33739030527847175 0.04904344033369471 -0.19316179306158326 0.12155508518576773 0.05036165578344823 -0.08562943642767937 0.015813512574012742 0.07632036526844307 -0.26161732820905803 0.1827467594517544 
broad -0.3253111714814424 -0.53563565872228 0.6225367381885615 0.09862332435133678 -0.5184735849778151 -0.07077593035154206 0.008312230079560556 1.0132755430376617 0.9187281314943676 -0.3480541257124979 
daylight 0.07931430641618804 -0.6503175660751082 0.5376107394652656 0.5694549963988658 -0.49874722420550877 0.1555682367504969 -0.11629830545226917 0.531846446440366 0.3769744291345446 -0.3055070918325762 
though 0.4343302762507447 0.08450106132950619 -2.2394608695659377 0.9170437258469705 -1.3013081360660954 2.3401465260027514 -0.8326357672330719 0.7043707486477887 -0.18822494018106817 -0.2197419137621397 
down -1.0178656129844206 -0.9518576534558145 -0.17181380511981115 0.1159828321786614 0.5355102167553609 1.4891009718869705 0.4931672576357505 0.3131332770005724 2.0590878989011365 -0.9103412967536282 
pointed -0.3055768406381545 -0.8782033636124289 -0.4031636878846877 0.25842976167708176 -0.01317246919449927 0.5493154939574413 -0.25776805014021825 0.24525958915139232 0.7072057852561996 -0.3280478747929727 
gazed -0.12409213567430451 0.05453193473109279 -0.19430579275585333 -0.7344006809616186 -0.20121333395330993 0.34751045403047987 -0.3296351001920641 0.1876582068283074 0.11558808979250783 0.4241052909599655 
open- 0.38188631612103124 0.16633072028327375 0.03696557854672408 -0.2700333102547362 -0.022690127043440284 0.17994560254123804 0.08703165375643918 -0.13937884249268356 0.5309287249227517 -0.30894040642034226 
mouthed -0.20245826745929765 0.06754562263565476 -0.33059262299723435 0.06266342429642449 0.3385901126355541 -0.19064552123557993 0.020980273848216685 -0.17566477814188242 0.0037633755388420537 -0.06415727428175871 
after -0.41964719975916054 -0.4587103322925395 -0.20885034038354156 1.0259635208172107 -0.5043595309062562 0.3784741284131029 0.5950594158701339 -0.31385172377502984 0.3978066246903553 0.15194262353198718 
sped 0.30263084356008985 -0.03995011727134844 -0.10512903007137081 0.24113330076967118 -0.5365933525541751 0.5672142402478886 0.10648268036229722 0.09753182355593745 0.3086604510080605 0.04390307368364574 
overhead -0.3349947664543697 -0.19689197233535313 -0.08374981904614698 -0.3867437558843366 0.3733753094157728 -0.1974921910705265 0.10495584088387226 0.05746620042425821 0.39576039218752856 0.03160492723379087 
Most -0.20302152796070613 -0.13715424258486314 0.07895436613084328 0.28498718484633623 -0.5424884936311416 0.26595918322038314 0.4349093675131469 0.2642020510859228 0.26738006967380007 -0.09228887601103213 
nighttime 0.4434580967476872 -0.4972307289340234 0.028525545305718464 0.20305384963645653 -0.6117900263409091 0.3889289676193245 -0.258546844403182 0.0585819645437928 0.28880759794811084 -0.31023509942744076 
however 0.7446016925855934 -1.8166321906063168 -0.08400439168777551 1.8829932514479029 -1.0758663959050823 0.7992033192635357 -0.04442842819745635 -0.03473061312452745 0.49642181536480057 -0.2121017418452858 
owl-free 0.14892665591469956 -0.08503001623406065 -0.44825315898317514 0.5725809265241674 -0.040327206418067585 -0.31854340338924914 0.44826270149377334 0.2948208627660367 -0.5018867095360986 -0.025477122993844387 
yelled -0.6470402050410877 -0.5532507285659043 -1.1698197238655546 -0.4195205927031534 -0.8919941559390847 0.292721512113411 -0.4025271790802648 -0.43271901826897363 0.3140534362968449 0.3977927658645571 
five -0.5851181029134978 -1.0427248783031857 -0.12466408988630262 0.006382496675561095 0.04934676205949995 0.27980370601221605 0.03987248212228877 -0.8463979716914423 0.7018249185287551 -0.058861570886160675 
different -0.9276921046047937 -0.294064074804065 -0.5205912234394788 0.4240421354863439 -0.15981202370591682 -0.37328322144147996 0.11013787965405247 -0.42482109559215925 -0.11203481745947708 0.37454236373277505 
important -0.8738559460994118 -0.6146668751683517 -1.1409322980010455 0.025875705714850847 -0.23459508132379123 -0.5429186112309055 -0.05998766320375626 0.3410573556493085 0.10385850876157232 0.8538012970867004 
telephone 1.2642736603408897 -1.0226059908337177 -0.782980362296296 -0.17147641072073183 0.17888998991739008 0.7372989782947034 -0.6898115708821285 0.6407516651462711 0.5572100100609841 -0.28477077019338687 
calls 0.36288277421216386 -0.6272418075119047 0.341115405670097 -0.5513920339899152 0.4489137118802634 0.3237044451411021 -0.043483583027537215 0.1505765979846867 0.3271443469021079 0.00784535306692257 
shouted -1.154895286012346 -0.5819942465489716 -0.5561422108255668 -0.11604502602476273 -0.6971200640184976 -0.09090098364218127 0.19667435850414694 -0.1500599287321714 1.0292531006332628 0.6112322659903885 
bit -0.9482331534274941 -1.4063246037600066 -0.27986411825434143 2.0014183364890297 0.14748995433887982 -0.4418737102789927 0.052927010511367 0.6256043247155181 -0.590267603856196 0.053632050309114554 
more -0.22447485886359542 -0.7136882514366076 -1.1055959132316933 2.0739023139699078 -0.41722396552163427 0.7678090229939132 0.08462665284114107 0.22459492877356732 -0.7497290472792082 0.12039804038597021 
mood -0.11255608343725812 -1.0426278859178466 -0.7207109679576901 0.21421786312768235 0.09243543702685464 -0.5518389050042176 -0.013167444833322231 0.4675525247502532 -0.5516517297809432 0.6637016049524694 
until 0.1777271949461371 0.03275371846443201 -0.6237485554263913 0.8920962692522625 -0.11627962755946614 1.069970517595848 0.1847414270285782 0.06623732957747594 0.08490207350661431 -0.22111867153745812 
lunchtime -0.10108662535450383 -0.06076766810555197 0.28828352874326596 0.47673457429934407 0.40100183162320896 -0.11621201062527291 0.39451097813262237 -0.07877010478039681 -0.19541278645772203 0.016484636257881408 
when -0.7055715205931308 0.20701238607584876 -0.5075141946451643 1.0119447172761422 -0.723524217611213 1.2270362906209464 0.4662715119175147 0.5055311399524514 0.4432205870390405 -0.21756233293135216 
stretch -0.06451044107843278 0.03797832957529125 -0.09337576661656677 -0.19046120292166074 0.3692370569674245 0.03282202630437045 0.11211132081373787 0.2683825008322871 -0.3264374237047095 0.2578673378280475 
legs -0.024182586821385486 0.4454552877963982 0.01372666583907145 -0.20276939129220953 -0.23608208961138233 -0.07983948641085345 0.32030410314980934 1.652712157545583 1.1447576048355195 0.5289772354237228 
walk -0.24918403784278004 0.0611808870266969 0.6623837265037735 0.39225402167628265 0.81414178865154 0.009082430496856045 0.3162170629782282 0.5407611060970756 0.1768493113158257 -0.5427438307010231 
across -0.11859228000646989 -1.0752486493943456 -0.08621183895093164 0.4230232321044788 0.28711998320227683 0.3516221095566588 0.2798423786711325 -0.06568884801079954 1.417158146475471 -0.3844140602402216 
buy 0.05893279968372753 -0.0011003520262646196 0.24341549921070005 0.1981436053530875 0.3327524534351166 0.3041277481533349 0.17696950297409586 0.2987247719120126 0.42667692343213626 -0.6639134969856355 
bun -0.24303091146640413 0.1507990240355198 -0.3733124414384211 0.5720257243773395 -0.2346485240567484 0.25236259430092645 -0.15164059567887345 -0.14510390922582833 -0.6421003473182922 -0.21227372993519036 
from -0.669210979602643 -1.1476747377348018 -0.14891460974705906 0.9584708297611249 0.561843348436439 0.4147564279797533 1.1506944482985415 0.5235148946716777 1.5119323275646386 0.036364081932283576 
bakery 0.17294657235340244 0.24276229813166328 -0.34761228381679216 -0.25515554266415136 -0.06127268049004231 0.007927177180777845 0.3266960513278883 -0.30210885031265977 0.034156152865296885 0.48297454693921904 
forgotten 0.06242092872433634 0.15076378404750446 -0.13382081877066168 0.9458001504994209 0.18134913982856857 1.0497757671808035 0.04301017718703615 0.941907226679939 0.00771332907835913 -0.48982310675516405 
passed -0.42191409350783754 0.373519596763159 -1.603575001358466 0.18909056650361009 0.588652185175678 0.666666850971707 -0.2924488746198159 0.6705872725543713 -0.27413000211118976 0.1076120455092992 
group 0.2962805935418833 0.21775023918846154 0.3256374004481302 0.6453409812791541 0.22972025115627287 0.6207577092490737 0.047223801277973015 0.2681888541616245 -0.2834666610495283 -0.5390263086911001 
next -1.1899675762357849 -1.2608744843065516 0.06873078665486468 0.5391868474425896 0.4888521795618429 0.8367986871462724 0.3980856501273544 -0.639699548252092 1.3840353365631746 -0.6843211546453769 
baker 0.06726199538228678 0.006745157569240906 0.2552698653421086 0.655847790355599 0.8753814718879338 -0.3603105711733131 0.210655532947685 -0.03439507764456942 -0.47330345445000555 -0.04207282358481966 
eyed -0.618621424557261 -0.4045191247922397 -0.12436036152048646 -0.11162070118876602 -0.5588539151558283 -0.8031423328350422 -0.32727110460777886 0.2129589582717712 -0.11572735483351228 0.5698790679857768 
angrily -0.4534360382696845 0.4759672160245314 -0.4906885949919037 -0.1576530173224377 0.24047897532463497 -0.24139743038146727 0.21251002863423712 0.3840632565076205 -0.03164400245807923 0.5069651437891419 
know -1.888074942155892 1.2178185067397336 0.2970720306814868 1.089703284520052 -1.0241631500526935 1.1834511691074083 1.2028701426258472 -1.7254348430856115 -0.32015919015627736 -0.6949627090716239 
uneasy -0.25731041090844103 -0.43618200940265817 -0.0772026950825076 -0.2124792052350204 -0.43003532146892 -0.3010100961075374 -0.3824874290085216 0.41248624588147054 0.24831397570024166 0.07748986830631088 
bunch 0.13128965771243442 0.09126760279909638 -0.27827539649850497 0.04238656371150576 0.27913128930334397 -0.24914676359394938 -0.24528828730972235 0.36866914294015135 -0.2166331679838687 -0.2357590857181895 
single -0.3764395890105904 -0.12322474436536963 0.0869986015181099 0.3118427949526947 0.21782021193716106 -0.2678901978801812 0.33171005888817096 1.1397536433581552 0.6540215648105577 -0.09478188163751824 
tin -0.4965585699522617 -0.33629517259228225 -0.27522796631104335 -0.48887820664592363 0.2109352175140883 -0.2833167879251388 -0.3349340401158679 -0.13258792028475594 0.34842552558073114 -0.3968011055100844 
way -0.305838612292034 -1.351597579235567 0.13148551251912263 0.8092770956345234 0.3721242714740433 0.7233043419382774 0.481874257032305 0.8371718030092601 1.7209133601414306 -0.4870282251435605 
clutching 0.17980836004305448 -0.42333620574585723 0.1372487671096528 0.1674408574296902 -0.403496204316593 0.4517309627824978 -0.22429119399806627 0.015502053881544285 0.6976446549940286 -0.5708881416729275 
doughnut 0.28454414162857905 0.10520755670859297 -0.3132880383435346 0.4015852812087631 0.21133386844009414 -0.6612998937308191 0.5276418130066145 0.23949375305355763 0.1536601983848123 0.1505923720873783 
bag -0.18784401036861753 -0.8588090700178117 -0.09876064555387604 0.7787395477018754 0.04494896582381842 -0.4694439752138392 -0.24626576642847142 0.7241625088673094 -0.2507378656467283 0.179930052420975 
caught -0.9633776870941748 -0.1950559504044137 -0.43489916029807224 0.4776840194747882 0.30380797171766616 0.15147233359560255 0.22637880737772836 0.5480868833377557 0.15271188075074382 0.10986046273581195 
words -1.5199202717643046 -0.43573297168381253 -0.2054281605965354 0.5227602468898118 0.24773538146265978 -0.35768974604467724 -0.09887023677322249 -0.3561806095448782 -0.14336558998827165 -0.01642321404444555 
saying -0.5615188204137241 0.8670453933237874 -0.33497303973882525 0.6764815477934213 -0.5314052902155364 0.24898259273821077 0.8823752462837852 0.5585867726799261 0.2373085034619789 0.6407772156373885 
right -1.8454457263984179 -0.8978639280680937 0.13909033048997715 0.6835992939626413 -0.2863803464455151 0.5479057648459136 0.7353148633498099 -1.3486056269246167 1.294143276593237 -0.3085388099492972 
I -2.618218758611026 1.572110944531436 0.616373304622646 1.981708090980385 -1.532675825095211 0.5892878873600129 2.267009602218222 -0.39980865765963136 -0.0033854377366741573 0.27706931088642633 
heard -1.1902883310133339 0.49957884384928286 -0.5032044167094171 0.8103465597335395 -0.11135168790614218 0.802556523255784 0.5877629914625935 0.38146360807435054 0.020543389589973815 -0.10485343990472787 
stopped -0.42948590704487544 0.18797268940320105 -0.7732595564068799 0.23601528564384922 0.2252800007103587 0.43360448732918305 0.3162885958669098 0.48144189249289965 0.33360906038741645 0.21600805953576402 
dead -0.5036210031328769 0.1939371639422909 -0.12747856566492227 0.08257968151303981 -0.2650894433359728 -0.328781797351444 0.5196665073961875 0.3470883114186739 0.30139647004911574 0.5888253570842484 
Fear -0.4493411879930455 -0.10923376494111772 -0.5443810951481105 -0.26770170938375965 0.05552315124545269 -0.026608892029272177 -0.014783753678878936 -0.3003804346883822 -0.11101747717707164 0.29052465971289576 
flooded -0.8402652995344777 -0.37402240653838303 0.37164891987048587 0.12512211569472037 0.14518096481386358 -0.21006113209216573 0.25685099598606004 -0.273607927840622 0.30393019042709557 -0.11153929523615533 
looked -1.607672606232395 -0.43269957458165664 -2.512120286132475 0.30177012796021657 0.7155561134648557 1.6263975059001972 -0.16220700111361935 0.5937592801229028 0.4148359015218689 -0.10994676351377869 
whisperers -0.1181308209663992 0.043407931518487375 -0.24462317562002334 -0.18771919871941234 -0.37579935785676943 -0.4699201605756079 0.36575567820882166 0.2193249895086187 0.1272759024086234 -0.17633722864634785 
better -0.085852060167327 0.7695408144070348 0.03780382763619057 0.7264876809524905 -0.4191946162781548 1.3721116487419591 0.19653734690784286 0.45762494197272424 0.12826910499800273 -0.6144071548255551 
dashed -0.539441104414139 0.09312517853308766 -0.15112660069185363 -0.007343920399753743 0.4395236783513698 -0.557672608186385 0.2899791009282912 -0.08028112067770365 -0.10331808907958494 0.31824356383308594 
hurried -0.29999366810555184 -0.01371826104870928 -0.2953375537859089 -0.4199552919841369 0.25721816640087886 0.9226729914925057 -0.020118335974633195 0.3384589019581578 0.8707654445230537 -0.47751763523048707 
snapped -0.6188206992421674 0.021199803791870836 -0.5678206074116376 -0.9601915590964936 -1.0021247484892728 0.43445445690620127 0.21474560482229854 0.26034667764454267 1.373014347157707 0.4362246303081734 
secretary 0.28877983461685197 -0.5179207802848353 0.06463201702708532 0.4311486503086833 0.07209088594778618 0.0020622071135430187 -0.06963038814684477 0.051150776781265256 -0.13992483001341896 -0.215572695846343 
not -1.1936615462507434 0.8531444343512578 0.5344775925879033 1.7424747275303236 -0.5603778456327637 0.5714569647532323 1.4418347564369096 0.35376052695782195 -0.007130621843482357 -0.06025908291495666 
disturb -0.1841242585476823 -0.10458789120452601 0.2891892912036077 0.14363845291549712 0.3246661852765548 0.0771177456641182 0.12247565584814768 0.21666221438817884 -0.1772961753846572 0.020277234540080735 
seized -0.4104815180072637 -0.20803990174526 -0.3162983559488236 -0.41256509648038725 -0.15306264087208105 0.5324555734049576 -0.19494793472751093 0.3922665276841347 0.7007988139140537 -0.2042246641787545 
almost -0.25021970947761374 0.21493742911842892 -1.471732785141893 0.6697688651794222 0.4520201294060883 0.700413870713409 -0.1678355620969428 0.8531066418939945 -0.35639001588069624 0.04228453595378549 
finished -0.717142363231041 0.17470617626348262 -1.3017678728408717 0.02133073822762932 0.7667007999857021 0.2525343828875673 -0.19586408724744997 0.773172239970249 -0.1862909948932902 0.07251999732395085 
dialing -0.36231687778770105 -0.6906196623435668 0.4653757014798439 -0.24168184173825022 -0.1907625767403602 0.18164873691311736 0.35750077868494895 0.27641936519441124 -0.6908703439419233 0.23399936221334697 
home -0.2816578941070441 -0.3502249631883929 -0.5508766498160581 0.12042680653270932 -0.07385457275259548 1.0905524560846762 -0.22935441866501283 -0.886820000119328 0.39596997997612776 -0.3458026350232652 
changed -0.10951514896983439 0.691692427687282 -0.18321899473613096 -0.5003035165805758 0.6455302609413012 0.0005125240087575852 0.28226386668075054 1.1891680559044997 0.5473193789269855 0.22178982247982423 
receiver 0.5322609492827897 0.35212800793317917 -0.26528768389965063 0.030903462739588675 0.19799326379388285 0.18472565474530933 -0.5256619535227103 0.4012140729165283 0.07796963417870978 -0.372632622503983 
stroked 0.2831787060651615 0.024236028485258077 0.11839595995346788 0.34751921377929706 -0.3967939450404946 0.3913521195145402 0.19909386690276162 0.6739786391156111 -0.12996408872293364 -0.04519346879100738 
being -0.7735612442234059 -0.42404780265851205 -0.19383027485551985 0.6287338961331844 0.22906493692017582 -0.3009151433273544 0.5678503117238074 0.3506503964662588 0.24621367704752878 0.3561862939270543 
unusual -0.1771260139695898 0.5659997708456818 0.6837221143525127 0.3555297076873861 0.162752630758312 0.11998918280337702 0.4554462614121744 -0.13839479327610013 -0.09130584973460368 -0.4185978209362348 
name -0.49925812849761475 -0.42986188223040145 -0.061757029038704614 0.5452533417348965 -0.717154522650473 -0.2991532649804873 0.7522150840924406 0.9524331950802303 0.9181659709257295 0.6384705967804609 
sure -0.619741855187151 0.8403125982456185 -0.4101475063805219 1.5831306103604708 0.34335261492396535 0.20210920077870084 0.35191432741801254 0.5576315615953742 -1.2623526176722268 -0.10784704514233798 
lots 0.48436622515898337 -0.36258961964732045 0.9914582495183677 0.7729381699177933 0.0043194239642612015 0.7897092553677283 0.08627871562001754 -0.32518893094751855 0.7060994731271397 -0.7643585334673206 
Come 0.6062122994219012 -1.9585261172238568 2.5371542164616856 1.5926701445466138 -0.5378653087678876 -2.1850676542956027 1.6944998521998007 1.7158753935464015 2.2858648317074786 2.2223656178262847 
nephew 0.22730040689719938 0.16041781744652348 -0.19945346280510487 0.004008376063867057 0.0548726256241674 0.018499203656134236 0.18549931379700127 -0.2743452795697947 0.24913629485429023 0.02666669124577585 
Harvey 0.3538719428624999 0.2698440581694913 0.2665971121857074 -0.4367816318278761 -0.4981988006280344 0.1571131526213265 0.44296364213215006 0.47687195136992755 0.7911506102662031 -0.1252243507524548 
Or -0.5019916507330301 -0.07170048472560922 -0.576605145450019 -0.1022051296113137 0.3716255076116195 -0.42089701447605793 0.12210113529760894 0.5872339982700556 0.2536783403150875 0.4978165748229666 
Harold -0.48302950359415686 -0.18377609802603864 0.3068320953129713 0.123190212475857 -0.42539757805450196 0.18133306371021204 0.12100174698466218 0.5075470686503543 0.3364901854650025 -0.0367665435148104 
point -0.26765465631162466 0.07497133574631001 -0.4318489382322165 0.24431370579635656 0.80193914232072 0.08078012766125588 0.0723785545680275 0.3959452263889699 -0.12955880678415818 -0.10513748182058878 
worrying -0.022809399233978882 -0.054741008726941244 -0.016386907323987798 0.022972601377620076 0.18755095401829167 -0.05194597248406196 -0.017570982764179538 -0.023773812109962322 -0.011610577189386793 0.09290218773384883 
upset -0.13041646060301842 -0.28025478656213465 0.11047510920157437 0.05521910838699567 0.9000417860067789 0.193601045472192 -0.05536772908589943 0.20301710062283526 0.05621673398253127 -0.7154103090129614 
mention -0.3771435457958422 0.1754270743380143 0.22714275976996587 0.07851217501595567 0.8501436657700745 0.19951246602420497 0.31120220339637095 0.037466152071820455 0.30675477162978143 -0.5652063809689959 
blame -0.17827634304802922 -0.06372319963114834 1.0261662241674694 1.1770750789882949 1.3595106947088413 0.5829131610754211 0.07801489882277646 0.024912258270213705 -0.2864444637041941 -1.3888357921474708 
same -0.18790866328964204 -0.8514637883180874 -1.037903283479443 0.30904744171389065 -0.0737733225567813 1.2057800912156904 -0.0196619278147121 -0.028460916143222825 0.8949865628961088 -0.03225375693978205 
those 0.062370523545761614 -1.2640780991570835 -0.07860168812836577 1.6288954733761392 -0.7008825615258294 -0.18879093863814606 0.07008130036536697 -0.09418484417209441 -0.23542229031589224 0.2821399540893855 
afternoon -0.64241285414512 -0.4286380847124825 0.06664965252716024 0.42384913828720655 -1.0565636156763927 -0.338969712580508 0.4698714892450192 -0.30428735259339923 0.22637639758163042 0.5389382465974851 
building 0.2987230368104573 -0.21772546852834868 -0.19521634114353253 0.18274675976779048 -0.23381785311357955 0.07860061621380196 -0.2594227399618877 0.04295822144420275 -0.01404813752597723 -0.0807714568366982 
o'clock -0.40187171387388476 -0.8305265142269038 -0.08644598615027096 -0.5380201036858443 0.37155730610580995 1.4602566382331326 -0.5889676043416805 -1.1182233083422237 0.7981064916499053 -1.2439576163827335 
still -0.7087741923834986 0.3116051835770764 -1.0892857068251338 0.9932237756359487 -0.431712469372891 0.6085371138989389 0.4371564241196055 0.5478816750546396 -0.11580334593850736 0.41215575449308267 
worried -0.5791346496599196 0.11896810532107198 0.179790558401979 0.21382289254627118 0.8870847430682856 0.32588773111033964 0.43220358479567933 0.1209450354529075 0.41541703927313567 -0.6228476134966235 
walked -0.28267079171489684 -0.15891864234555217 -1.3533259512597342 -0.5435954169548409 0.4723830090596437 1.3882957279925505 -0.02746309025720528 0.7114214650994155 1.5039466525353626 -0.26040079986579834 
straight 0.03482764397080512 -0.6820840544027432 -0.09906997682263743 0.010582050859893206 0.013376208581563718 1.0663702676100035 -0.04347852653203135 -0.3498724323521337 1.0652835745787312 -0.729858483130282 
someone -0.5134799553649968 0.28375141545188015 -0.35789090807518864 0.8024098515795653 0.48676554411857936 0.11314851808687185 0.28209451567357857 0.12165584936076401 -0.5538738318334508 -0.24506623289733903 
door -0.7485705259201217 -2.0099558967710576 0.11644020163332033 0.41785613199591815 0.987316918116389 -0.0006124293956116522 0.993947487002117 -0.10181808682093468 2.3410491669973683 -0.0075031550419419335 
Sorry -0.43075134613748844 1.0199523729615105 -0.3743484869629198 0.41320725138976877 -1.0735584522427426 0.4120740212690018 0.5486083335605002 -0.6810770017178449 0.04245256152417862 0.38638974107890234 
grunted -0.174014966232681 -0.26537453885722856 -0.8076224478865972 -0.6126470747241917 0.1976881036349994 -0.2991353632760371 -0.04907730208787414 0.3922077417360733 0.5025031273468641 0.5751432025216302 
tiny 0.09813084730413019 -0.5522575373452342 -0.2513574972058598 1.368386903328582 -0.07528923160411824 0.21905715481999563 -0.13872432085415198 0.10775579686173867 -0.6228909396365493 -0.18784669980103744 
old -0.24480394048453075 -1.109603052307683 -0.9161610894284034 1.1332588636753147 -0.396675075557318 0.1482306084842673 0.07685083375464774 0.5935449550356482 0.18761175221988 0.5781888545810603 
stumbled -1.2147111135394546 0.6290144068108268 0.0036003210248632955 0.43274511621183015 -0.5891060084452688 0.3618134476764951 0.1253891478821812 -0.5493616507936449 0.19227831899083497 0.12588794133637005 
seconds -1.1221504262435937 -1.5829405575273847 0.27206470780416914 0.8533722659557985 -0.9913459370358779 -0.2938831741548449 -1.8434648691622226 1.1821726060011781 0.11791149389159036 -0.2009975987964686 
before -0.9418249913798289 -0.15216720942068812 -0.47131309329767473 0.8204689734488207 -0.6261887440422748 0.918252294511078 0.18803321057922118 -0.06750124730306475 0.3676133703286082 -0.21080726511960562 
realized -0.3344171539521539 -0.04457409106195587 -0.6929865164199697 0.2906052879611568 -1.039142641995223 1.1303201001099996 -0.16350986093762138 -0.21429046307980829 0.017310680954400276 0.08410607399323877 
violet -0.05810229722228273 0.041322615298689136 0.004125376303204004 0.16510275430736845 0.2998451683256673 0.3472797248502333 0.18475902997817203 0.02651539380280238 -0.2870820721947544 -0.008125562360842054 
seem -0.41851450380213584 1.868059708451716 -0.1655571858971315 -0.8757424578845894 0.9560184483216723 1.1923710736216555 0.16329258857496398 1.2900319029652194 0.06565493647524889 -0.49631760764869415 
knocked -0.36481704205946086 0.06686434598354984 -0.6549195841415771 -0.1885791947841412 0.735175319054831 0.44479427146124023 0.05643541788894924 0.7093615479611098 0.5110108573708327 -0.15179831614850736 
ground -0.1761480894522199 -1.3922502856818513 0.3075876597171425 0.2476346459059503 1.250057126038047 0.12430795979395559 0.7455548940331387 0.5773925214050484 1.8898205127024195 -0.40500264522566043 
On -0.1064853931052965 -1.3696359085048904 -1.0278300877622701 -1.084051406803305 0.6097248522989969 -0.5641673138385245 -0.20590151235159682 0.31673740208325973 1.744948136481868 0.8430487232346355 
